{"layers":[{"out_depth":1,"out_sx":100,"out_sy":100,"layer_type":"input"},{"sx":4,"sy":4,"stride":4,"in_depth":1,"out_depth":1,"out_sx":25,"out_sy":25,"layer_type":"pool","pad":0},{"sx":5,"sy":5,"stride":1,"in_depth":1,"out_depth":8,"out_sx":25,"out_sy":25,"layer_type":"conv","l1_decay_mul":0,"l2_decay_mul":1,"pad":2,"filters":[{"sx":5,"sy":5,"depth":1,"w":{"0":0.2379940653802983,"1":0.18760262096214425,"2":-0.5925780858562014,"3":-0.15393766798122235,"4":-0.11307465299279439,"5":-0.31495746506505834,"6":-0.09188033115411329,"7":-0.2842773882178414,"8":0.38683726305036786,"9":0.38722303968346433,"10":-0.4338418595616364,"11":0.09463318610597375,"12":-0.37031617601007616,"13":0.63459437626318,"14":0.1637723556875818,"15":-0.045390708603945375,"16":-0.4398600214988605,"17":-0.3732372342278765,"18":0.6548237305367246,"19":0.29824362550700306,"20":0.14416794701525654,"21":-0.32036610327475046,"22":-0.7674888205279958,"23":0.6208613499109696,"24":0.4391328738753907}},{"sx":5,"sy":5,"depth":1,"w":{"0":0.01570639875645484,"1":-0.38387576032554827,"2":0.18498757116761527,"3":-0.15487724332765715,"4":-0.1132103278665831,"5":0.6304716473415163,"6":0.6119167667451259,"7":0.8288810978299438,"8":0.6986303505092833,"9":0.9231941849540962,"10":-0.08730959589183529,"11":0.13064899746729872,"12":-0.008849933583847594,"13":0.43211385654008994,"14":-0.37089409750100294,"15":-0.08691581103869994,"16":0.2670707655823641,"17":-0.13345545323370983,"18":0.06667535380599873,"19":-0.004476706498233506,"20":-0.37363654091282994,"21":0.21287324564374158,"22":0.3260449553739488,"23":0.28453963216600153,"24":0.3335206742303484}},{"sx":5,"sy":5,"depth":1,"w":{"0":0.21792380225665076,"1":0.36095394016861504,"2":-0.260524153425635,"3":-0.49563822725895623,"4":0.07736375381813186,"5":-0.03786130881393839,"6":-0.14115214526308023,"7":-0.12613591282978817,"8":-0.12851822958756903,"9":0.12705454975737224,"10":-0.682232808472136,"11":-0.220031951658084,"12":0.03397086963145163,"13":-0.2740800632749905,"14":0.36601936199883794,"15":-0.17908508580211624,"16":0.10075855076630483,"17":0.10768867078084522,"18":-0.3467499140284484,"19":0.6704585310615608,"20":0.0006205092112336378,"21":-0.28044518448082006,"22":-0.24157489235551277,"23":0.20739767813780335,"24":0.7293401293059866}},{"sx":5,"sy":5,"depth":1,"w":{"0":-0.13333852639239618,"1":-0.6429644749939488,"2":-0.25057690990273795,"3":0.08125008682825209,"4":0.10191133182025494,"5":-0.45247398435549246,"6":0.34911777255571214,"7":-0.15570172464809579,"8":-0.30854026918018485,"9":-0.46605423103067195,"10":-0.26491864567581097,"11":0.6656647161007245,"12":0.3229724550878812,"13":0.2864568122064801,"14":0.16846262396400247,"15":-0.10071305300914343,"16":0.10300551681814714,"17":0.38279281194026976,"18":-0.6466808260207033,"19":-0.034366287035857736,"20":-0.23522495518239042,"21":-0.23487714110426403,"22":-0.18612917552893743,"23":0.03908591438232485,"24":0.03406566718499967}},{"sx":5,"sy":5,"depth":1,"w":{"0":-0.15867631785313466,"1":-0.23886837974780933,"2":-0.1815530416079644,"3":-0.02974969275760134,"4":0.10344257559895538,"5":-0.3293520139864065,"6":-0.2657330215078072,"7":0.31621873180112053,"8":0.29283177250867976,"9":0.022938475788581058,"10":-0.271893627678836,"11":-0.8292534549305204,"12":-0.17345287212356478,"13":-0.37320845628356936,"14":0.2228859400836901,"15":0.06777112093543533,"16":0.6873942991793981,"17":0.6023439031803463,"18":0.23777290812770183,"19":0.6259919174560442,"20":-0.23780083178933425,"21":0.16356646292407648,"22":0.3067506539911248,"23":0.3160771137986205,"24":-0.5028465721037556}},{"sx":5,"sy":5,"depth":1,"w":{"0":-0.16143410519372056,"1":0.05273656011390462,"2":-0.31451340034337244,"3":-0.02378769688858867,"4":0.2750844758502946,"5":0.13808195835936132,"6":0.6004424509471639,"7":0.02724661542179443,"8":0.7098765805651541,"9":0.9592842759943216,"10":-0.1587552830166544,"11":0.6565272056532696,"12":0.25444390228910824,"13":0.4011720062414062,"14":0.25057926819505544,"15":-0.013642812974309953,"16":0.48817789826145014,"17":0.6341972842672179,"18":0.08491389485914409,"19":0.45537986322343826,"20":0.022548562306844926,"21":0.48935057257125353,"22":0.3765174890364185,"23":0.4385139060325915,"24":0.3652449768584971}},{"sx":5,"sy":5,"depth":1,"w":{"0":-0.1171836010853435,"1":0.13017837122729473,"2":-0.3932126812883474,"3":0.3209030980955243,"4":-0.28331511890051253,"5":-0.7167822422426986,"6":0.06783532019413874,"7":-0.11684267651908009,"8":0.6799912908494864,"9":0.08952381383388358,"10":0.4370065871295536,"11":0.618774327349736,"12":0.40693192936244504,"13":0.6548442811454681,"14":0.722200979134765,"15":-0.057362066153726465,"16":-0.17244124554699344,"17":-0.352353852774252,"18":0.558684493473175,"19":0.30014077638993714,"20":0.0003052908796621192,"21":-0.012951789366364297,"22":0.03395301705743042,"23":0.3871004168506061,"24":-0.18417148300018005}},{"sx":5,"sy":5,"depth":1,"w":{"0":-0.5317841500016712,"1":-0.013841421417817157,"2":0.08125645162831449,"3":-0.23734387889145464,"4":-0.19445312270063045,"5":-0.32957017508446074,"6":0.2735735127053718,"7":0.24226939373401327,"8":-0.26118506833166594,"9":-0.010986328255199396,"10":-0.11419270806858488,"11":0.3519662041047487,"12":0.02745065858143981,"13":0.5351274268211887,"14":-0.32442285213581745,"15":-0.2508220829361076,"16":0.2963282931764746,"17":0.549695060768264,"18":-0.1661937205632479,"19":0.15363109948929168,"20":0.15039541766251827,"21":0.10522357131085752,"22":0.2759917057362474,"23":0.06585301701391173,"24":0.26605119865837895}}],"biases":{"sx":1,"sy":1,"depth":8,"w":{"0":0.279645940773967,"1":0.00042120994533329935,"2":0.308737647265343,"3":0.296639292438788,"4":0.15363609662817493,"5":0.00016470605959888069,"6":-0.000024025806741632077,"7":0.10339061661640757}}},{"out_depth":8,"out_sx":25,"out_sy":25,"layer_type":"relu"},{"sx":2,"sy":2,"stride":2,"in_depth":8,"out_depth":8,"out_sx":12,"out_sy":12,"layer_type":"pool","pad":0},{"sx":5,"sy":5,"stride":1,"in_depth":8,"out_depth":16,"out_sx":12,"out_sy":12,"layer_type":"conv","l1_decay_mul":0,"l2_decay_mul":1,"pad":2,"filters":[{"sx":5,"sy":5,"depth":8,"w":{"0":0.0011220986269902854,"1":0.0005103391398501216,"2":0.07714500731330386,"3":0.004471528145508558,"4":-0.0594156695049176,"5":0.06332929921372418,"6":0.1737267646388995,"7":0.0053315759655331585,"8":-0.09513055418956944,"9":-0.3920199767173546,"10":0.0017897149051308648,"11":-0.03050975389067243,"12":0.059632898930014874,"13":-0.13607437949886664,"14":-0.030003054783186333,"15":-0.17472104860418813,"16":-0.10153623084632141,"17":-0.20604914036428515,"18":0.011032767461983764,"19":-0.01618554866380292,"20":-0.08460669359213681,"21":-0.17866219931877794,"22":-0.01895710960491923,"23":-0.11706390944253506,"24":0.16444538297305758,"25":-0.012553935031257245,"26":0.08105530990014391,"27":0.034789345579079235,"28":0.16227053704130046,"29":-0.06188342932751493,"30":0.12596076307724083,"31":-0.032015369399738945,"32":0.025597393014017356,"33":0.010050802739063112,"34":0.06752871574316748,"35":-0.03788396176592733,"36":0.10961879572915055,"37":0.08341994149203513,"38":0.2037155085727534,"39":0.10951062215024938,"40":-0.06493973793709037,"41":0.1524279314593877,"42":0.08424741808884553,"43":-0.00766247845737247,"44":-0.05051288875092349,"45":0.13538365810647307,"46":-0.0534932298983069,"47":0.03991351731250556,"48":-0.015372052919675314,"49":0.07035527789664651,"50":-0.05263953472522911,"51":-0.07975810153217074,"52":0.08500221385162372,"53":-0.0867090364057649,"54":-0.22057624631033837,"55":0.0982728567478313,"56":-0.09351657325662605,"57":-0.20676926656420053,"58":-0.01659261724858117,"59":0.008054989258317964,"60":-0.06400073249321273,"61":-0.09929612059534328,"62":-0.32975726915172243,"63":-0.011688855774377638,"64":0.1690020566314736,"65":0.0566010079379644,"66":-0.02816307143758236,"67":-0.14444351948959833,"68":0.06015384138260272,"69":0.10145223268376839,"70":0.047835180543885185,"71":0.028659232840836414,"72":-0.06408684899427902,"73":0.2456332454044009,"74":-0.04547023675794989,"75":-0.11232740832040007,"76":0.06699584258483789,"77":0.09697961906996455,"78":0.047504370240082985,"79":0.10162205368518908,"80":-0.018444279616047228,"81":0.10314261762771092,"82":0.053718161148595234,"83":-0.033295837130264336,"84":0.0032328378524235407,"85":0.1815491387507956,"86":0.07810144696044323,"87":-0.009529537110868501,"88":-0.08383105541174259,"89":0.11332903492273654,"90":0.01749749386633755,"91":-0.0856284520730237,"92":-0.08309849385740345,"93":0.039176331105002266,"94":0.06408187284878313,"95":-0.034973783640324545,"96":-0.13218613646937016,"97":0.08495419889403258,"98":-0.07641581187768,"99":0.033215480203454696,"100":-0.35154731634975206,"101":-0.004987376425902156,"102":-0.14652370370895484,"103":0.03417906337605763,"104":0.009748353959462589,"105":0.022566292284688462,"106":0.0036922428361541764,"107":0.0696775049955882,"108":0.15288820212583662,"109":0.0014944848497006954,"110":0.018938509262103314,"111":0.056985829246287124,"112":0.01626798625464644,"113":0.1884062631376595,"114":0.0030544570783089127,"115":0.11871459589741158,"116":-0.15818295362863616,"117":-0.028480893580252596,"118":0.07424940773676504,"119":-0.07451951011932394,"120":-0.1808499261972027,"121":-0.1440348697618554,"122":0.0038426236650408526,"123":-0.04753242376762056,"124":0.031523602063081475,"125":0.07672247266367417,"126":0.021226890475656863,"127":-0.05955488851943744,"128":-0.1452741849789634,"129":-0.1329616944653426,"130":-0.10321442139645136,"131":-0.014356662530769919,"132":0.14072029423223778,"133":0.025353924441636085,"134":0.07994286461512498,"135":0.11377504146321744,"136":-0.09192848332760079,"137":-0.20954534386050808,"138":0.060427876436914316,"139":0.045082372634570135,"140":0.15016108980348328,"141":-0.056731946859257865,"142":0.14692274368186306,"143":-0.18518633475183244,"144":-0.03627243457194629,"145":-0.05298406151325396,"146":0.16738998840139482,"147":0.11408383058499358,"148":-0.0659633429285725,"149":-0.15735567183857513,"150":0.20985173706087107,"151":0.24575431485434027,"152":0.09272355069044833,"153":-0.2755315990062299,"154":0.022798640115707154,"155":-0.015966087654142962,"156":-0.014757332604588063,"157":-0.05065996198888858,"158":0.029756268195001052,"159":0.03127585026376127,"160":-0.18825793114928355,"161":0.2012537525231544,"162":0.0059087685354253065,"163":0.042832234416424884,"164":-0.01920001178697081,"165":-0.02831448979346136,"166":-0.0448276494127352,"167":-0.12101074861934037,"168":0.03845797089317393,"169":0.16970759511824077,"170":-0.002257393097907666,"171":-0.05513553870323565,"172":-0.2721913245731707,"173":0.044138714990899205,"174":-0.16103704285700443,"175":-0.21591568239838876,"176":-0.10909549536896658,"177":0.14569309670257816,"178":-0.03188609042541231,"179":-0.10600816723019214,"180":-0.133711837079601,"181":0.14191763581495886,"182":-0.09652135889933904,"183":-0.22078858002094157,"184":0.08981536960896243,"185":0.30468205141285154,"186":-0.1110220504942433,"187":-0.15435588135319922,"188":0.017326764426064654,"189":-0.07376733166301896,"190":0.11149496031156003,"191":-0.09040493723070388,"192":-0.15842036870717172,"193":-0.06089456798285611,"194":-0.06398347174991595,"195":0.08794800523594655,"196":0.12629870380388764,"197":-0.10346501788085222,"198":0.006223108344877254,"199":-0.05384241575681669}},{"sx":5,"sy":5,"depth":8,"w":{"0":-0.07196707331967649,"1":-0.042554454503772404,"2":-0.04616953561632732,"3":0.0244975701927998,"4":-0.0680506556054326,"5":-0.030819391539992587,"6":-0.06363765783351076,"7":-0.11543156835751713,"8":-0.1057752481869293,"9":0.0826044508209135,"10":-0.022663273499528604,"11":-0.13814081240186213,"12":0.02327664795862259,"13":0.008460940289413734,"14":-0.06954247076088452,"15":-0.019668326329448114,"16":-0.04825130475044468,"17":0.07335211356598972,"18":-0.05406705920167731,"19":-0.00215799951006694,"20":-0.09934775976057936,"21":0.05180463724231812,"22":0.015314024045051285,"23":-0.010948148595133484,"24":0.05910878882888045,"25":-0.06595281812731188,"26":0.07137462694231356,"27":0.008113539453571083,"28":0.04348512258498229,"29":-0.07221278054352498,"30":0.012625972828571183,"31":-0.017882490082567155,"32":-0.004895534749606208,"33":0.010277148222102446,"34":-0.09877519198059272,"35":-0.0278252525712505,"36":-0.09365532816768271,"37":-0.08334971443274754,"38":0.0499096697010413,"39":0.007506172887500832,"40":-0.06628621412980856,"41":-0.025556869480879502,"42":-0.021305846612670053,"43":-0.1052205475385012,"44":-0.0191895758791541,"45":-0.09663496767252794,"46":0.06962892451700792,"47":-0.08597590528681207,"48":0.006820764562099423,"49":-0.11126756692467955,"50":-0.04818512308946343,"51":0.14316757527113042,"52":-0.035937888433557726,"53":-0.024152641745192802,"54":-0.1362300864824142,"55":-0.01363768876591858,"56":-0.11698448446071903,"57":0.059956389978255004,"58":0.030921337394154334,"59":-0.024406255726241582,"60":-0.0738603368058921,"61":-0.04139191902506131,"62":-0.16378677271677775,"63":-0.16566116520994567,"64":-0.10218931217929861,"65":-0.021351695778468648,"66":0.03079314024868931,"67":-0.00787546983882732,"68":-0.05566122415401286,"69":-0.04630473525361846,"70":-0.030339153537075007,"71":-0.15984400593558748,"72":-0.06922860692070455,"73":0.03797666538561045,"74":0.013367295072221232,"75":0.0139468892805844,"76":-0.12133096853332885,"77":-0.14486891948255526,"78":-0.05579920398765226,"79":0.09330891323809597,"80":-0.0418222059694896,"81":0.03431487886876578,"82":0.14549479467947127,"83":0.011448069080821924,"84":-0.16106615070802796,"85":-0.07265953979782497,"86":-0.12335456969965371,"87":0.07253682758999984,"88":0.22769068452954194,"89":-0.032572798763819015,"90":0.21564374350155258,"91":0.07250545199227851,"92":0.014553235315337563,"93":0.06688543253458394,"94":-0.09227640201049388,"95":-0.05761994771271815,"96":-0.11363573565641272,"97":-0.06727546358194736,"98":0.00528836889325536,"99":-0.22626821013896173,"100":0.07881432809598944,"101":0.03605551767179965,"102":-0.013038089980150783,"103":0.038234058642007705,"104":-0.02546099224656398,"105":-0.25082734443938426,"106":-0.04396462142185012,"107":0.13067942459017276,"108":0.019010039744251493,"109":0.031805417603718,"110":-0.08343620005567005,"111":0.01737063023900615,"112":-0.006995065439455829,"113":-0.0789831932717867,"114":-0.005504909002022192,"115":0.08713672239911813,"116":0.0014226178341064741,"117":-0.01142096145752807,"118":0.068166065479034,"119":-0.02170659155594149,"120":0.058086910536165805,"121":0.06398524677074202,"122":0.1587207244152241,"123":-0.007532769445708429,"124":-0.1197958611758089,"125":0.0761683573510449,"126":0.11433974686124089,"127":-0.11631892429727295,"128":0.17530993523379895,"129":0.031558692039179756,"130":0.09309899879745095,"131":0.04908133579831415,"132":0.05620932402059493,"133":-0.062479421312279154,"134":0.1494812193460901,"135":0.060432651269695985,"136":0.0023449250358749158,"137":-0.07064096164252354,"138":-0.12222538562736938,"139":-0.021048533976886333,"140":0.038243542117553216,"141":-0.008601672489579791,"142":0.025700250178198134,"143":0.014176358647405924,"144":-0.10701807291925418,"145":-0.08699653669809965,"146":-0.12113871892663405,"147":-0.05847286233778638,"148":-0.047152777967026056,"149":-0.01732756602268533,"150":-0.07815866740580002,"151":-0.07463906321898565,"152":0.0021598656873695306,"153":-0.09089478233862831,"154":-0.13531650431279071,"155":-0.21726538641201543,"156":-0.02778075671208499,"157":-0.16802927628102365,"158":0.024909125531036566,"159":0.03493601487836557,"160":0.4306303203445259,"161":-0.047364778131023695,"162":0.21530838478819642,"163":0.10095739243995304,"164":0.01379734910488187,"165":0.15017774920116153,"166":0.16040350955238647,"167":-0.09459000330565139,"168":0.2963163379058906,"169":0.11531176078334136,"170":0.1180496827244546,"171":0.17884699884059688,"172":0.04675404085833321,"173":-0.04859234005289291,"174":0.0969750431355367,"175":0.16923757635486994,"176":-0.012575867938341811,"177":0.12839096550115273,"178":-0.1501440849383043,"179":-0.04750551500779194,"180":-0.2025099666576941,"181":0.12873567974830988,"182":0.0005691812282441739,"183":0.183043540082592,"184":-0.15064485894940144,"185":-0.07895723611128416,"186":-0.04793014284983662,"187":-0.13703813027208694,"188":0.07877893047423332,"189":0.03168396041899155,"190":-0.08821665156111416,"191":-0.000431705505475623,"192":0.12880785590388127,"193":-0.19935110511080656,"194":-0.04380510962029084,"195":-0.019356404472183328,"196":-0.07599594781501401,"197":-0.07286323409303049,"198":0.02526856478079432,"199":-0.09384809017067425}},{"sx":5,"sy":5,"depth":8,"w":{"0":-0.1132326157404866,"1":0.017228309079186883,"2":-0.04697701209423568,"3":0.22953268986365694,"4":0.045338219670157325,"5":0.29874448458558367,"6":0.034603067627429575,"7":0.1679060525752485,"8":0.015645885457388927,"9":-0.16059037790291383,"10":0.1843780959637721,"11":0.02008298705519659,"12":-0.039762378141451504,"13":-0.10076108684397746,"14":-0.026113989082450023,"15":-0.14453909929525302,"16":0.03990341736025517,"17":-0.07525896066862113,"18":-0.004545083709075426,"19":0.024547980154617628,"20":0.012606938403914317,"21":-0.06154860336157986,"22":-0.07076917724992222,"23":-0.04299100892490032,"24":-0.05410495579253257,"25":-0.0012965280542018246,"26":-0.12476605157565655,"27":0.034603351788446514,"28":0.010056090634016744,"29":-0.07793189625895375,"30":0.023053104034522674,"31":0.1434230738655219,"32":0.2567706951614691,"33":-0.10196462581474426,"34":0.2688548882993651,"35":0.0020396315151118985,"36":0.036795185147738316,"37":0.025833533043717886,"38":-0.0621815783393456,"39":-0.023392318212520486,"40":-0.0700901665887883,"41":0.007191961620594002,"42":-0.11523956216220296,"43":0.01407872906140109,"44":-0.02445777020509191,"45":-0.025889279713893112,"46":0.06813681048607327,"47":0.008561653127443565,"48":-0.16722403967119634,"49":-0.1239038086943035,"50":-0.050162799488670556,"51":0.02344159437957247,"52":-0.1461862802616829,"53":-0.3120279533112022,"54":-0.16543902392532536,"55":-0.12845461936959782,"56":0.187707441894812,"57":0.03512857530108576,"58":-0.137104555972243,"59":-0.062435504987789915,"60":-0.0750248237550386,"61":-0.11212700684215812,"62":0.025166245358847636,"63":-0.05176846733034134,"64":-0.0034078575858867495,"65":-0.034393246317647286,"66":-0.11287571350658897,"67":0.021332703800581658,"68":0.04331499089388201,"69":-0.07194067554040363,"70":-0.10129255486774245,"71":-0.029607716497832077,"72":0.15328168812149648,"73":0.011074737655547609,"74":0.20605766730890215,"75":0.0058557452632417685,"76":0.11460466808397857,"77":0.0075249447039755805,"78":-0.02720555404954703,"79":0.08310249985599458,"80":0.09843661880001942,"81":0.1041893617048434,"82":0.16384775776554472,"83":0.0021380301572248954,"84":0.12710881881336691,"85":-0.000427406907066797,"86":0.10982266837211167,"87":0.18329461487900403,"88":0.05289520127833017,"89":0.007458174590546286,"90":0.1019247219193534,"91":0.010904449258429552,"92":0.03172854430016134,"93":0.19940332936144234,"94":0.0399840558598896,"95":0.13073311799814186,"96":-0.03658756463445373,"97":-0.007491853647499828,"98":-0.01012985669242108,"99":-0.2334519805515249,"100":0.09739156371615833,"101":-0.04620403758951364,"102":0.11285304063509052,"103":-0.10965022690281816,"104":0.010981435975963242,"105":-0.19012468496736257,"106":0.061619112436616746,"107":0.0777998168156735,"108":-0.11632918177748765,"109":-0.033291411718640536,"110":-0.11196033190079427,"111":0.06103638741044113,"112":0.01987966140926398,"113":-0.0161608778804318,"114":0.07664401100610364,"115":0.02075583114045618,"116":-0.11967296198104296,"117":-0.18111015065957317,"118":-0.12130077507067873,"119":-0.08911239711481024,"120":0.2877321819002149,"121":0.04426072608281051,"122":0.14831513659935727,"123":0.12141101656321185,"124":0.2690974535222236,"125":0.17939362857866153,"126":0.2081378698266872,"127":0.20099812141201842,"128":0.0568872340365507,"129":0.13598973401932807,"130":0.12079545974724284,"131":-0.10718503841715711,"132":0.02646888996854711,"133":0.2927250270119373,"134":0.13838738802622577,"135":0.07339718358622206,"136":-0.02522431934782953,"137":0.0472241752021519,"138":-0.13582394955095758,"139":0.07309767439509597,"140":-0.0531029317762587,"141":0.028548062063496596,"142":-0.1903029079157152,"143":0.010736246936033943,"144":0.13620150167184217,"145":-0.08674334616508192,"146":0.0782407735190531,"147":-0.038857698898179714,"148":-0.20861780707442912,"149":-0.21008237501862187,"150":0.01906973096314787,"151":0.10182265800737705,"152":0.010179980436369692,"153":-0.39298088258640684,"154":0.09867671226049719,"155":0.06447784649366466,"156":0.07005035546851773,"157":-0.1953379261106064,"158":-0.19384376806643108,"159":-0.006754291900874286,"160":0.17198044181121627,"161":0.17361761442141196,"162":0.07024956312338214,"163":-0.026099791008917274,"164":0.25108382300849347,"165":0.18836839519767748,"166":0.13563641624177866,"167":0.11803546523279947,"168":-0.12915701490405582,"169":0.03425451965658301,"170":-0.1608762315567082,"171":0.024297043726969274,"172":0.015803867475621226,"173":0.18606672502459864,"174":-0.04293315720421321,"175":0.2291989059174136,"176":0.04430655269256884,"177":-0.1088212883946948,"178":0.003342636852545383,"179":-0.11990178903702528,"180":-0.2929513075061619,"181":-0.09466923780539135,"182":-0.09574849400222606,"183":-0.03184892520152249,"184":0.03531868574959124,"185":-0.07483733316394037,"186":0.05995558666348846,"187":-0.17877769738682597,"188":-0.017924149724772423,"189":-0.16465373979190662,"190":0.05275037995627752,"191":-0.010759038689514906,"192":-0.0524073577221832,"193":-0.17674970330375092,"194":-0.12629683181633208,"195":0.10909653101613566,"196":0.015272015910747134,"197":-0.25331004748369795,"198":-0.027905437344895725,"199":-0.1039402263229827}},{"sx":5,"sy":5,"depth":8,"w":{"0":-0.18416283515854281,"1":0.03792267008792372,"2":-0.05864458752259629,"3":0.11831758717440895,"4":0.1677876943796203,"5":0.057648099326507614,"6":0.0265365932514491,"7":-0.11459750787593333,"8":-0.24174490378413582,"9":-0.18052695654508533,"10":0.13319351757993989,"11":0.15627389088471277,"12":0.18766095825529575,"13":-0.2748710280960653,"14":0.19503578351713513,"15":0.08683732886557137,"16":-0.010506959985861186,"17":-0.01888042324473095,"18":-0.1645302878920598,"19":0.13767125549740586,"20":0.036483690446152094,"21":-0.13761951808083026,"22":0.29970960693308163,"23":-0.08091336258943525,"24":-0.10246893562608521,"25":-0.1378303874794574,"26":0.009850897989046259,"27":0.340779768808754,"28":0.24844858308544135,"29":-0.040408468192151686,"30":0.13386536917495973,"31":-0.09264424895243581,"32":-0.12741992660371876,"33":-0.07853391282916992,"34":-0.029976239943675567,"35":0.11842389471594718,"36":0.07680525965649497,"37":-0.00842930002421822,"38":0.14608549529046538,"39":-0.022540644496345973,"40":-0.03640218571830686,"41":0.09663279879755579,"42":0.0282640659806117,"43":0.18096341405699515,"44":0.05939795676790805,"45":-0.029356314986172846,"46":0.1146246488371361,"47":0.09953006290359379,"48":-0.16585387346560024,"49":0.27065637588568314,"50":-0.17072431284578,"51":-0.3580345170527251,"52":0.052909066742361906,"53":0.050974598482747525,"54":-0.07203168302760006,"55":0.026326076519768492,"56":-0.12251677877286526,"57":0.13582206742602057,"58":-0.10079574124621356,"59":-0.10848611345686697,"60":-0.06870522732513237,"61":-0.025692566904426364,"62":-0.17459702890015852,"63":-0.05688331038775267,"64":-0.16086411661821687,"65":0.04610464593620165,"66":-0.13215861546052227,"67":-0.07211553197071553,"68":0.042786503384913244,"69":0.004547225362425203,"70":0.02324373687131384,"71":-0.02885543015200629,"72":-0.05729568037052007,"73":0.08971658034146755,"74":0.009666812960580244,"75":-0.10518346885343935,"76":0.13308453802867146,"77":-0.025366528084429827,"78":0.008105247230098358,"79":-0.07210799677560205,"80":-0.2963739014906133,"81":0.03497689124176226,"82":-0.08231956041349707,"83":0.07288336870837703,"84":-0.04130541019205265,"85":-0.06933468674590368,"86":0.04293605074144603,"87":0.09870213196125062,"88":0.18832281773076198,"89":0.0670486274237347,"90":0.17913955055826197,"91":0.08099480573239735,"92":-0.12021732537319413,"93":0.01857081039899309,"94":-0.09643820876072912,"95":-0.02694757171133004,"96":-0.17900302985642702,"97":-0.03135886419361739,"98":-0.24831909285234519,"99":0.21529327091644254,"100":0.2904041447903394,"101":0.12785617952793915,"102":0.13382384752784604,"103":0.08281189903987879,"104":-0.05109137425189054,"105":0.1516638029536484,"106":-0.08538289670050714,"107":0.10450472718958868,"108":-0.02440099236569093,"109":0.034286896352527706,"110":0.10583060947258122,"111":-0.01560940318392125,"112":0.03432398076970353,"113":0.022403807902911087,"114":-0.0784762336892486,"115":0.059291642216014157,"116":-0.11250905892935521,"117":0.10263620657112062,"118":0.09572714722534151,"119":-0.1466576276192199,"120":-0.05292380784374679,"121":0.002848022816473702,"122":0.020751690533827534,"123":-0.11933162091435434,"124":-0.1818770769476583,"125":-0.12044766434301199,"126":0.022222297554614603,"127":-0.07504212202330478,"128":0.17189065524974365,"129":0.16871886517344473,"130":0.14183470441739207,"131":-0.07644773327200001,"132":0.03844626353884514,"133":0.1490881036879728,"134":0.2472237334468392,"135":-0.13606040637083117,"136":-0.1181021918323597,"137":0.08712803448101537,"138":-0.024632485517568862,"139":0.14145458713087686,"140":-0.03545513397792915,"141":0.006004180551383008,"142":-0.09507476975881092,"143":0.10250381738025154,"144":-0.012316402775625342,"145":0.04815878610322923,"146":0.011450105613326175,"147":0.04499601459032693,"148":-0.20735187889550918,"149":-0.22792987100066,"150":-0.08356578962658956,"151":-0.08747917330065874,"152":0.10120333628603434,"153":-0.040833151565203535,"154":-0.014562128365549536,"155":0.04145757354707649,"156":-0.0036328971013062745,"157":-0.028052093817248654,"158":-0.1526767874871215,"159":-0.1023821990944032,"160":0.011444085742170101,"161":-0.12709766111733467,"162":0.0709470260966016,"163":-0.04968599621375169,"164":-0.08943327208431102,"165":-0.26242160591631636,"166":-0.1586675463396541,"167":-0.11474229413656889,"168":0.11539777656293089,"169":-0.07040373248858006,"170":0.1242431430685914,"171":0.04799956443490315,"172":0.019236430214811272,"173":-0.035083879274744455,"174":0.1393199387900927,"175":-0.1648715509484013,"176":-0.3156475969059186,"177":0.018047673233509268,"178":0.0432767786591989,"179":0.014876413020864338,"180":0.11093026518468256,"181":-0.015291273573175626,"182":-0.0857712072976738,"183":0.02163163297780085,"184":0.06132376218508729,"185":0.04380469501461334,"186":0.2424644432869083,"187":0.10844500037827501,"188":0.11756884142022586,"189":0.040624620171777995,"190":-0.060015513280853514,"191":-0.06138855735206409,"192":0.04170588451901342,"193":-0.1383674150233716,"194":-0.010419209742396239,"195":-0.02898707197769286,"196":-0.002133496051538771,"197":-0.01787134914643176,"198":-0.13230476189283497,"199":-0.0438211104006292}},{"sx":5,"sy":5,"depth":8,"w":{"0":-0.13855715012689557,"1":-0.1429375507469454,"2":-0.1280744400621666,"3":-0.004431375270267302,"4":0.08831545713820298,"5":-0.0544582413653082,"6":-0.04628287076792446,"7":-0.11179034438653879,"8":-0.16349937851245938,"9":0.007421253842782053,"10":0.006188244761248381,"11":-0.14315380868152877,"12":0.2641733912847329,"13":0.05080996161509084,"14":-0.01737637269721018,"15":-0.015254008179540065,"16":-0.0910165885985064,"17":0.1235279409315269,"18":-0.2135357020829683,"19":-0.11324983242628656,"20":0.1075091654624422,"21":0.1210242206380984,"22":-0.14050030293903362,"23":0.1449813885935728,"24":-0.06399605257976952,"25":0.1161482340765205,"26":0.11447998518672925,"27":-0.16376646268991793,"28":-0.08487811435515914,"29":0.10400498618625896,"30":0.009181818292877064,"31":0.000037790538739509623,"32":0.0023374866622708104,"33":0.02033626780018307,"34":0.025122777944482082,"35":-0.20906941271800925,"36":0.055481029633988176,"37":0.03587887342002705,"38":-0.15244553557711485,"39":0.12889966350124732,"40":-0.23518437801837208,"41":0.09645050106861917,"42":-0.1195654998312289,"43":-0.04609777925938164,"44":-0.11405334764438889,"45":0.10060028420466961,"46":0.020622055857055444,"47":0.03729750583824828,"48":-0.12546083965639285,"49":0.24547143426509915,"50":-0.011849594591289335,"51":0.04666468681817801,"52":0.1388527620980352,"53":0.05734589775858708,"54":0.06660164670547364,"55":0.08754668563709632,"56":-0.1901181699788059,"57":0.1623665715226828,"58":-0.24274237272899596,"59":0.019486456810815,"60":-0.08591706169756598,"61":0.17587672160275614,"62":0.2982781891121671,"63":0.053536428604988875,"64":-0.14744506583980987,"65":0.07245656897702178,"66":-0.19920043233104284,"67":0.005313494074996027,"68":-0.06910738371916333,"69":0.08792298814809893,"70":0.23507722881371337,"71":-0.13742871256643754,"72":-0.09602111083349048,"73":0.13700570592688294,"74":-0.14503009249828497,"75":0.07505332617136702,"76":-0.10520494737591629,"77":0.0846305943051502,"78":0.11491723470354806,"79":-0.04010823124597073,"80":-0.2699407464709875,"81":0.040012866873440744,"82":-0.04455476617979469,"83":-0.10440797320997075,"84":0.00365790118545091,"85":0.0435797356368359,"86":-0.01416389072206364,"87":0.005669331273023281,"88":-0.10543079871759492,"89":0.0811645544453637,"90":-0.22104746479524712,"91":-0.20284561917184837,"92":-0.008145589363002824,"93":0.020334803698917086,"94":-0.013448614485427958,"95":-0.012682303972782926,"96":0.0013246226414676998,"97":-0.044247861107974414,"98":-0.15204761479236584,"99":-0.13076539770586115,"100":-0.17244742035963168,"101":0.016637383510603242,"102":0.010666377419749901,"103":-0.07009857826777145,"104":-0.2101105633948845,"105":-0.0768164409018147,"106":-0.06822366403130524,"107":-0.1511861132718319,"108":0.062289767090848665,"109":0.10683820129052289,"110":-0.055680670395757206,"111":-0.056225959290102594,"112":-0.05305762322969531,"113":-0.014935433913555242,"114":-0.03068413869619649,"115":-0.08201657786523711,"116":0.09191810135545739,"117":0.071153492742154,"118":0.15183385647768174,"119":-0.03506340916788667,"120":-0.07493455265800614,"121":0.024034911612799897,"122":-0.16703115718872547,"123":0.014910832065095263,"124":0.02577437958855229,"125":0.14775150495725625,"126":0.04131942300283965,"127":0.02091749720617138,"128":-0.17215203382978964,"129":0.005420467367262848,"130":0.03979577099316336,"131":-0.09145482311046847,"132":-0.13669463095997292,"133":0.08180785835344206,"134":-0.05017673465715838,"135":0.03785522616639389,"136":-0.10073332293619193,"137":0.23378770216704917,"138":-0.0822356253699632,"139":-0.20850915756667626,"140":-0.011168616449096055,"141":-0.02144116294039938,"142":0.1437996175347263,"143":-0.08002316525070118,"144":-0.06821908950429324,"145":-0.013429397653233482,"146":0.018636720534167376,"147":-0.013506839296633802,"148":-0.04187277349803193,"149":0.2768254306019897,"150":-0.03125873706067663,"151":0.01655023822024631,"152":-0.19086012265499935,"153":0.060016854330141346,"154":-0.15658647277788254,"155":-0.26419576113296606,"156":0.12617584786818756,"157":0.10106021242620597,"158":0.11325771099875488,"159":0.25911810425173826,"160":-0.13082580758218126,"161":-0.07606244640785434,"162":-0.15909455004180006,"163":-0.0231346618145476,"164":0.047604100059176695,"165":-0.04021774348913189,"166":0.10715346542504804,"167":-0.030759935124690628,"168":-0.030165622644173662,"169":0.09730216357277503,"170":-0.15935540473456836,"171":0.010755229098752877,"172":-0.09080999092809662,"173":0.012885410189398207,"174":0.09212051268791073,"175":-0.022769746594601854,"176":-0.1080735954284123,"177":-0.02771750644219945,"178":-0.20547233806680734,"179":-0.050353012905743004,"180":0.11615897091218216,"181":0.04139015974926943,"182":0.15788327839190225,"183":-0.16587643553167158,"184":-0.26780744570085574,"185":0.05394990908936436,"186":-0.1360315803667101,"187":0.0742509332610924,"188":0.1422413479387244,"189":0.053996340227512346,"190":0.14030861153976523,"191":-0.005879897653003521,"192":-0.06174152275514007,"193":0.2152630545502835,"194":-0.09778303729615061,"195":0.015259666854819812,"196":-0.11536823435284814,"197":0.1658840166582617,"198":0.16272067207786606,"199":-0.02385677899732149}},{"sx":5,"sy":5,"depth":8,"w":{"0":-0.08493659192690041,"1":-0.04142286770639607,"2":0.0459518763266074,"3":0.06923231711550408,"4":-0.05526578173819738,"5":-0.1564024915077586,"6":-0.02017211623728822,"7":0.11743573767820528,"8":-0.24208457030711686,"9":0.053412331277060035,"10":0.002233233297836892,"11":0.06967263142359435,"12":0.020860706336999317,"13":-0.08563266275436505,"14":-0.01101870924004137,"15":0.014336585432587203,"16":-0.056834548636322854,"17":0.0917243743026033,"18":-0.014469198086652922,"19":-0.04790425567600761,"20":0.011712527294810628,"21":0.11147204741040508,"22":0.18920728813632823,"23":-0.018963442565874174,"24":-0.13499873939073914,"25":0.20590931399559134,"26":-0.0851695805345865,"27":0.12558323278542222,"28":-0.060825618744189056,"29":0.1448770396155708,"30":0.043171445942282796,"31":-0.02591534136542861,"32":-0.1191489823612185,"33":0.14108176427181487,"34":-0.2716503209799804,"35":0.1987516950098095,"36":-0.13208645879247655,"37":0.1786731714284049,"38":0.1500902270722397,"39":-0.08404586904741122,"40":0.00174780761936703,"41":-0.1989906913157062,"42":0.18116150044963628,"43":0.15068841999832938,"44":0.08841621881478595,"45":-0.0695195152097529,"46":-0.0056653484639821545,"47":0.12454989336963021,"48":-0.1909559047650373,"49":-0.006679521657398201,"50":-0.17325658074761027,"51":0.10132254658297254,"52":0.246007558264234,"53":0.15284979096159965,"54":0.12155016208852433,"55":-0.041362811833116145,"56":-0.18306932481208074,"57":0.10617477653725099,"58":-0.24344539264242138,"59":-0.08089867808372524,"60":0.0060486304733381995,"61":0.11648658527205848,"62":0.11698873902726263,"63":0.07960041492729808,"64":-0.12185783541717757,"65":-0.005467428781837544,"66":-0.11545942506901458,"67":0.04238607627651028,"68":0.03576059904635383,"69":0.11441215966763037,"70":-0.017479391059551205,"71":-0.004791051832723992,"72":-0.13703663371731045,"73":-0.13661005712347513,"74":-0.039707249924229866,"75":0.04889008046780385,"76":0.14679047412242127,"77":-0.006847956894069568,"78":0.029343547112998566,"79":0.024303405565338467,"80":0.1855417630115799,"81":0.15221166711085346,"82":-0.1186520753108669,"83":-0.011590913825335997,"84":0.012751128908134983,"85":0.16616203540729513,"86":-0.04861658348182183,"87":0.14892218683083658,"88":-0.10782716545839346,"89":0.27666026731332033,"90":-0.23008568596186313,"91":-0.02932077594659403,"92":-0.30600673789739163,"93":0.23867780547091222,"94":0.12899435475570253,"95":0.08202636839750091,"96":-0.26894906216977005,"97":0.0989226964547785,"98":-0.36350548480214295,"99":-0.01604565554206015,"100":0.030842534163148017,"101":0.12494952808314666,"102":-0.08522490892688643,"103":-0.0704083872800834,"104":-0.1755672671553591,"105":0.11649321364063098,"106":-0.0017735398603095636,"107":-0.16177938385561338,"108":0.13922509398861538,"109":0.19346605828475616,"110":0.08256915817437434,"111":-0.0842551475559116,"112":-0.17302930800244254,"113":0.03287674868911929,"114":0.05920651492980669,"115":-0.07086065189896984,"116":0.014314879630722943,"117":0.012038005701023013,"118":-0.12527703478335575,"119":-0.1567429033714629,"120":-0.07227166172533606,"121":0.05142016264097804,"122":-0.10134534171342781,"123":0.014577881676331447,"124":0.056507188588716076,"125":0.030496432517133347,"126":-0.02153244612676662,"127":0.011127194786827655,"128":-0.1953621012546454,"129":0.051144382821416166,"130":-0.06657168938862917,"131":-0.10733111290665485,"132":-0.06637107234019703,"133":-0.1955123447803647,"134":-0.031449155025901,"135":-0.06426595269845109,"136":-0.15260564439431729,"137":-0.03315908225138933,"138":-0.005561260926787795,"139":0.03961206153109804,"140":-0.06029195853002046,"141":-0.05448653829937551,"142":-0.13859475252575126,"143":0.12308300357600076,"144":-0.031932304623156896,"145":0.22364513112664197,"146":-0.10791436121561417,"147":0.015797557607590107,"148":-0.06958033040814918,"149":0.0503784379185129,"150":0.03523965929527129,"151":-0.06095126200299606,"152":-0.007432544822298445,"153":0.04961862788694647,"154":-0.04508849755317108,"155":-0.06598432917710186,"156":0.09944865125571581,"157":0.0752591068932351,"158":-0.15750851944349342,"159":-0.09615510658475147,"160":-0.03801710722497045,"161":0.011578011747101671,"162":-0.004457523544307252,"163":-0.013604213681255969,"164":-0.17528606247799328,"165":0.07134645039979562,"166":0.06306575384334182,"167":0.12993274666600316,"168":-0.1200727781665345,"169":-0.008659777464086827,"170":0.02330777210533878,"171":-0.038431729018816294,"172":0.014800118889598339,"173":-0.012269528066026061,"174":-0.06273826291060851,"175":-0.13882569644937795,"176":-0.04346589832438916,"177":-0.03404885835274803,"178":0.01570407436543994,"179":-0.13295698883430368,"180":0.10726943842558591,"181":-0.1297250468774203,"182":-0.06206773434434137,"183":-0.04737224086443719,"184":-0.001138397348595706,"185":-0.17136692385465266,"186":0.03203563556884239,"187":0.03576005387993261,"188":-0.02356714597042962,"189":0.0014912481924524725,"190":-0.012154150819822693,"191":0.00010274082589080039,"192":0.034290728773412625,"193":-0.04306656586011508,"194":-0.06820725176413135,"195":-0.014969069411382036,"196":0.08306029549153696,"197":-0.019583218770525167,"198":0.1519892751626172,"199":0.10038537357587043}},{"sx":5,"sy":5,"depth":8,"w":{"0":0.0012390554638389232,"1":-0.02555401942980698,"2":-0.1656683175266232,"3":0.13164373499738344,"4":-0.0769402473401965,"5":0.00861300047653833,"6":-0.02001929325386313,"7":0.047796960466104293,"8":0.1083293622121393,"9":0.011266100799324011,"10":-0.24286324554167352,"11":0.078506520369427,"12":-0.20052870905114323,"13":-0.06466772681715238,"14":0.07552516759334435,"15":0.029210510242638862,"16":0.047610098334993974,"17":-0.10732055705309215,"18":0.18123110188329933,"19":0.06559586332893863,"20":-0.13461010552185423,"21":-0.012975201746671682,"22":0.0011243801459382798,"23":-0.03632984946764836,"24":0.40172003751402713,"25":0.16410112965958618,"26":0.268347748716868,"27":0.06243090288902044,"28":-0.06695834595571025,"29":0.2782839943002101,"30":0.24931129949249128,"31":0.03560128236212696,"32":-0.08470220803392654,"33":0.12483303406644113,"34":-0.09054485379244533,"35":0.11510417450175538,"36":0.0821165692457133,"37":0.3198234629311045,"38":0.025138919693518974,"39":0.3986816592907796,"40":0.02456449500473697,"41":-0.11503537935669678,"42":-0.10448316430801893,"43":-0.038359075025153754,"44":0.02656454813793626,"45":-0.07577595999821889,"46":0.012711330093108774,"47":-0.08769275824593437,"48":-0.10474439365965525,"49":-0.18369120346070086,"50":-0.04074566437101307,"51":-0.020091119929053144,"52":-0.008382737155512236,"53":-0.15155569288331405,"54":0.04995686907614644,"55":0.013870108974966187,"56":0.02606134731274538,"57":-0.08676880718155741,"58":0.04221218887022541,"59":-0.42601393979185315,"60":-0.12507567602054406,"61":-0.10565032284449527,"62":-0.08567081814121592,"63":-0.10488125963471792,"64":0.32806475809863533,"65":0.0012587027456650822,"66":0.24297615199885148,"67":0.052406461325820414,"68":0.025929697942361787,"69":0.09416034522497575,"70":0.22134536643504815,"71":-0.09731701902207426,"72":-0.11766807830684828,"73":0.11956201068374579,"74":0.02935757573002403,"75":-0.03944847596705032,"76":0.06566339771648314,"77":0.23213972004503153,"78":0.1161660322433503,"79":0.2914719340824453,"80":-0.0633740314118546,"81":0.06137647792509962,"82":-0.0740148920809256,"83":-0.014441346478010068,"84":-0.08613743125833338,"85":-0.04405919338336372,"86":-0.01604885824020544,"87":-0.005862078909222477,"88":-0.19795221568808835,"89":-0.09680661602371962,"90":-0.1774746831655208,"91":0.03841401095138871,"92":-0.18128966113653436,"93":-0.04491683630764059,"94":-0.11595481157697514,"95":-0.08693123011980797,"96":-0.13063935965257317,"97":-0.11491031527468637,"98":-0.04485166994582891,"99":-0.10501458227667858,"100":-0.1020676408161694,"101":-0.10202594364388265,"102":-0.2751923489956595,"103":-0.020559341804528182,"104":0.16547462015987222,"105":-0.013994900159575921,"106":0.1243477125536194,"107":-0.1137029765174319,"108":0.06522394335283012,"109":0.013489335088645873,"110":0.05150470783738498,"111":-0.1132753440485456,"112":-0.06650935322199354,"113":0.031756018826796656,"114":0.013939666307356241,"115":0.022251288283805785,"116":-0.014559855675188818,"117":0.12365834479379542,"118":0.03595445494758157,"119":0.1011231587243412,"120":-0.039667287309912924,"121":0.02013231420724085,"122":0.04451764476412364,"123":-0.07224912436285713,"124":0.12840471828034414,"125":0.07208478550266545,"126":0.002011142228098866,"127":0.14626036129291847,"128":0.015525071876352261,"129":-0.010093809236622703,"130":0.08993813677509634,"131":0.15752775084716378,"132":0.10650413649744978,"133":0.0030263687507138936,"134":-0.1607631851133192,"135":-0.02055792692970394,"136":-0.020741087053460054,"137":-0.11429734301699795,"138":0.050424917118510174,"139":-0.18065210760148245,"140":0.16401664034464303,"141":-0.19182714579061189,"142":-0.14671358741464208,"143":0.04571955284106297,"144":0.1267214937975399,"145":0.024433192073122823,"146":-0.025654881771947077,"147":-0.10804822830744455,"148":0.24256944967584357,"149":-0.01076831882111371,"150":-0.15154313413238113,"151":-0.02883733549638186,"152":-0.13312784855937493,"153":0.02614374739190709,"154":-0.07505279814271033,"155":-0.008670980321760093,"156":0.17053205002579966,"157":0.030606538072873026,"158":0.05294342571954788,"159":0.05663439702103319,"160":0.012714700769414842,"161":0.31517428681985055,"162":-0.02622311904214544,"163":0.08577152605400393,"164":-0.11819121115211771,"165":0.13412631603600841,"166":0.1412984817806678,"167":0.10215442392178722,"168":-0.10001728029877759,"169":0.13430732081621977,"170":-0.04236863489603615,"171":-0.06389559649074242,"172":-0.09961866280930977,"173":-0.016755688537822968,"174":0.11784735822692183,"175":0.006142371450065521,"176":-0.03068426196430129,"177":0.22908628359259745,"178":0.06157013402630131,"179":-0.07966740615421282,"180":-0.1532689016971905,"181":0.07405636297704736,"182":0.027044538007118053,"183":0.1705834975449181,"184":0.1995872333570455,"185":0.05021189241210221,"186":-0.10293094705943816,"187":0.10887709224979657,"188":-0.17773197666711607,"189":0.008232364448132617,"190":0.025245549201239937,"191":0.008740359902704173,"192":0.09511697381977381,"193":0.2568152624709948,"194":-0.18644310263573474,"195":-0.015601351543928148,"196":-0.1934176365439107,"197":0.1682561865646208,"198":0.07029903423709224,"199":0.12913549212610537}},{"sx":5,"sy":5,"depth":8,"w":{"0":-0.042352945542463785,"1":-0.22075420560764988,"2":-0.18258768663355507,"3":-0.04562175397984774,"4":-0.0491964791655488,"5":-0.07377217628252049,"6":0.055573572491762445,"7":-0.06281296011090243,"8":-0.1705393120951236,"9":-0.17732306655774624,"10":0.003091518988030757,"11":-0.044302480948978144,"12":-0.031377462486153446,"13":-0.11419687371396291,"14":0.07176804361384119,"15":-0.13966642246949434,"16":0.04269985128507073,"17":-0.08629233686634707,"18":-0.08078649586035995,"19":0.16872645976034165,"20":-0.08012989510465131,"21":-0.3211291636658197,"22":-0.10660480240549457,"23":-0.03238549716596384,"24":-0.04229279007252616,"25":-0.23774099952103325,"26":0.03248004752006383,"27":0.033420011509147245,"28":-0.07284387291593493,"29":-0.13228858781469716,"30":-0.01833982191689541,"31":-0.16136301762096245,"32":-0.17293688350317796,"33":-0.14748345843079344,"34":-0.003256551027024709,"35":-0.013424210996402603,"36":0.0453301226467147,"37":-0.13021333087481177,"38":0.13434177544798515,"39":-0.06262848389190354,"40":-0.11442034133812828,"41":-0.0665960170731878,"42":0.07935885246941606,"43":-0.08559381028055295,"44":0.08131970562822076,"45":-0.03609302009066326,"46":-0.18993556974742634,"47":0.024821052406126202,"48":0.17143686823069187,"49":0.0979195794474581,"50":0.20277161017181533,"51":0.1721145941906623,"52":0.2514887869540351,"53":0.10920047814412902,"54":-0.13443507650915662,"55":0.09159126479679512,"56":0.06330678399912096,"57":-0.08519039953830516,"58":0.03174389357757318,"59":-0.13864059029908601,"60":0.5885875137121525,"61":-0.052940483672161746,"62":-0.15860125566471772,"63":0.12330904548333388,"64":0.09082650256309366,"65":0.1290963990437555,"66":0.08420033082106043,"67":-0.001745632602869091,"68":0.16912888067592136,"69":0.03448731018746128,"70":-0.00915492032751381,"71":0.03089548695922821,"72":0.04939317733307277,"73":0.09134702835544846,"74":-0.12688701349199244,"75":0.19436543956200728,"76":0.11897378659544924,"77":-0.02085580816625407,"78":0.040117061460980444,"79":0.059427076323609385,"80":-0.12760122020309841,"81":0.04492619276220747,"82":-0.01711222218335286,"83":-0.008771794186179394,"84":-0.027757257444240315,"85":-0.07362091118141226,"86":-0.07383050870669149,"87":-0.022487997490560553,"88":0.2752422726073618,"89":0.28122007980148783,"90":0.08798426204256457,"91":0.2530338286734895,"92":-0.02166326259627767,"93":0.0664300159638463,"94":0.25073862463685126,"95":-0.029195796302205694,"96":0.2525632215466916,"97":0.37654465911864926,"98":-0.03689342913306398,"99":0.27288472418902554,"100":-0.11090116571685113,"101":0.0673050344623231,"102":0.1384394641614369,"103":0.048872382701782936,"104":-0.22750147945501112,"105":0.2722670132367345,"106":-0.24994751698694376,"107":0.22991932217600752,"108":-0.18390473826855697,"109":0.06172425709739029,"110":0.10478445037490808,"111":0.13258047116552707,"112":-0.10246711594009286,"113":-0.007743223722446926,"114":-0.10018853410337665,"115":0.08971371303812634,"116":-0.14766332821301517,"117":0.013242458035576497,"118":0.16481846172124512,"119":-0.10766782019280546,"120":-0.014171477589878684,"121":-0.1605395874761249,"122":0.20659778293592768,"123":0.0150315423724763,"124":-0.05538798351510885,"125":-0.02332486796773059,"126":-0.16206254237445314,"127":-0.004522367751367569,"128":0.046393542682796836,"129":-0.12243898059173469,"130":0.07215781923521912,"131":0.009240403265873654,"132":0.0020471410062072783,"133":0.08693580864903655,"134":0.06987704795231568,"135":0.06665495055103787,"136":0.0034922827007170055,"137":-0.15926137168647625,"138":0.06536489446353314,"139":-0.022265405425266126,"140":0.17646003211873632,"141":-0.1901507512075893,"142":0.020316999968008707,"143":0.22666999652707004,"144":-0.04479616708418607,"145":-0.3704895676486554,"146":0.276800461244481,"147":0.06499711753062336,"148":-0.053669444916894335,"149":-0.08071258382464375,"150":-0.1776906825318946,"151":0.02894982268886836,"152":0.1782685362579375,"153":-0.2412798874359715,"154":0.1413455053914602,"155":0.08534973542549196,"156":0.09068091647072976,"157":-0.26786317547931887,"158":-0.15987908871441617,"159":-0.0776164411181316,"160":-0.0019115889298148107,"161":-0.3280957702287195,"162":0.03956445613785448,"163":-0.004176230185399397,"164":0.0771879771503492,"165":-0.178311803657629,"166":0.02146735256714201,"167":-0.180226047964934,"168":0.07539348176945995,"169":-0.17283040439371083,"170":0.153879973038607,"171":0.2870887319744455,"172":0.08635503993484073,"173":-0.10102023526036379,"174":0.11327554384898682,"175":-0.12560653057818577,"176":0.05447738134220547,"177":0.0495237789460171,"178":-0.12490598369033133,"179":0.21132380614083976,"180":-0.004950267624442605,"181":-0.09432641410112602,"182":0.05546838386300876,"183":0.03166974264542145,"184":0.00704556276042807,"185":-0.0657130149509961,"186":-0.11522786974600464,"187":0.0892077047819667,"188":-0.08670258558651917,"189":0.049274460460719906,"190":-0.013766328141651445,"191":0.08032312080690066,"192":0.07567938898991404,"193":-0.11020118307885958,"194":0.014298533010507531,"195":-0.022051392232431476,"196":-0.09343651133154524,"197":-0.22759727893701728,"198":0.061760973451520554,"199":0.012022231863232449}},{"sx":5,"sy":5,"depth":8,"w":{"0":-0.05990353302837721,"1":0.19980415501468604,"2":-0.0816271152983957,"3":0.11672191322112725,"4":0.08857822425835359,"5":0.052953034521889084,"6":-0.023236369076975544,"7":0.06479681280903389,"8":0.048096243212600656,"9":0.027892754142539593,"10":0.16582732566627426,"11":0.008312341397521773,"12":0.08875812423827827,"13":-0.000423885152391571,"14":-0.051595686488180886,"15":0.03594982455089956,"16":-0.03611269190435717,"17":-0.25263923116641984,"18":0.06800170569535706,"19":0.1186109146459014,"20":-0.1498086329817835,"21":-0.11738445700131239,"22":-0.08835487915221955,"23":0.1313793609917215,"24":0.10939437928076402,"25":-0.2257929103766847,"26":0.11868653255269118,"27":0.06783519442879934,"28":-0.06778750367970567,"29":-0.07589976901936382,"30":-0.05521279058097855,"31":-0.03294300456012801,"32":0.2745275005792326,"33":-0.08649800318089017,"34":0.21747907937637972,"35":0.07953837029570457,"36":0.13939556980459583,"37":0.054754325629860136,"38":0.10504278007710488,"39":-0.05333152918019652,"40":-0.13533111778685175,"41":-0.11616861938432199,"42":0.01746523957301601,"43":0.0630295964620212,"44":0.10550684225042865,"45":-0.006283959687882795,"46":-0.131056510290513,"47":0.07070141496394891,"48":0.026585836943007993,"49":-0.19450767800652102,"50":0.04049544086128714,"51":0.09810050890421604,"52":0.008865468365470804,"53":-0.20113016078831,"54":-0.21614311836434658,"55":-0.0754327318387355,"56":-0.026932177560936858,"57":-0.2654158260804518,"58":-0.022547982517269232,"59":-0.061031442164152405,"60":0.0038702131146328704,"61":-0.18511462592494995,"62":-0.12067555574960659,"63":0.0067145612269671525,"64":0.1497687789853966,"65":-0.03460653892342684,"66":0.012929664264504358,"67":-0.017548992095714942,"68":-0.06065079926887889,"69":-0.14619352369090707,"70":-0.04775798491475696,"71":-0.061708671086973595,"72":0.23486517660687098,"73":0.1427758343627648,"74":0.2368950101898442,"75":0.10243165906246395,"76":0.0010241010420691827,"77":0.26627895668057194,"78":0.12681197090498594,"79":0.012031240272627676,"80":0.26188259615697823,"81":0.016673757090833873,"82":0.19977581785564708,"83":0.030616896364637373,"84":-0.1632032531013957,"85":-0.038334360668564466,"86":-0.04586810231275118,"87":0.051498721982566054,"88":0.038391789097470375,"89":-0.11819330286213237,"90":0.032907342095392346,"91":-0.03787564635514646,"92":0.04452327075727393,"93":-0.11444932294968482,"94":-0.016515809394691865,"95":0.1272887989820243,"96":0.06823931012548666,"97":-0.08958137510353895,"98":0.03327984750559556,"99":-0.13136101905229558,"100":0.13099523253849926,"101":-0.005221544472399952,"102":-0.009112105354552598,"103":0.016789585133250573,"104":0.06467052381182598,"105":-0.04559029304815529,"106":-0.0009527648293828796,"107":-0.017747414626594966,"108":-0.04311646820346641,"109":-0.21910420940521821,"110":-0.09193953890408031,"111":-0.02040505145723772,"112":0.15706863142044172,"113":0.06308861635352543,"114":0.21317549658740634,"115":0.061251679931763704,"116":-0.036672571834728496,"117":0.07204183160705074,"118":0.04755400192057115,"119":-0.06447321941736453,"120":0.16354064814609592,"121":0.03812916211115507,"122":0.17709242162184022,"123":0.003391580202054407,"124":-0.09243971716171193,"125":0.10800293978089284,"126":0.07458149036485619,"127":-0.07480503284188814,"128":0.2665342708030836,"129":0.03440588874097831,"130":0.04370267290318093,"131":0.11129132625986221,"132":0.1815660530484555,"133":0.010227276990855834,"134":-0.08890161360928131,"135":0.13055292055671555,"136":0.013927274054103184,"137":-0.09109264086185992,"138":-0.03447277284963213,"139":0.09635085279300552,"140":-0.15930881417162487,"141":-0.04873016319786591,"142":-0.3348686185341599,"143":-0.041130326533754966,"144":0.11141371380085412,"145":-0.15720416406749554,"146":-0.1495971140093889,"147":-0.09066744283815822,"148":0.02807542499425424,"149":-0.08796146403180569,"150":-0.06354896260277561,"151":0.04182919672063024,"152":0.1865978671928345,"153":-0.02395713042833175,"154":0.06214229317837262,"155":0.08164972706330968,"156":0.00627970495746715,"157":-0.021923934823772955,"158":-0.025783058025522325,"159":0.039306130593453496,"160":0.2487883550819632,"161":0.11847694944119437,"162":0.1986860823445679,"163":0.16616604641991148,"164":0.21806847867070325,"165":0.24513557091911536,"166":0.02130991890724751,"167":-0.14981045755805308,"168":0.02202821391744874,"169":0.05935173340933561,"170":-0.0549672471379999,"171":0.05324062242314851,"172":0.050035353219911385,"173":-0.08948700217067036,"174":-0.062374818242060974,"175":0.09546175308823161,"176":0.06983221952742003,"177":-0.11243160102719188,"178":-0.011677315595139527,"179":-0.0922754261494856,"180":-0.12731852562922885,"181":0.006201978768650899,"182":0.03489856787711519,"183":-0.022541371999344778,"184":0.17170457139238413,"185":-0.005911879942366138,"186":0.06253184115951224,"187":0.09264068389069718,"188":-0.07405246384211822,"189":-0.155789166006002,"190":-0.012821719766709101,"191":-0.0021090513670297345,"192":0.23719043393119812,"193":-0.14866596937346874,"194":0.025719435536605564,"195":0.06522684700924337,"196":-0.11722334683910941,"197":0.0429562425855194,"198":-0.056326965041164315,"199":0.03786791972400859}},{"sx":5,"sy":5,"depth":8,"w":{"0":0.2542397199184503,"1":0.051947891591920654,"2":-0.0766406325040157,"3":-0.21117092254526473,"4":0.062164926996685584,"5":-0.04340166643036469,"6":0.07211549401381061,"7":-0.05506540694844498,"8":0.14901658355070477,"9":0.16456003197667626,"10":0.16017817344590915,"11":0.14091500155978035,"12":-0.20826069351703674,"13":0.2188617751431383,"14":0.0541267456961371,"15":-0.035730167778239515,"16":-0.1046731892709948,"17":0.09125652030188558,"18":-0.03255720160974745,"19":-0.05209608063300666,"20":0.04882713692970665,"21":0.15913194927982263,"22":0.06742323487606076,"23":-0.04352736956339895,"24":-0.04118702857480155,"25":-0.03131119457954825,"26":-0.04874176382388237,"27":-0.018369795554828275,"28":0.06895574520124556,"29":0.06353168120091739,"30":0.04594569338413542,"31":-0.1935410396631025,"32":-0.1859774724998206,"33":0.08121064248191637,"34":0.21846117488858444,"35":-0.08409819540983994,"36":0.25715248980302124,"37":0.1614336766007326,"38":-0.06465337503413492,"39":-0.046972450166367904,"40":0.1084206955683652,"41":0.15867650349233978,"42":-0.022526315791581285,"43":-0.14654476285608853,"44":-0.1248156182710935,"45":0.3023239137258846,"46":-0.053697399175682774,"47":-0.014025245303773765,"48":-0.16524864763282232,"49":0.0021183326780723783,"50":-0.06033223316108252,"51":-0.05654169921206295,"52":0.07860177401200995,"53":0.04657118258051719,"54":-0.16816992905314967,"55":0.0507689800597577,"56":0.08025622183817671,"57":0.02890293406497403,"58":0.13241545230018925,"59":-0.020207971848665147,"60":-0.06972161200178484,"61":-0.006876308766863413,"62":-0.1830471680253955,"63":0.013208870097854137,"64":-0.09136889800683827,"65":0.2767962373782758,"66":-0.17061844317621533,"67":0.025325259032846353,"68":0.026294025892424123,"69":0.18980427628336316,"70":-0.06933615489245121,"71":-0.13823795706919714,"72":-0.07469487156932333,"73":0.2302359569812944,"74":-0.10412079617682765,"75":0.004047862722319856,"76":-0.11292507356411574,"77":0.14842478844111998,"78":0.024303299785433975,"79":-0.10838600239726728,"80":-0.06597365435021196,"81":-0.06028351211481706,"82":-0.07141409614736971,"83":-0.03836455919234847,"84":-0.0977319423412958,"85":-0.0024430430432776113,"86":0.09978894810106058,"87":-0.13475769367988286,"88":-0.17138494438444535,"89":-0.009727072281615071,"90":7.496078220356798e-7,"91":0.025953629536603167,"92":-0.0782128840284751,"93":-0.11138492744474338,"94":-0.045049206203150914,"95":-0.02360316922515672,"96":-0.1494924230044241,"97":-0.18699727899609567,"98":0.03810794353514016,"99":-0.039346767152318676,"100":-0.17792256519615393,"101":-0.12038791427143744,"102":-0.05162473506813288,"103":-0.10307310857396526,"104":0.017553676822989618,"105":-0.19358948773733664,"106":0.0042751215331036695,"107":0.0029358122605574284,"108":-0.1445199380550561,"109":-0.01922040650105848,"110":-0.092535627052676,"111":-0.14393582573408428,"112":-0.09343486919376984,"113":-0.20348681371411972,"114":0.014300394011826291,"115":-0.18778218811226982,"116":0.035231980673108454,"117":-0.26446158044422063,"118":-0.1511279626303963,"119":-0.11466813567600279,"120":0.081747159184298,"121":0.13441536379368169,"122":-0.06202705611017418,"123":-0.09332720432872876,"124":-0.1698389106544982,"125":-0.1101830110548409,"126":-0.15683191062811447,"127":-0.06365271164279751,"128":0.018916263088137073,"129":0.01637221136890509,"130":-0.030512823765573505,"131":-0.037644285682742425,"132":-0.15972240028724782,"133":0.021090331373465974,"134":-0.03983340764421269,"135":0.10164971010160621,"136":0.14840506477641832,"137":0.08444546734496985,"138":0.21333934568828117,"139":-0.08008715129777538,"140":0.13311100512987403,"141":0.04097965053253686,"142":0.04667222283116232,"143":0.006216889298122394,"144":-0.14733046890222753,"145":0.039123601834601424,"146":0.00852885227071893,"147":0.008767695752426185,"148":0.047310136768249945,"149":0.13785595173029586,"150":-0.017038418250895557,"151":0.07085284258551242,"152":-0.12731521549817698,"153":0.11855232408618224,"154":0.04984204346803713,"155":-0.018860907537509,"156":0.15548489410492272,"157":0.1591719359973477,"158":-0.03053012081576727,"159":0.1636394711967779,"160":0.08552082166100045,"161":-0.0914259419754491,"162":-0.1071932085204562,"163":0.08933557506044883,"164":0.10455087483195047,"165":-0.0495370633800844,"166":0.10737872231041275,"167":0.05199602741607664,"168":0.053631002354300066,"169":-0.13064344332956576,"170":0.10480596083570715,"171":0.05714349201802111,"172":0.14510010513880536,"173":-0.011589363250354853,"174":0.12716572470892004,"175":0.06973498461268572,"176":0.07705534031204783,"177":-0.10456267851514774,"178":-0.18162311661814629,"179":-0.05086879007645144,"180":-0.10052971341729827,"181":-0.011681396102612821,"182":-0.03892069368193644,"183":-0.008894105136118121,"184":-0.057994188709700904,"185":0.1537301577262501,"186":-0.18602603041062557,"187":0.10375412124904677,"188":0.09672553863701255,"189":0.007442839359584602,"190":0.06059912562762179,"191":0.01455786621821421,"192":-0.02599545601808592,"193":0.3159386379429531,"194":-0.09560772797487108,"195":0.07891240332742153,"196":-0.024784296183764536,"197":0.05251454190074185,"198":0.28029860947944907,"199":0.1673037576741711}},{"sx":5,"sy":5,"depth":8,"w":{"0":-0.054965598832577615,"1":0.12482994018334809,"2":0.11361494220642139,"3":0.13685837234756623,"4":0.14813243190269315,"5":0.10574362572960981,"6":-0.21954169958479927,"7":0.020417631060316715,"8":0.08606429711338669,"9":0.20664892024993958,"10":-0.2260290210264967,"11":-0.2936408605275675,"12":0.1700147311597057,"13":0.06616264601187097,"14":-0.17903545257472267,"15":0.05342976021209722,"16":0.13639627480710206,"17":0.13411249597223887,"18":0.3272369849639971,"19":-0.0200175340365543,"20":-0.03576775911469553,"21":-0.06718306655015462,"22":-0.20122638856768,"23":-0.09980981158788779,"24":0.05745793151004847,"25":-0.012985080825060152,"26":-0.002706526711528575,"27":0.019475627747546794,"28":0.03048791089936614,"29":-0.11721093125510827,"30":-0.06831038775432165,"31":0.06279927548261827,"32":0.14736655168512222,"33":0.0025941718708403024,"34":0.06810799221258282,"35":-0.06447583721794314,"36":-0.07495360345576602,"37":-0.03606391343939995,"38":-0.06893035812665993,"39":0.03246678264682004,"40":0.14007597302819588,"41":0.08744548315848641,"42":0.04283816382550662,"43":-0.015825358154680193,"44":0.19489332478637272,"45":0.23654664361280764,"46":0.11657257974587173,"47":0.09875554918883378,"48":0.0614697321182792,"49":0.1505842857254437,"50":-0.23917848835790195,"51":-0.03858143252403396,"52":0.0516333980097896,"53":0.09520586419056923,"54":0.14682694978255,"55":0.1352568338511213,"56":-0.054468102733413876,"57":-0.0532850947935693,"58":-0.27914258107815554,"59":-0.13085408266767376,"60":-0.2239866032874552,"61":0.1570110836316722,"62":0.05826720906009596,"63":-0.07476000027425857,"64":0.014438769468433116,"65":-0.08558744897696947,"66":0.05869454604382323,"67":-0.12775320515522415,"68":-0.027409913757611346,"69":-0.04659084761642289,"70":-0.018419841609925793,"71":0.08896581227043884,"72":0.05160786084922707,"73":0.13755891057307268,"74":-0.05059950723354264,"75":-0.03500686149469256,"76":0.011194940584968763,"77":0.07691697401825974,"78":0.07259800506956351,"79":0.035051561525697834,"80":0.22712357174815068,"81":-0.0027102236424743176,"82":-0.14928485340762523,"83":-0.16681592815057478,"84":-0.12428642603797845,"85":-0.023573645540001877,"86":0.019135039204338997,"87":-0.04790445679077188,"88":0.029354882853455475,"89":0.09571147471893646,"90":0.07390449878885967,"91":-0.010195278035035678,"92":-0.29423062234901837,"93":-0.12352815400071837,"94":0.06928879311507286,"95":0.20427156767265076,"96":-0.023148329902412678,"97":-0.21542343836601974,"98":0.025547968449545894,"99":-0.03457636932712841,"100":-0.02333869990670522,"101":0.037237055943951346,"102":-0.12874871608018887,"103":-0.04389630646282839,"104":-0.045561306683402,"105":-0.056315591378943944,"106":0.10949506493634685,"107":-0.02937698423852469,"108":-0.12370862531410087,"109":-0.14662575499135275,"110":-0.04806007221412257,"111":-0.006020705668580968,"112":0.1080914168275572,"113":0.008376604343729355,"114":-0.06290921774353012,"115":0.14134447245127785,"116":-0.01892773238882465,"117":-0.06210595782453301,"118":-0.14012600072207687,"119":0.050761296864065664,"120":-0.21478902322241,"121":-0.16821690417063812,"122":-0.0010791424081810978,"123":-0.18296878281672507,"124":0.025483609796104617,"125":-0.015227311323439394,"126":-0.1473607052966502,"127":-0.05465794834209097,"128":0.1587110245986672,"129":0.06674892915092231,"130":0.05924703249741627,"131":-0.07768862585697131,"132":-0.017201802317319933,"133":-0.08013542216244639,"134":0.08664438199754348,"135":0.06237037589402661,"136":0.23553274556720408,"137":-0.127086192621187,"138":0.05062343735428089,"139":-0.1555155519348872,"140":-0.05934467383441409,"141":-0.10062259789982216,"142":-0.11716635857892353,"143":-0.018548388047924386,"144":-0.0040503446937732975,"145":0.08443165765293871,"146":0.17807744310265522,"147":-0.06739804688389815,"148":0.0068586408341376,"149":0.10081454451003784,"150":-0.005333819562239267,"151":-0.12029537115875838,"152":-0.005559896217609435,"153":-0.11544715283126408,"154":-0.1307430069259104,"155":-0.04434234762673754,"156":0.09097652529990304,"157":0.01963654829196393,"158":-0.04396047449354741,"159":-0.06834808524197389,"160":-0.06291203068734773,"161":-0.028906352151757225,"162":-0.0873727376741851,"163":0.11179903989376745,"164":-0.09703056642089361,"165":-0.1936375505284347,"166":-0.018461254376797038,"167":-0.02946125514867394,"168":0.10082583259022389,"169":-0.08293253391846123,"170":0.09686262899049242,"171":-0.014869270739097072,"172":0.07338955222953028,"173":-0.1645487391072037,"174":0.06852202072410568,"175":-0.015540233117115368,"176":0.3873229693668071,"177":0.0059044549135845404,"178":-0.04312053013769253,"179":-0.09859679432435521,"180":0.11501474801896616,"181":0.030541624491061087,"182":0.25413174857510235,"183":0.1282458004079576,"184":0.1873568471665585,"185":0.08372443559233538,"186":0.18067602013379905,"187":0.0995612776426657,"188":-0.08617816862209036,"189":0.18208825681845278,"190":0.11163356884552342,"191":0.15368046966358254,"192":-0.10712761888698348,"193":-0.02743074811675842,"194":-0.2658248850057592,"195":-0.00770832950328891,"196":-0.06273319673702733,"197":-0.13794254983057438,"198":-0.2642733383417824,"199":0.007946617112836871}},{"sx":5,"sy":5,"depth":8,"w":{"0":-0.07922476892406374,"1":-0.022118669572362974,"2":0.07465219269765054,"3":0.02442334143650599,"4":-0.029447387571315032,"5":-0.28002506388020565,"6":-0.16682928119097823,"7":-0.11272206732966059,"8":0.1758735801353727,"9":-0.0880727594561985,"10":0.08192567235395817,"11":-0.03798751416333527,"12":-0.09694433758147526,"13":0.07459061473517156,"14":0.03388971195848151,"15":-0.10796397889939818,"16":0.20107754054286642,"17":0.15164449781625108,"18":0.1573013061711379,"19":-0.026252907281131044,"20":0.0681211897507052,"21":0.1191247509752475,"22":0.030653190798115938,"23":0.08333456035130288,"24":0.25801083917283646,"25":0.31278783088322004,"26":0.05052053461230074,"27":-0.08494323297249479,"28":0.13252932686786129,"29":0.18270019120651693,"30":0.10078471872220993,"31":0.1907510397093893,"32":-0.09294397074546969,"33":0.09749297900960402,"34":-0.2111741843565849,"35":-0.05914195254426814,"36":-0.04800579305459895,"37":0.1527228495387685,"38":0.08410654542114017,"39":-0.043174498385179005,"40":0.1125413368638215,"41":0.04943912229391665,"42":0.028459703613327853,"43":-0.10793789338381303,"44":-0.027818625007960524,"45":-0.11785359697788121,"46":-0.0919913822688145,"47":0.10387877808142684,"48":0.0697747026426874,"49":0.0015354069538777743,"50":-0.02461211810556524,"51":-0.08532325895898556,"52":0.0005696852348708462,"53":-0.042688234150091146,"54":0.0886422162862997,"55":-0.04907531806830027,"56":0.20648563779336115,"57":0.10080742356988513,"58":0.024440723588455768,"59":-0.11691769452626588,"60":-0.03224906728946998,"61":0.28627386227028384,"62":0.15861119813625224,"63":0.08444918151134191,"64":0.1852980755454272,"65":0.18627344249924577,"66":0.021865793972588525,"67":-0.02059021539247909,"68":-0.03263019191019834,"69":0.21371399798812823,"70":0.0958088625254767,"71":-0.02478569640327069,"72":-0.12625694039431834,"73":-0.05142819479394942,"74":-0.13576861882990787,"75":-0.14425345432551248,"76":-0.1907675232895382,"77":0.0427455653474583,"78":-0.09372767991916264,"79":0.06743816009627299,"80":-0.02336632687349089,"81":-0.0736937333142447,"82":-0.04408029738327803,"83":-0.0016304415896487609,"84":-0.07909419934438144,"85":0.06329465204727587,"86":-0.009361939057393975,"87":0.03151476052537746,"88":0.013487721651290939,"89":0.044394697709318934,"90":-0.11679329132964417,"91":-0.013953109431643913,"92":-0.23355775048159205,"93":-0.0025467713395782208,"94":0.09113159894682703,"95":-0.21128004261913702,"96":0.18429927824915526,"97":0.14653950960440576,"98":0.14040951141864066,"99":0.05347622860127863,"100":0.003762315032363011,"101":0.08185851352555014,"102":0.1334239898457782,"103":-0.047856040279454656,"104":-0.1357813417226345,"105":0.08125018268980812,"106":-0.13026172818168505,"107":-0.05815921666449703,"108":0.10907204290011685,"109":0.10717478315929925,"110":0.15955856414468392,"111":0.1343582893314769,"112":-0.01463821505762471,"113":0.028739344691702595,"114":0.0948928374663216,"115":-0.12879501916989322,"116":-0.12637222967792722,"117":0.09556220852464976,"118":0.054466508370882336,"119":0.04207485021815035,"120":0.030263886434127744,"121":0.0881954366469123,"122":0.03954889776621024,"123":-0.08059964498918173,"124":0.023604401986202072,"125":-0.08710413633375749,"126":-0.07005701724126401,"127":0.011340852030253716,"128":0.07405268473370945,"129":-0.18814118267019864,"130":0.043721658937799134,"131":-0.16717010170093305,"132":-0.14924933960101697,"133":0.03543085357949395,"134":-0.08504364717409765,"135":0.004759004153990777,"136":0.08643966317283283,"137":-0.004161699492255929,"138":0.07306916856459356,"139":-0.0796904854713852,"140":0.062884065986369,"141":-0.010768858059688535,"142":0.16714591255524172,"143":-0.0455187542474729,"144":-0.069777180965712,"145":0.20728558001650044,"146":-0.15124808500130313,"147":-0.03992570472224889,"148":0.12724669729469062,"149":0.24416888051853153,"150":0.07883744338701949,"151":0.08419169041254526,"152":-0.058567665850193504,"153":0.020200220525632903,"154":-0.17750034756833172,"155":-0.22581985363245954,"156":-0.06916054704513841,"157":0.06600409914837488,"158":0.07961154230333822,"159":0.0021013852863956636,"160":0.029545085203383822,"161":-0.0034155639994732146,"162":-0.02779598735838138,"163":0.015431472853323807,"164":-0.10663599756074894,"165":0.0935647153631729,"166":0.04510918178017189,"167":-0.12642251853678757,"168":-0.021650308598260188,"169":-0.08749566830374744,"170":-0.020645048282781416,"171":-0.15751113765747765,"172":-0.07246228783708691,"173":0.08109955740189338,"174":0.040013369923107896,"175":-0.07948969275302685,"176":0.051349477403819635,"177":-0.03679355910406499,"178":0.11778807894572758,"179":-0.014673774752420056,"180":-0.058621705553693546,"181":0.19040800470906735,"182":-0.02678925086701688,"183":-0.09135799020265993,"184":-0.07920714074300308,"185":-0.0013695767798543041,"186":-0.18340615209210331,"187":0.05762622959702112,"188":0.02356312422275095,"189":0.11318641005621595,"190":-0.012643790818165256,"191":0.03770407478576446,"192":-0.04298737930050182,"193":-0.06245687628293117,"194":-0.1330165147853026,"195":-0.1204309630427586,"196":-0.07793965810158017,"197":0.15105753593506507,"198":-0.04138815375108476,"199":-0.07778340736249066}},{"sx":5,"sy":5,"depth":8,"w":{"0":0.11667360582687533,"1":0.009837195353417526,"2":0.07155449497013085,"3":0.12267893907631922,"4":-0.0569869556415287,"5":-0.1119777623543878,"6":0.06253845179654713,"7":-0.06394377510930692,"8":0.17416372812433514,"9":-0.04878756829581869,"10":0.22860477483897443,"11":0.33421694032551613,"12":0.09411041119230311,"13":0.010676561783727374,"14":0.038461756948659234,"15":0.34466684003231,"16":0.20157947721574482,"17":0.12871734348575556,"18":0.1783358258831567,"19":0.10261102013012124,"20":0.0947521485353795,"21":0.12963245629278822,"22":0.1615295701849915,"23":0.16626667478311122,"24":0.059669430309517574,"25":-0.0450197615930677,"26":-0.07071002491192725,"27":-0.14222621240669897,"28":0.10984626895448314,"29":0.35973376221758735,"30":0.15273822827121444,"31":0.041717983060305996,"32":-0.03152386088845822,"33":-0.16295835744792697,"34":-0.032196472120809325,"35":-0.08055397226298543,"36":-0.10740520903281052,"37":-0.07222704404764349,"38":-0.15631363788301275,"39":0.014813021112176967,"40":0.09775581180128239,"41":-0.21184456413029967,"42":-0.10245857892301413,"43":-0.18386530110803098,"44":0.015466574430010874,"45":-0.02741580249718859,"46":-0.07412802120991688,"47":-0.1163951731460126,"48":0.3199281263955546,"49":-0.10161013588947641,"50":0.06681142359026579,"51":-0.18255633575900596,"52":0.1040033315298094,"53":0.10027083830396666,"54":0.03742534348367232,"55":-0.042303658335373556,"56":0.27303186848845296,"57":0.13210874307724824,"58":0.10637227512865963,"59":0.014370608115691219,"60":0.09892569399074634,"61":0.14238023667874197,"62":0.29618193416001387,"63":0.22698053089258144,"64":-0.1326872278635288,"65":0.11583057142780727,"66":-0.23752893291142502,"67":0.08896112766578473,"68":-0.17073012874699395,"69":0.29685702819929144,"70":-0.043364498255690595,"71":0.21645919802249858,"72":0.13389454776184812,"73":0.014163087754043902,"74":-0.13262072595198438,"75":-0.07933494980361737,"76":-0.16172064032179462,"77":-0.12476962102716384,"78":0.0681877183829422,"79":-0.1941889980371488,"80":0.08618199946493432,"81":0.09307113105007901,"82":-0.067629473084432,"83":-0.2623461931127761,"84":0.20193271093282728,"85":0.11139672439755115,"86":0.07425075207395608,"87":0.04419630944197819,"88":-0.07043133527888532,"89":-0.010757313565669044,"90":-0.021946734745743206,"91":-0.0574541793500083,"92":0.13685565703703964,"93":0.13141065353988118,"94":0.0848584164825199,"95":-0.08019435126324768,"96":-0.11453737802558932,"97":0.047352010924992124,"98":-0.048332979099757103,"99":-0.02478080909265188,"100":0.2006338927175793,"101":0.10956577956581615,"102":0.1817153271132113,"103":0.09108628401931186,"104":-0.029404992753405957,"105":0.06636278385469514,"106":-0.06689959970406481,"107":0.024255207946957485,"108":-0.2974577711564866,"109":0.02114883403058591,"110":0.01036581508273538,"111":-0.12849431554955418,"112":-0.031100916332028643,"113":-0.03002062872231813,"114":-0.04890728527277566,"115":-0.1362591897892888,"116":-0.29988946894692287,"117":0.00957483290240316,"118":-0.19931148609020097,"119":0.0023932817746249386,"120":0.06872139072705202,"121":0.03339069420823796,"122":0.015514533547375788,"123":-0.06951027119854758,"124":-0.21052194751312658,"125":0.2190044013043375,"126":0.15820491860809655,"127":0.021978119799821453,"128":0.04559156861874228,"129":-0.11928075223357384,"130":0.14590061506364513,"131":-0.016169029548465816,"132":0.046850500014709744,"133":0.2352596176330031,"134":0.08958551375188516,"135":0.0595599893766746,"136":0.223553028752858,"137":0.06470772062224664,"138":-0.013068472709683717,"139":0.07976080238393174,"140":0.13150382696737054,"141":-0.007253476910769183,"142":0.16886643488694575,"143":-0.013600969080356745,"144":-0.0801917983734875,"145":-0.04456015883847453,"146":0.07360415291413515,"147":-0.3047401978494943,"148":-0.13198313962236147,"149":0.024918347058514877,"150":0.10943961561953922,"151":-0.06853940592130489,"152":-0.0042174236422706365,"153":-0.2891434793380134,"154":-0.041402923918974946,"155":-0.10567987007851523,"156":-0.0742351136108085,"157":-0.11586547610000016,"158":-0.08522821286017034,"159":-0.23234381465774157,"160":-0.27461259496234375,"161":-0.06416608858567246,"162":-0.130738895564046,"163":-0.07871672063266047,"164":-0.1178810969795058,"165":-0.08436324018414378,"166":-0.12077641003958359,"167":-0.2179648530337014,"168":-0.0022092011619730626,"169":0.06685137606517216,"170":0.1328632414402254,"171":-0.1646424010969238,"172":0.1228309835521777,"173":0.048196550971218416,"174":-0.047145081351911866,"175":-0.2044627754210756,"176":0.12518249300374767,"177":0.36067059608104446,"178":-0.12759573383780073,"179":-0.12940600752092973,"180":-0.08177475378025523,"181":0.035545921542277564,"182":-0.02411538794888112,"183":0.031268703750659245,"184":-0.06016878362840461,"185":0.21749690020903822,"186":-0.15954672357624305,"187":-0.12341803776468638,"188":-0.18166511039480374,"189":0.10540939468667775,"190":-0.048460028100217926,"191":0.11121281355515257,"192":-0.04527748018441137,"193":-0.07634759063036863,"194":-0.1494635232286519,"195":-0.23717024720016977,"196":-0.06844258930669671,"197":0.09853321601187294,"198":-0.1474044499813868,"199":-0.08807543999482868}},{"sx":5,"sy":5,"depth":8,"w":{"0":0.08244827769548504,"1":-0.05151618464201444,"2":-0.06959610872152287,"3":-0.032885910713476615,"4":0.09705938111878482,"5":-0.20297632972433713,"6":0.08041831170848761,"7":-0.1352563792827811,"8":0.08154556303293914,"9":-0.11958553737849709,"10":0.18624918544207641,"11":0.08087131815669675,"12":-0.08999371816430927,"13":0.005163285321806411,"14":-0.08692014196713227,"15":0.11347940664252407,"16":0.07888751248047231,"17":0.00036165481520161334,"18":0.19930562383792538,"19":-0.03993188411465268,"20":0.04242203348740631,"21":-0.1642026959812928,"22":0.002306968543039296,"23":-0.06451851616681684,"24":0.04952656693618783,"25":-0.01643651814884711,"26":0.04657434706132298,"27":0.06342793789784257,"28":0.013661483282578189,"29":0.11708221992862938,"30":0.03666810726601228,"31":0.0391322237770273,"32":0.10125852403372908,"33":-0.19204459482470648,"34":0.02771223133225062,"35":0.09881809472793221,"36":0.05480186399753668,"37":-0.09713478344130375,"38":-0.02966959214084838,"39":-0.07199993988127658,"40":0.09582111629125756,"41":-0.032281629433617495,"42":-0.034761106739920944,"43":0.16767618035325904,"44":0.2237881395629992,"45":-0.011614784877143155,"46":0.002154554811335026,"47":-0.006860378954302521,"48":0.23121702341238995,"49":-0.11670703431249087,"50":0.04352877120870856,"51":-0.04480180517948336,"52":0.003358683157839695,"53":-0.07759930975554986,"54":0.09682350864348688,"55":-0.11040251804059574,"56":0.14209114289914418,"57":-0.1285120472270898,"58":0.045386833241772104,"59":-0.010534353349677084,"60":-0.02906475651476912,"61":0.009503036680810274,"62":0.053134797313564894,"63":0.12082282166853597,"64":0.018275928777328906,"65":-0.05792253116697428,"66":-0.008010639609994518,"67":0.04478639130291038,"68":0.12359967210736451,"69":0.00820127263589214,"70":0.0443464306662607,"71":-0.03211488358367449,"72":0.07604747288295272,"73":-0.09614805687315238,"74":-0.07890748308409958,"75":-0.13826222883726963,"76":-0.0713675515744215,"77":-0.24839612733142552,"78":-0.11372528153566952,"79":-0.1011993849625192,"80":-0.016540738449543468,"81":-0.019301634627635428,"82":0.1483250120545529,"83":0.16977513762982147,"84":0.2048463646376067,"85":0.11120239273967836,"86":-0.10421093883989715,"87":0.20915042715053186,"88":0.28856647690673115,"89":0.013341272219507297,"90":0.08479289612180449,"91":-0.06577424133952275,"92":0.12766282462486847,"93":0.10991663190769516,"94":-0.02288887140252564,"95":0.14060247434059395,"96":0.036933642664708326,"97":-0.13608086606382644,"98":0.09282837882200017,"99":-0.0431193997882216,"100":0.09019707059019928,"101":0.041854922725626395,"102":0.04204988404513006,"103":0.1214084630420973,"104":0.11067078831899298,"105":-0.1111817138743102,"106":0.07059445745627167,"107":-0.05547420298953872,"108":-0.05785330790471484,"109":0.0023784979506856815,"110":-0.07704567278141707,"111":0.15711901366573203,"112":0.20768853708035054,"113":0.009263240427659697,"114":0.02128047168145781,"115":-0.02798145549772993,"116":-0.027499685486717836,"117":-0.1419850488501491,"118":-0.09576684056754833,"119":-0.16779179426449065,"120":0.17753667085834793,"121":0.049512989710064396,"122":0.1996222495714759,"123":0.06507876296790419,"124":-0.013930853192281226,"125":0.09089223148314703,"126":0.19475167367506047,"127":0.06421133395515502,"128":0.15674211565380786,"129":-0.05047036161169924,"130":0.2264274966348756,"131":0.09312569342443408,"132":0.08486756742005233,"133":0.024534408610518713,"134":0.09771364142323834,"135":0.036060031306946606,"136":0.09822307725846009,"137":0.1664404367090485,"138":-0.13025873348467273,"139":0.03165913521640261,"140":0.04372999779584384,"141":0.06957612708461587,"142":0.24753098487032588,"143":0.0995674383518993,"144":0.18393769602443377,"145":-0.11345260427720909,"146":-0.09273609274304781,"147":0.09366265576852258,"148":-0.14714050422484934,"149":-0.11140072652757192,"150":-0.09869922172726207,"151":0.04092364258156524,"152":0.0352687683609337,"153":-0.16943949484219026,"154":-0.07740553991216964,"155":0.08665782807654418,"156":-0.053765638727687734,"157":-0.23109052454884033,"158":-0.052545221018541484,"159":-0.022978402089411508,"160":0.1038115693943557,"161":-0.04883019437397714,"162":0.2480425186507714,"163":0.06502099293979645,"164":0.09136208169764515,"165":-0.025232873203703505,"166":-0.26383968565714494,"167":0.016378656193879425,"168":0.050849629232438666,"169":0.028041758644694013,"170":0.07216700734121322,"171":0.12506092535818758,"172":0.01638183374822607,"173":-0.10974097918929253,"174":0.01847023338876322,"175":0.0011989555754731139,"176":0.07550420553233306,"177":-0.16340796743874667,"178":0.06228066348667456,"179":0.060112258456014526,"180":0.034118037504798686,"181":-0.019388847727600765,"182":0.02844754069035141,"183":-0.01150376299145479,"184":-0.04121783734266128,"185":-0.13256499854393242,"186":0.08084611252707073,"187":-0.022994894284088043,"188":-0.07623725203750803,"189":-0.07350601431129579,"190":-0.05685478106111088,"191":-0.14242011812772856,"192":0.060879869900741734,"193":-0.3147333050191542,"194":-0.10274903107041646,"195":0.048734674378193586,"196":0.0639795835988508,"197":-0.298926231867172,"198":-0.05137963778304264,"199":0.07675381130724099}},{"sx":5,"sy":5,"depth":8,"w":{"0":0.05812173077978124,"1":-0.013343538918501898,"2":-0.10782495953400219,"3":0.1800992033290024,"4":0.3082928766958539,"5":-0.04230273867868707,"6":0.19384099007273445,"7":0.07300755456855956,"8":-0.20126920275373697,"9":-0.17005992722891136,"10":0.02203903997251911,"11":0.00729110425926764,"12":0.11865230785857941,"13":0.00952093424497101,"14":0.037656906644534104,"15":0.028190936537730155,"16":-0.033875464121706875,"17":-0.15325268293077385,"18":-0.03337671034609845,"19":0.281895172042421,"20":-0.03442539962589211,"21":-0.07221301277399357,"22":0.10190994182490119,"23":0.0488812093654807,"24":-0.04276994525755229,"25":-0.21729190236390536,"26":0.0382109124276127,"27":0.12985718206044453,"28":-0.042801971219945036,"29":0.013419666634120031,"30":0.3149423051447743,"31":0.027405997705773465,"32":-0.03615349061345575,"33":-0.14614280928392595,"34":-0.04099355754171248,"35":0.14163098903100688,"36":0.19771606788630922,"37":-0.05395851753931152,"38":0.10235623604052216,"39":-0.04918534524940774,"40":0.222489607927475,"41":0.19857605339130227,"42":0.01158653351051153,"43":-0.20560741458928428,"44":0.12080892652153999,"45":0.14755852544995707,"46":-0.1361636922977007,"47":0.1078937580428541,"48":-0.1128765348835956,"49":0.30417240741398816,"50":-0.08255386654411379,"51":-0.3149425215175816,"52":0.133786034694069,"53":0.07028684117587258,"54":-0.09894493119352998,"55":-0.011693411398311994,"56":-0.16861294539653532,"57":0.12481910629628999,"58":0.09947915578336393,"59":-0.08331197063009563,"60":0.1315348878943627,"61":0.05103239260182676,"62":-0.06124313787448553,"63":-0.09926333188807655,"64":-0.09492296487006223,"65":0.08755379805377507,"66":-0.04848238363992999,"67":-0.14250845963505684,"68":-0.0878623516668971,"69":0.10790351477967365,"70":-0.13776004437693998,"71":-0.1892169404965991,"72":0.013076316442061194,"73":0.04538746987782066,"74":0.05768058743824018,"75":-0.2525612574887128,"76":-0.08341606410191488,"77":-0.06604470179245599,"78":-0.05410169712691656,"79":0.03281156016917366,"80":0.12438135540480032,"81":0.2172632286523134,"82":-0.16814696488717454,"83":0.09351649566448203,"84":0.06997385126084955,"85":0.023960518458786446,"86":-0.044916847128107604,"87":0.057274024995004516,"88":0.12758105253672788,"89":0.15353875588410057,"90":0.07368046488591269,"91":0.03768204490676452,"92":-0.18880501533353822,"93":0.09944824123719222,"94":0.12363017066839012,"95":0.04873472594987549,"96":-0.050656399701486415,"97":-0.03231023496696468,"98":-0.2686216854266628,"99":-0.0032739168462127175,"100":0.04930055147747834,"101":0.029045641533173724,"102":0.06714000926693066,"103":0.12095929692487851,"104":-0.1527766654240875,"105":-0.12235874217404781,"106":0.0718218750456848,"107":0.02569285988392295,"108":-0.006694241866494075,"109":-0.07504084197119963,"110":0.07028291630214947,"111":0.004863769217295337,"112":-0.07505163793193433,"113":-0.013432319842580018,"114":-0.17177931730001286,"115":-0.020525116324797955,"116":0.008762180658852314,"117":-0.19133824509202027,"118":-0.10590698186804653,"119":-0.0964147347061658,"120":-0.08960055500478895,"121":-0.13992866662166004,"122":-0.12733575100131317,"123":0.066329926171064,"124":-0.0971264031501142,"125":-0.11000352090140832,"126":-0.08151829888666946,"127":-0.01755935242094736,"128":0.03204611924663437,"129":0.06875055346196081,"130":0.0746609127688897,"131":-0.008577463438342344,"132":-0.14548654559967458,"133":-0.1321285992956653,"134":0.14798321802591693,"135":-0.022229982385419185,"136":-0.015456546207680388,"137":0.05412391902613767,"138":0.02421168715228884,"139":-0.03892900376373213,"140":-0.0971764189542008,"141":0.08801278655002437,"142":-0.12681644593792937,"143":0.07710051851433461,"144":-0.04370101820921771,"145":-0.048712628706153685,"146":0.13825023290759775,"147":-0.00613621883822628,"148":0.007615383393221209,"149":-0.1588254163481088,"150":-0.21016300821004016,"151":-0.08488012993040651,"152":-0.045486810627959784,"153":-0.08246272892403612,"154":0.18296965102201723,"155":0.02008046784238344,"156":-0.06673487815281035,"157":-0.047037109907488,"158":-0.1326522686596261,"159":0.0418002708323279,"160":0.003650940423251722,"161":0.14514712717788325,"162":-0.021003528064277417,"163":-0.19067328497379496,"164":-0.005529912068701653,"165":-0.03723724983545846,"166":-0.15336643895705587,"167":0.061544569853880314,"168":0.1650669514544404,"169":-0.021452991081382256,"170":0.19733528611990914,"171":-0.07972238844401106,"172":0.0021977099297240833,"173":-0.020050467149966382,"174":-0.07159601049598564,"175":0.0692018158354538,"176":0.008443092985896326,"177":0.0011172713855615315,"178":0.0589767320642091,"179":0.08675593437713401,"180":-0.06540045395796824,"181":-0.01928256284766135,"182":0.017391599072762356,"183":-0.09209995034411882,"184":0.05151222059284841,"185":-0.1432589936506016,"186":0.07139190816493696,"187":0.08045054147452498,"188":0.15675140734735896,"189":-0.06345130715245337,"190":0.04204334954134229,"191":-0.03398513393713629,"192":0.18148595591297,"193":-0.07614278272493104,"194":0.04750710401710687,"195":0.18478093996444675,"196":0.102073952536549,"197":0.10288561942232724,"198":0.17003479730621482,"199":0.002539083710689167}},{"sx":5,"sy":5,"depth":8,"w":{"0":-0.05495307518656592,"1":-0.06807791422095096,"2":0.05670917676014703,"3":0.11815401282025072,"4":-0.01575003472358502,"5":-0.011633666374086953,"6":-0.023181043457074207,"7":0.035525723908759764,"8":0.054345189224405434,"9":-0.1148577389311478,"10":-0.11710536882578033,"11":-0.029649418637634026,"12":-0.08569532545454074,"13":-0.03536727627801262,"14":-0.041813891523150404,"15":0.0017331334147972592,"16":0.015468654918125754,"17":-0.0284004055370022,"18":-0.02407912022680654,"19":0.08419454485534182,"20":-0.04123796557429815,"21":-0.08018986388667942,"22":-0.05667784813585111,"23":-0.0756643279689516,"24":-0.02281273347926614,"25":-0.1335530086159735,"26":-0.012367726303488282,"27":0.02553887699146094,"28":-0.003922750899622301,"29":-0.09929300149999075,"30":-0.005478674062192222,"31":-0.2205158407161502,"32":0.038885226842486416,"33":-0.1436743073123628,"34":0.016556792025448606,"35":-0.0016620412218792328,"36":0.18545252092538886,"37":-0.0472304152616599,"38":-0.01785194007753636,"39":-0.09273829708265481,"40":-0.07599500025744747,"41":-0.09774359073708906,"42":-0.09400830963098397,"43":-0.0793328051446277,"44":-0.19608011861292654,"45":-0.24996175135049037,"46":-0.18953086308743966,"47":-0.1964070660630892,"48":0.06474523917505957,"49":-0.18058050749676696,"50":0.010981655783506683,"51":-0.08492792546590795,"52":-0.09909687649847937,"53":-0.07534631884223611,"54":-0.009744351160292302,"55":-0.20705669120618073,"56":-0.05185497846466136,"57":-0.025632132424966644,"58":-0.1863537364880225,"59":-0.09708926619609579,"60":-0.09532124316897966,"61":-0.02471489282777304,"62":-0.1670468287401926,"63":-0.21916226014785864,"64":-0.08588416900772891,"65":-0.06833330181667034,"66":-0.08591383684515316,"67":-0.030337398812244985,"68":0.06848175256399285,"69":-0.15466143595728352,"70":-0.1296024767476487,"71":-0.0574470531766274,"72":-0.015022861848896063,"73":-0.04672881892737908,"74":0.09235274867013109,"75":-0.1283394017967662,"76":-0.11514777376710741,"77":-0.1706510915317382,"78":-0.002354543451375469,"79":-0.16899551504667273,"80":-0.1519994457280467,"81":0.08671341728865631,"82":0.08829347612868656,"83":-0.06636723503613064,"84":0.02200259796980667,"85":0.09820413610304514,"86":0.053525215517289955,"87":0.14480906466143798,"88":0.06183074367136882,"89":-0.029798965355367697,"90":-0.17744466973400352,"91":-0.01776936225283644,"92":0.11113474218521785,"93":0.009633962645911336,"94":-0.03665989510770843,"95":-0.06634344346994324,"96":-0.08272616414208507,"97":-0.023739358468322647,"98":0.060390429372740244,"99":-0.121239817962995,"100":0.02446055368674467,"101":-0.04118467824556417,"102":-0.07220861034887159,"103":0.07320644238519274,"104":-0.03227950507764427,"105":0.10151098318802908,"106":-0.05526304417042762,"107":-0.05970522392795244,"108":0.07451613643750854,"109":0.0853669112507781,"110":-0.2540792041238784,"111":-0.009036358139076113,"112":0.1337499735636612,"113":0.18831168865461534,"114":0.07984868904800983,"115":-0.18023050861370507,"116":0.28157820525187555,"117":0.13253696838792756,"118":-0.06470616457792894,"119":0.04041436065112517,"120":0.27934273993198294,"121":-0.08782613944382765,"122":0.034259695019710046,"123":0.09958195092860649,"124":0.29456241879546563,"125":-0.014506558507013823,"126":0.19932700300778883,"127":0.15264271248128358,"128":0.02061040531148464,"129":0.14604871545569365,"130":0.022128477916218702,"131":0.05371082751770212,"132":0.040931709227058785,"133":0.20260578395780385,"134":0.14333700743271016,"135":0.17137821123367591,"136":-0.0547470607887039,"137":0.1366304393689125,"138":0.04833188654033121,"139":0.03341543397166983,"140":-0.031019092646834837,"141":0.1652031051629853,"142":0.20373322988877268,"143":-0.11190344288486705,"144":0.03059124641408013,"145":0.1586306003273872,"146":-0.07820986878046379,"147":-0.0053410835456555944,"148":-0.10035083390247028,"149":0.08920180865885126,"150":0.2698811288733793,"151":-0.009662399957827153,"152":0.16369694548952984,"153":0.3253632268287735,"154":-0.011265093222455691,"155":0.15490489369110383,"156":-0.1735118249841267,"157":0.25833812054994515,"158":0.29423987716896066,"159":0.08293078813456492,"160":0.00005642795972296989,"161":0.06940340689213303,"162":-0.1770355503366406,"163":-0.11503619135531647,"164":-0.09504224449330159,"165":0.02746050677673551,"166":0.059824166106723066,"167":-0.18805918389735174,"168":0.10078971560386475,"169":0.14896581769775283,"170":0.08666918205699477,"171":-0.11151563943061048,"172":-0.09885381642430206,"173":0.033650963314810656,"174":-0.02081063600176878,"175":-0.021748074587444318,"176":-0.11395090979667412,"177":0.001389395739624054,"178":-0.15825478589719985,"179":-0.2316413148760773,"180":0.018451899358935927,"181":0.11878296718963822,"182":0.02736155357746089,"183":-0.033050598846365686,"184":0.27130676638034346,"185":-0.09286529472549736,"186":0.02230735348981389,"187":-0.14978850807502264,"188":0.007415631243583052,"189":-0.1818579963535728,"190":0.06763083019834418,"191":-0.12583901804744133,"192":0.011353227582010782,"193":-0.04694006638761633,"194":0.010334446596211239,"195":-0.07513584759044946,"196":0.01062160766648662,"197":-0.11701971682526763,"198":0.10578278321208351,"199":0.0419771328061203}}],"biases":{"sx":1,"sy":1,"depth":16,"w":{"0":0.10346597055802931,"1":0.0879709625366562,"2":0.05152974561486204,"3":0.04062218199538182,"4":0.043758153185314494,"5":0.03898521605931746,"6":0.06011311155353474,"7":0.18169398738508055,"8":0.1862366404082862,"9":0.04904897434550714,"10":0.0936414263896785,"11":0.0005829968780451,"12":-0.0845707799759215,"13":0.118102320376275,"14":0.0879158318666624,"15":0.0591502197304519}}},{"out_depth":16,"out_sx":12,"out_sy":12,"layer_type":"relu"},{"sx":3,"sy":3,"stride":3,"in_depth":16,"out_depth":16,"out_sx":4,"out_sy":4,"layer_type":"pool","pad":0},{"out_depth":13,"out_sx":1,"out_sy":1,"layer_type":"fc","num_inputs":256,"l1_decay_mul":0,"l2_decay_mul":1,"filters":[{"sx":1,"sy":1,"depth":256,"w":{"0":-0.15018756703248504,"1":0.03934832707067553,"2":0.1061651021066396,"3":-0.05184847764169679,"4":-0.040703806430254105,"5":0.08916593663219623,"6":0.0013788442221930454,"7":-0.12463677752710002,"8":0.08769164325735085,"9":0.08705302709277356,"10":0.03544251381148986,"11":-0.03134856112096593,"12":-0.11471340486721278,"13":-0.07043898122388545,"14":0.1661508122685106,"15":-0.13410004528712488,"16":0.20791801891314368,"17":-0.18062959248858132,"18":-0.14889467253322072,"19":0.08557835049858764,"20":-0.038504015631816456,"21":-0.050514856427300574,"22":-0.048418112364379144,"23":0.006466651175946483,"24":-0.217432041867204,"25":0.048756181581864885,"26":-0.04217864958230631,"27":-0.0008628911052029716,"28":0.12544397309722558,"29":-0.09751942672781728,"30":0.07538291569575344,"31":0.1649186309596371,"32":-0.05368628613378346,"33":0.03828101699897784,"34":0.09929544164761847,"35":0.07480649011445793,"36":0.008413240967034361,"37":0.10584507283747185,"38":-0.00008568166937201194,"39":0.1468380014080894,"40":0.017271081452941463,"41":0.12115761915187793,"42":-0.11907107116335258,"43":-0.04035403812762325,"44":0.15338857253601895,"45":0.07426233601249471,"46":0.12145559606555924,"47":0.06605541230729668,"48":0.05308017542075381,"49":-0.09306016704879237,"50":-0.17483527557001777,"51":-0.12419313220222174,"52":-0.08409655260323101,"53":0.04857341514780141,"54":0.1290378269132727,"55":0.10062391060723419,"56":-0.09014739495287534,"57":0.02183661837742367,"58":0.061090103519961816,"59":0.05295265856345482,"60":0.10565334555232243,"61":0.07304553061257119,"62":0.000007055887265863167,"63":0.06416432716599962,"64":-0.15801340478055534,"65":-0.02225763865240523,"66":-0.10183940705649126,"67":0.14025364354496167,"68":-0.07465799520612587,"69":0.058364294088478645,"70":-0.11568873694545273,"71":-0.050560123102665784,"72":-0.12984642546559264,"73":-0.0244148146840592,"74":-0.0983949394840524,"75":0.04607440201052856,"76":-0.053160096439969995,"77":-0.13255897748237636,"78":0.05212000043119662,"79":-0.18807914683483992,"80":-0.18507208640821524,"81":-0.06975159096039199,"82":-0.26545108060472183,"83":0.1014560023487638,"84":0.20975865897521054,"85":0.15715311272490876,"86":0.1403233609317122,"87":-0.12488108650755786,"88":-0.0029811238565911028,"89":-0.07693428348416499,"90":-0.009871904208984233,"91":-0.013401119508453838,"92":-0.17021241925577787,"93":-0.009550595293822448,"94":-0.14062918523941767,"95":-0.03611559200019348,"96":-0.2674662153263218,"97":0.026190387177274156,"98":0.0539541819557906,"99":0.11780165497878993,"100":0.08370946719003625,"101":0.05027181066638859,"102":-0.03141730390088131,"103":-0.08663117150990281,"104":0.05061423920893683,"105":-0.03526122412686472,"106":0.1435571377692175,"107":-0.07262627265316134,"108":0.07948219940802329,"109":0.06538040231996503,"110":0.005589591345143495,"111":-0.043969480289016066,"112":0.09062312499630915,"113":-0.07137246856108614,"114":-0.05922587051234696,"115":-0.04259179801429674,"116":0.03847949588940554,"117":-0.17001485539281186,"118":0.09151049565303654,"119":-0.08105095571580077,"120":-0.05639253948416192,"121":-0.2646816769704457,"122":-0.16332011024327672,"123":0.05234559912774893,"124":-0.004440638898858965,"125":0.08289451787871085,"126":-0.0899837875532603,"127":-0.09053117341560937,"128":-0.1675551738325518,"129":0.025731022511673043,"130":-0.34266978039678303,"131":-0.061274316392864916,"132":0.09135322050547975,"133":-0.06494077245658944,"134":-0.015746548288748406,"135":-0.06695888567883655,"136":-0.03562358104045982,"137":0.10988348557251089,"138":-0.010720509498999322,"139":0.06649388011080382,"140":-0.07385634007824783,"141":-0.22397308829805118,"142":-0.12241427351055065,"143":0.1759786494280962,"144":-0.16075853442607074,"145":0.05255447587520756,"146":-0.044801839961278955,"147":0.05697701967329777,"148":0.05794799055700453,"149":0.12049882882682303,"150":-0.009310066020671592,"151":-0.04694968195854791,"152":-0.032678435233296804,"153":0.0805725853998648,"154":0.11531792585878319,"155":0.2001571929707997,"156":0.024143385968600935,"157":-0.1235405338950037,"158":-0.06097209069030016,"159":0.22580704838661184,"160":-0.18590638067245496,"161":0.11591945679710741,"162":-0.01817810070274675,"163":-0.0983582409987767,"164":0.11007814421028302,"165":0.1064950458667622,"166":0.08451855186063954,"167":0.049747261446049025,"168":0.006605641610267788,"169":-0.13968916023982333,"170":0.09631901429601486,"171":0.07954155519654915,"172":-0.0321121665448553,"173":-0.11666545611132839,"174":-0.2766241465789186,"175":0.03443102174150868,"176":0.03618808274889823,"177":0.12605971879671313,"178":0.02477127414059808,"179":-0.14198116233768823,"180":-0.00014927210150158284,"181":-0.010828314287959889,"182":0.13016743265010505,"183":-0.017651539212385006,"184":0.19600341024738324,"185":-0.02522008959065752,"186":-0.165176689678556,"187":-0.019225699533819945,"188":0.0032952375337371087,"189":0.012572478830247995,"190":-0.006370714978211987,"191":-0.038682386041043904,"192":0.0625521839025892,"193":0.04901749209942393,"194":0.00892852331007363,"195":-0.029045402117807286,"196":0.030680933425655647,"197":-0.0917606457693412,"198":0.03017556830809987,"199":-0.027991260497744697,"200":0.043451148754887946,"201":0.0024961672258444687,"202":-0.08450014150643144,"203":0.10883221055612993,"204":-0.04489032845616881,"205":-0.03894864660221817,"206":-0.1879755686603538,"207":-0.08373163412995185,"208":-0.044176635998072464,"209":-0.03262294512142271,"210":-0.16501324372021392,"211":0.0294872436660745,"212":-0.01071213797232274,"213":0.06853695880822842,"214":-0.2548850983680609,"215":-0.08230896910085318,"216":-0.13292867351238172,"217":-0.026038487801813195,"218":0.05726157515083467,"219":0.12971573710386847,"220":-0.010567112594524267,"221":-0.11747817883601867,"222":0.0536013402934115,"223":-0.2190550122375466,"224":0.011162765022601146,"225":0.08883706526070191,"226":-0.006360208156589718,"227":-0.05132100928344726,"228":0.018462840210931156,"229":0.022301464188920716,"230":0.04706358404430508,"231":0.004548555025892499,"232":-0.2093136297848067,"233":0.06407778753135855,"234":-0.11214720356753503,"235":0.06315576009875777,"236":0.0896531684500048,"237":0.13624506977709566,"238":0.04855157953987948,"239":-0.11788431169786037,"240":-0.14770950842611183,"241":0.05442690145486648,"242":-0.011977236920274671,"243":-0.03411806909266528,"244":0.13813379385348126,"245":0.016859762801019508,"246":-0.008873283845918371,"247":-0.15974469234575678,"248":-0.05661548627927646,"249":0.10900153385482488,"250":-0.06158379096381892,"251":-0.012121260864884497,"252":0.000868479941376561,"253":-0.007553355554775422,"254":-0.06234029084929022,"255":-0.20179490840829192}},{"sx":1,"sy":1,"depth":256,"w":{"0":-0.017380707366934797,"1":0.06749842458117,"2":-0.046453176950137294,"3":0.269672274066707,"4":-0.030419640969046487,"5":-0.04163237417837417,"6":0.01316029339565549,"7":0.12944278364466244,"8":0.09298120029010261,"9":0.21496202445507737,"10":-0.07171582798251311,"11":-0.016299304448386533,"12":-0.1736622074463737,"13":0.01833908735616012,"14":0.31593985766851296,"15":-0.07725859792555784,"16":-0.09266618926914975,"17":-0.03895804061880228,"18":0.0005862340928299329,"19":0.022644943546717797,"20":-0.19878440958328908,"21":-0.10121311169884847,"22":0.08571605826660811,"23":0.029025042059381043,"24":0.1874500114741848,"25":-0.13205935997145085,"26":-0.053234612479123034,"27":-0.33618590763697737,"28":-0.35493398545070065,"29":0.015386947418560634,"30":-0.04434539131312085,"31":-0.17119171197620062,"32":-0.09009641286307227,"33":0.07746952845822225,"34":-0.14423473370410456,"35":0.0764865852367406,"36":-0.05465268031306971,"37":-0.0010866038584692855,"38":0.13323321538361282,"39":0.2265036035582911,"40":-0.061680169330561085,"41":-0.07696524372861771,"42":-0.04405885648433565,"43":0.0722777377419713,"44":0.16679410474905057,"45":0.19210032577498662,"46":-0.01639051259789993,"47":-0.14207478702006957,"48":-0.2187221958623904,"49":0.12268382623817989,"50":0.01766472602543371,"51":-0.08201714859191477,"52":-0.16982169703473296,"53":-0.08567250474167153,"54":-0.14762513125093504,"55":0.14145236158637825,"56":0.10242558135261297,"57":-0.0794381868050658,"58":0.06671103665906687,"59":-0.09063661282626657,"60":-0.18405455659318232,"61":-0.07094548541507124,"62":-0.022805266634692557,"63":-0.046909951534001806,"64":0.004877825320230491,"65":0.03013989560084847,"66":0.17723870845048204,"67":-0.11114313752091949,"68":-0.007868541883766754,"69":-0.010360238250337661,"70":0.03319988314900125,"71":0.34571680026529183,"72":0.11624536797501726,"73":-0.09772273499062177,"74":0.18824229748274637,"75":0.005637228582086849,"76":-0.12343843025172552,"77":-0.07250917287593349,"78":0.03561220621471694,"79":0.00441670818468025,"80":0.10845052119881035,"81":0.24351678842319335,"82":0.13821593365784865,"83":-0.04610430608416455,"84":-0.055614172656229754,"85":-0.0903186463881656,"86":-0.18744702578198555,"87":0.24183037635673196,"88":0.32425046671198793,"89":-0.19517316962312917,"90":0.13132187738387002,"91":-0.17571106997239339,"92":-0.15899878018119445,"93":0.11346578471010564,"94":0.21624366093445094,"95":-0.0869427110207899,"96":-0.12063542042245334,"97":-0.12366356798183183,"98":0.06709680032674063,"99":0.010521500712497385,"100":-0.1671530741833436,"101":-0.15661321918042623,