{"layers":[{"out_depth":1,"out_sx":100,"out_sy":100,"layer_type":"input"},{"sx":4,"sy":4,"stride":4,"in_depth":1,"out_depth":1,"out_sx":25,"out_sy":25,"layer_type":"pool","pad":0},{"sx":5,"sy":5,"stride":1,"in_depth":1,"out_depth":8,"out_sx":25,"out_sy":25,"layer_type":"conv","l1_decay_mul":0,"l2_decay_mul":1,"pad":2,"filters":[{"sx":5,"sy":5,"depth":1,"w":{"0":0.5706448817185396,"1":0.243150450457669,"2":0.02673777111865495,"3":0.02683734622221757,"4":0.1286488110899005,"5":0.6303342442542329,"6":-0.13634724029238524,"7":0.018616083958043327,"8":0.0826734698267084,"9":0.4803237654467611,"10":0.4091537860558724,"11":-0.04160418951172721,"12":0.2789440599640774,"13":0.338403836589317,"14":0.3511086580584985,"15":0.41670859546003725,"16":-0.1351173214438511,"17":0.14081991871354094,"18":0.3786345020241164,"19":0.09293579393047444,"20":0.3268768105686234,"21":0.07080225535733503,"22":0.15997058490549965,"23":0.2221976836207564,"24":0.10612624968715557}},{"sx":5,"sy":5,"depth":1,"w":{"0":-0.4183670146272525,"1":0.0804948145739077,"2":-0.07558118588243898,"3":-0.25081603267878977,"4":-0.04613513432760507,"5":-0.4675142317815416,"6":-0.11671156119706137,"7":0.06765412320143965,"8":-0.15097893870462437,"9":0.25723506549968855,"10":-0.35617147399135746,"11":-0.06759008785337159,"12":-0.019516576732571983,"13":0.005980277501502531,"14":-0.2520109998064982,"15":0.270792422653341,"16":0.1458049070454315,"17":-0.31402454534376323,"18":-0.17835101764716751,"19":-0.2713552074603897,"20":-0.12998803178276527,"21":0.04534049636112711,"22":-0.07180518377394525,"23":-0.1393701811305826,"24":0.03734655876598848}},{"sx":5,"sy":5,"depth":1,"w":{"0":0.035513153027532315,"1":-0.43288907283018385,"2":0.058075438544734515,"3":-0.07647017925905378,"4":0.4158498140140785,"5":-0.049960507828920586,"6":0.0689334215510932,"7":0.3549321063081001,"8":-0.3706969026428912,"9":0.17073513891761885,"10":0.2697622389327165,"11":0.11641111781847933,"12":0.01076029739373821,"13":-0.00809870950557164,"14":-0.009123441876814839,"15":-0.09398956171523828,"16":-0.38394625094898416,"17":-0.023570322887881086,"18":0.3224500538955469,"19":0.250398119243039,"20":0.09936098441697273,"21":0.023622684147901304,"22":-0.3548842653130701,"23":0.11434365938449542,"24":0.2915407317475039}},{"sx":5,"sy":5,"depth":1,"w":{"0":-0.007491718422716969,"1":-0.37130494337419023,"2":-0.522615981866943,"3":-0.2826922094537776,"4":0.41799921587681244,"5":0.3750841584328918,"6":0.1167331568414864,"7":-0.41496024625207883,"8":-0.39551085311604633,"9":-0.24603694140350674,"10":-0.1759524065077146,"11":-0.20382726074548133,"12":0.3910403071122385,"13":0.4561036445356177,"14":-0.34688245249348126,"15":-0.28711273842219204,"16":-0.10673729696713154,"17":0.17892363407520928,"18":-0.08763189475637655,"19":0.09114343819064788,"20":0.25222664841532894,"21":0.043984081237757475,"22":0.19819389626983236,"23":-0.00264187637550879,"24":-0.4825635165741341}},{"sx":5,"sy":5,"depth":1,"w":{"0":0.20627672984002848,"1":0.24386627255129398,"2":0.5370116675975275,"3":0.4356404063385546,"4":0.2931002069068409,"5":0.0014010807055444255,"6":-0.10161105871125416,"7":0.40647938690863183,"8":-0.4464673041206727,"9":-0.22606712876627963,"10":-0.03430237583414163,"11":0.3484725661847348,"12":0.34028997741202927,"13":0.1913387672479103,"14":-0.06809091206043075,"15":-0.07119467885830785,"16":-0.1429669980994614,"17":0.061715046246455386,"18":-0.2925493238849373,"19":-0.01825889074463862,"20":0.30749846471036385,"21":0.13373087409898465,"22":-0.030637380076360958,"23":-0.07423303043879156,"24":0.07825811624864644}},{"sx":5,"sy":5,"depth":1,"w":{"0":0.20367197444094093,"1":-0.2834704023141862,"2":0.0873328594010448,"3":-0.24920634446155945,"4":0.3391554697196482,"5":0.10181393990118282,"6":0.06662528002095777,"7":-0.06758359906472886,"8":-0.21412848359791553,"9":0.27307924385676996,"10":0.22635253877524747,"11":0.05217729595705495,"12":-0.281462582248974,"13":-0.20369856254994156,"14":0.1436160362248677,"15":0.17869601027887,"16":-0.1110166421770616,"17":0.008907303294472327,"18":-0.014711573182451029,"19":-0.12503283690956118,"20":0.47961585265339585,"21":-0.2514900770358256,"22":-0.015276473192010597,"23":-0.37979455935619816,"24":0.10365255857505168}},{"sx":5,"sy":5,"depth":1,"w":{"0":-0.13756310957998016,"1":-0.03699632740899421,"2":0.1533614606084785,"3":-0.10930629452243656,"4":-0.5530021860386243,"5":-0.19821961831994872,"6":-0.1807931935976874,"7":0.2968371237411779,"8":-0.04827066212193605,"9":-0.3121315030466255,"10":0.04064872803534033,"11":0.030928587497102936,"12":0.670925998834617,"13":0.1550050062089075,"14":0.1470479889746153,"15":0.3826472290345388,"16":0.7386104694602902,"17":0.3519042936302202,"18":0.4447596670445569,"19":0.33557789005425703,"20":0.21239767809335544,"21":-0.3935223892189721,"22":0.18622698179052383,"23":0.19240481655282193,"24":-0.5172107816182154}},{"sx":5,"sy":5,"depth":1,"w":{"0":-0.10595905713140255,"1":-0.08841463473971471,"2":-0.11083464612892502,"3":0.04005076132577287,"4":0.13170393638277328,"5":0.18002918981113183,"6":-0.455240573038465,"7":-0.06331648739829074,"8":-0.20981790797953664,"9":0.07551337391373691,"10":0.27394998088815004,"11":-0.26909388662516304,"12":-0.3814626231336789,"13":-0.06832193628041741,"14":0.20606627789578175,"15":0.34872694596140424,"16":0.1306711234407662,"17":-0.15179662705338165,"18":-0.04488848299713635,"19":-0.40737852925614265,"20":0.5640763115439515,"21":0.41323727316811476,"22":0.49146965722609115,"23":0.3298181409807601,"24":0.5997471439747357}}],"biases":{"sx":1,"sy":1,"depth":8,"w":{"0":0.00023176878436252928,"1":0.3607977506125797,"2":0.14931293804380297,"3":0.2592549531484047,"4":-0.00011597685460788319,"5":0.15379625324398644,"6":0.14352305446748742,"7":0.027925264225110047}}},{"out_depth":8,"out_sx":25,"out_sy":25,"layer_type":"relu"},{"sx":2,"sy":2,"stride":2,"in_depth":8,"out_depth":8,"out_sx":12,"out_sy":12,"layer_type":"pool","pad":0},{"sx":5,"sy":5,"stride":1,"in_depth":8,"out_depth":16,"out_sx":12,"out_sy":12,"layer_type":"conv","l1_decay_mul":0,"l2_decay_mul":1,"pad":2,"filters":[{"sx":5,"sy":5,"depth":8,"w":{"0":-0.02834826325891557,"1":0.008112249368479181,"2":-0.2054155957976658,"3":0.07762761892603444,"4":0.12260806241884624,"5":-0.057123661946161204,"6":-0.03668466544077669,"7":-0.08427204172898706,"8":-0.10551199930505645,"9":-0.03991455824037533,"10":-0.018446020642489385,"11":-0.08197054052979055,"12":-0.020342489297096672,"13":-0.04435031875545924,"14":0.16107873146916205,"15":-0.02857793629486866,"16":-0.13821862207790706,"17":-0.06647901303699356,"18":-0.16700491908658818,"19":-0.04931773916850084,"20":0.04753660660197249,"21":-0.011570174920685385,"22":-0.13242128922468077,"23":-0.20884865254834317,"24":-0.0012225139291246448,"25":0.13965588515744304,"26":0.17743860698320296,"27":-0.012151960044025925,"28":0.0184406711117309,"29":0.1552623002612358,"30":-0.024098993526176442,"31":-0.03980169056056004,"32":0.1073538581278811,"33":0.0029050206918719702,"34":0.0515934697887188,"35":-0.21258844072315114,"36":-0.029638596654229417,"37":0.058634269870057806,"38":0.008058886227669922,"39":-0.004681473264433077,"40":-0.12287591857480527,"41":0.07820092497770598,"42":0.11069292382371303,"43":-0.10069324799732171,"44":0.19762942655641644,"45":0.12015464513166142,"46":-0.15130788315198831,"47":0.1047654223724731,"48":-0.18068881088111774,"49":0.08786764276359961,"50":0.010077759060997511,"51":-0.16482267288030858,"52":-0.056202555351245166,"53":-0.039208630156279324,"54":-0.17426028522795678,"55":-0.052930883508692,"56":0.05840395608191148,"57":0.005149160989298018,"58":0.0047991171689165954,"59":-0.011270115492491087,"60":0.0672855347305764,"61":0.07695829940940228,"62":-0.0414353120384701,"63":0.07782348560166175,"64":0.04086945281484086,"65":0.010339914777999363,"66":0.020625256448872722,"67":0.07460757088125083,"68":0.11764667114804439,"69":0.10078923716120786,"70":-0.22417796541999827,"71":0.14907604311237777,"72":0.01581631694422252,"73":-0.02306642834195319,"74":-0.07846239230573121,"75":0.08637343292010563,"76":0.07519665413631389,"77":-0.08925577896691002,"78":-0.050125259048959564,"79":-0.1333960809577907,"80":0.216891032010968,"81":-0.08496864362756824,"82":-0.16765280115869438,"83":0.06610599594216365,"84":0.03824943591944715,"85":-0.015555859994224479,"86":0.06107761836585629,"87":-0.05558984947459132,"88":0.01875889827054149,"89":-0.0479521728354802,"90":0.02099295462262264,"91":-0.07932356759622979,"92":0.016657329800562164,"93":-0.018440173707687454,"94":0.033377642016864675,"95":-0.04432329781035012,"96":0.02946583489222964,"97":-0.09043863819988987,"98":0.006877389049246091,"99":0.032351150415595276,"100":0.2259554078042216,"101":-0.0893484044193886,"102":0.09136797226654772,"103":-0.08942741191876323,"104":0.05667777868984206,"105":0.1283035680603785,"106":0.2521286159318369,"107":-0.004957353879188213,"108":0.08220863082444026,"109":0.15432534588755017,"110":0.1669456330126584,"111":0.037184039603730144,"112":-0.023244915580179822,"113":-0.062423496187771495,"114":-0.03736666823099362,"115":0.007067317284754498,"116":0.08351053500887008,"117":-0.03207848740561711,"118":-0.08145113593686051,"119":-0.11115715994537476,"120":0.030402522384960436,"121":0.07536065544055733,"122":0.12977737433466768,"123":-0.06184234793923479,"124":0.07770412627393522,"125":0.15462832386202158,"126":-0.18636753326354338,"127":0.03472714489269488,"128":0.09915554550103779,"129":-0.01880107902922957,"130":0.14226951591414894,"131":-0.007912619978201446,"132":0.0174592940015952,"133":0.0968915386096705,"134":-0.12946494453159343,"135":-0.05039288274351254,"136":0.10388928840136501,"137":-0.24690250733188285,"138":-0.06641619873397715,"139":0.07462387885693889,"140":0.15985082117776472,"141":-0.10082157664638199,"142":0.09490806038000314,"143":-0.08976845250497974,"144":0.2336982400856404,"145":-0.019405304941590495,"146":0.1228636808822943,"147":-0.0512220021846658,"148":0.026263771968842248,"149":0.1749660339274522,"150":-0.001264783083819021,"151":0.022424127047490645,"152":-0.023184649554629008,"153":-0.0546272288664075,"154":-0.1296960778321596,"155":0.03514662136582521,"156":-0.16228480181487978,"157":-0.07347673348466706,"158":-0.12350269208818264,"159":-0.15438677835502285,"160":-0.03848076590176449,"161":-0.051119760882305756,"162":-0.03879720851394205,"163":0.008157015236037868,"164":-0.021706942951595594,"165":0.12652341674366457,"166":0.13669099890753073,"167":0.05524177016789311,"168":-0.0010147571945175813,"169":0.016428908045359392,"170":0.1139162881169329,"171":0.02646924868412241,"172":-0.05831166436919921,"173":-0.09792429094409917,"174":-0.07458859331870239,"175":-0.09746457421580458,"176":-0.010039280819848012,"177":0.0031645817856587556,"178":0.1194391896424188,"179":-0.1869418703971698,"180":-0.018364370818830182,"181":0.027641604975529793,"182":0.0422728973855306,"183":-0.06007194799199241,"184":0.22368911668741442,"185":0.09899813962030339,"186":0.0834861625050515,"187":-0.08945359629481771,"188":-0.08240085721501061,"189":0.3276714364476537,"190":0.06561656376492588,"191":0.1619406344316141,"192":-0.13420826167630695,"193":-0.06782105600192866,"194":0.05449598694292752,"195":-0.11702687593913992,"196":-0.08234048589507816,"197":0.028505369194780424,"198":-0.1594213985827862,"199":-0.0007540892003622304}},{"sx":5,"sy":5,"depth":8,"w":{"0":0.11513373612382896,"1":0.07644558947332158,"2":-0.03872427404165658,"3":0.026833046968971087,"4":0.11013941589475901,"5":0.07125364887929247,"6":-0.040418053033566555,"7":0.08469638277434925,"8":-0.021499369633774534,"9":-0.1080669216544116,"10":0.019568811590448754,"11":0.02555607617677797,"12":0.11602140958877988,"13":-0.01125896750937998,"14":-0.013396931150022011,"15":-0.03731510159438397,"16":0.027359834920738794,"17":-0.030194266398984496,"18":-0.07346563983735617,"19":-0.1008087885295509,"20":0.011145199996949223,"21":-0.051735903539286913,"22":0.09775442732952389,"23":0.08625168998767237,"24":0.24572382306429386,"25":-0.052182483057786964,"26":-0.05636901730824583,"27":-0.1521120880625631,"28":0.0059482895807208246,"29":0.0668860511243468,"30":-0.1681779488847372,"31":0.14953311217572146,"32":0.04385431120320258,"33":-0.1831042867334976,"34":0.037690805669678626,"35":0.03174133417936018,"36":0.1561142394334297,"37":-0.037441804424125265,"38":-0.02611523856184605,"39":0.033682764727587085,"40":0.018171127571756884,"41":0.0014888673367455208,"42":-0.0810444776012467,"43":0.1125674731809829,"44":-0.015121028759581222,"45":0.00045049173558122616,"46":0.010030968609137254,"47":-0.06374076003887241,"48":0.08387660120431571,"49":-0.14181293871060516,"50":-0.08535307297516559,"51":-0.09373480957580838,"52":-0.032532450778224295,"53":0.0291423461635599,"54":0.026292294927226418,"55":-0.07204501598052893,"56":0.036423706878674855,"57":-0.016133308276517037,"58":-0.07835327277493821,"59":-0.056675252340642024,"60":0.008874720759324451,"61":-0.08513093989707791,"62":0.053583379493871416,"63":-0.056966832190442594,"64":0.2081695689649571,"65":-0.1074593735411956,"66":-0.029120899546040954,"67":0.04131301727401685,"68":0.06773095148156054,"69":0.0054490305073751875,"70":0.04571396240445694,"71":-0.03235171615783921,"72":0.10611194234880812,"73":-0.07588725166810874,"74":0.0386122422928451,"75":-0.1639525335868229,"76":0.04396663482064842,"77":-0.0008443972073069256,"78":0.07716585045844745,"79":0.022458235970964732,"80":0.0815064651988351,"81":0.005655217074899572,"82":-0.15052338607077972,"83":0.04511077198430085,"84":0.03069802680870652,"85":-0.03909594097711012,"86":-0.12980939319004928,"87":0.015387876393277261,"88":0.03062513389350677,"89":-0.10732739899586442,"90":-0.03699321435859895,"91":-0.0694302687030751,"92":0.15759327020009037,"93":0.06762869384040068,"94":-0.19355450143519426,"95":-0.04500978375243301,"96":0.08221679941445355,"97":-0.09558674123244776,"98":-0.1668617945431474,"99":-0.13175122878270726,"100":0.07402162384633423,"101":-0.0393632267367187,"102":-0.27166473439166916,"103":0.016984452080132256,"104":-0.006902003402535236,"105":-0.04528331385231187,"106":0.005749849745814945,"107":0.0195009403575971,"108":0.012740534862952372,"109":0.20577508012092796,"110":-0.29133877747470466,"111":0.2020937880097367,"112":0.07903930360646057,"113":-0.06417908111081908,"114":-0.022559454869617888,"115":-0.05197420282627391,"116":0.3339728488617634,"117":0.0674587540305351,"118":-0.08042122588198744,"119":0.11631830747491738,"120":0.07762419652499447,"121":-0.08809617473120053,"122":0.12274697967137649,"123":-0.012732875693175164,"124":0.036717048297581614,"125":-0.15501349007993512,"126":0.07581870302283233,"127":-0.025215718478340938,"128":-0.00414416818468027,"129":-0.07410229877611633,"130":-0.04576984502606087,"131":-0.11316557542840625,"132":0.010052373252202007,"133":0.14346238018269464,"134":0.019505176633503953,"135":0.10643114682548555,"136":0.05035414928711678,"137":-0.08175308931198658,"138":-0.012311000051145746,"139":-0.13394073040999857,"140":0.05233638122525846,"141":-0.11812075012444942,"142":0.038210406804108414,"143":-0.04895246964550858,"144":0.1462060633876907,"145":-0.029995620851234774,"146":0.15939919054815652,"147":0.09792672743627176,"148":0.01090859032324933,"149":0.01029984451507692,"150":0.01916156547947107,"151":-0.019948944398103442,"152":0.002610399832978587,"153":-0.08484245624583105,"154":0.08460710976070072,"155":-0.07630146717127469,"156":-0.019259939430780013,"157":-0.0847897740022353,"158":0.20373528950266392,"159":-0.05857025301558612,"160":-0.1905956876878036,"161":-0.012832041857185872,"162":0.00970090227485139,"163":-0.09056998233671147,"164":-0.009992654917710552,"165":-0.036948876159181784,"166":-0.06635347102722301,"167":0.03568607667706688,"168":-0.11607562666302194,"169":-0.027980556136890256,"170":-0.056781652506287875,"171":-0.1275603642813739,"172":0.043754905456812425,"173":-0.0347198797861992,"174":-0.13160863397230954,"175":-0.13585275829078036,"176":-0.10234292612054334,"177":-0.15372475674686173,"178":-0.12020139230204452,"179":0.08667471112064229,"180":-0.004658938324337897,"181":0.12972049553905085,"182":-0.1882896794338465,"183":0.01741371867520933,"184":0.09112196510825311,"185":-0.030909179770228102,"186":-0.023647504974730522,"187":0.056718558924657034,"188":0.12143565189745986,"189":-0.15841028944735128,"190":-0.17417775223255272,"191":0.05134085354050147,"192":0.04263869123698925,"193":-0.044323607694148635,"194":-0.08281295284999855,"195":-0.04500829684157405,"196":0.25544623240426245,"197":-0.04002098079674634,"198":-0.012972386561851724,"199":-0.01732297400519042}},{"sx":5,"sy":5,"depth":8,"w":{"0":0.025742142303216514,"1":-0.08247878273872175,"2":-0.02860536057467185,"3":-0.019811882104273797,"4":0.007823584815638138,"5":0.04138197066872933,"6":-0.1452799661306188,"7":0.0977014802614443,"8":-0.10889378506701294,"9":0.010929652542398893,"10":-0.034108086720476403,"11":0.1393621497326191,"12":-0.04143275327855874,"13":-0.14281850993803386,"14":0.01949520472311463,"15":0.021847540521169852,"16":0.02867743568937779,"17":-0.042483582280140667,"18":0.11256036839653177,"19":-0.04004288979040113,"20":0.15831520998191156,"21":-0.15333821179737597,"22":0.13972498327523283,"23":-0.05158947763304154,"24":0.3034264443588296,"25":0.05950596224427838,"26":0.1133704516465459,"27":0.2321824750090794,"28":-0.13459380352509454,"29":0.19069357808890533,"30":0.07277713655061932,"31":0.12124931400638633,"32":-0.09490003208516862,"33":0.1846617657426095,"34":0.150343985142689,"35":0.0713332575953443,"36":0.022292037551963458,"37":0.062149784541519176,"38":0.0643251620604091,"39":0.02941196968639852,"40":0.004199492102219585,"41":-0.01058862587454881,"42":-0.19469701530572092,"43":0.19321443596969173,"44":-0.18384103999823734,"45":-0.047931505647017,"46":0.10152364444321373,"47":-0.00867606350425686,"48":-0.15270017409260572,"49":-0.15003192340780122,"50":0.12280719788864024,"51":-0.031705319600172664,"52":-0.06994165332373188,"53":0.1861168680418812,"54":-0.026003972887901683,"55":0.07597372867549124,"56":-0.03660085545710253,"57":-0.04677373617053056,"58":0.19742565135163198,"59":-0.16792180144357152,"60":0.12556849101213835,"61":0.14286073443538572,"62":0.16511038977538153,"63":-0.0191898716877332,"64":0.27221291826165195,"65":-0.0399028192837813,"66":0.01880229318937267,"67":0.08664886309947664,"68":-0.044553832628238026,"69":0.15564698622114984,"70":-0.03900718307052106,"71":0.018626464906783106,"72":-0.12985646251377547,"73":0.054905685118664,"74":-0.07433637186463064,"75":-0.05341169236193312,"76":-0.014302359941422822,"77":0.013546031379101018,"78":0.011537484164063201,"79":0.03630046045536802,"80":0.043772622724449574,"81":-0.047856202208614786,"82":-0.029894640438745075,"83":0.041024900024371605,"84":0.005002246876642036,"85":-0.014756951654780033,"86":0.17424783763952179,"87":0.024356983741203445,"88":0.11856078412274147,"89":-0.0023200324003068043,"90":0.09421443242995449,"91":-0.12403934702129568,"92":-0.06343723495198102,"93":0.031625177742912555,"94":-0.13840087361887707,"95":0.0710480736097504,"96":0.03247360703176482,"97":0.013828665529338664,"98":0.05421423205690968,"99":0.1286367155615995,"100":0.015321859571679232,"101":-0.0234485737929704,"102":0.012890656364450939,"103":-0.08528549677550919,"104":0.156686859747869,"105":-0.04031469782022365,"106":0.09303609032157749,"107":-0.06925620844955857,"108":0.13148502169443346,"109":0.14668170459387514,"110":-0.0783674191082361,"111":-0.1676859186388208,"112":0.06565975804877361,"113":-0.008935252395039303,"114":0.08095738737695875,"115":-0.05966447483508361,"116":-0.01688241668156463,"117":0.08490174789195265,"118":-0.15160532867945375,"119":0.05376356062409367,"120":0.06024264621462801,"121":-0.058581661583219084,"122":-0.0882699076303427,"123":-0.06692282911115068,"124":0.26041684242374347,"125":0.08406987006463437,"126":0.1547158088516119,"127":-0.0973657259352605,"128":0.18626484788430656,"129":-0.060801345033464675,"130":0.0371842064626898,"131":0.0010159633576040123,"132":0.003833242452651801,"133":0.1824349347012019,"134":-0.09327965244772828,"135":0.0047339705889165844,"136":0.0658926038253302,"137":0.009099510667621045,"138":-0.14953779813938234,"139":-0.025775324133857178,"140":-0.15676752288034396,"141":0.10911779010052605,"142":0.09356474707907333,"143":-0.23500062038941938,"144":0.1311799755430388,"145":-0.1275850675639332,"146":-0.06891057202646987,"147":-0.02943709452529766,"148":-0.19111875187343078,"149":-0.009024195494384926,"150":-0.08843684619357746,"151":0.047048716873447555,"152":-0.08952344006782975,"153":-0.08741028702936506,"154":0.05068505413552155,"155":-0.027181748644835742,"156":-0.1562091415696108,"157":-0.14641353325458376,"158":-0.0883804096157197,"159":0.0472157340476128,"160":-0.06623460537424199,"161":-0.020002880248038195,"162":-0.018111444649647004,"163":-0.16023826641349878,"164":0.11973753834816635,"165":0.08500699478784189,"166":-0.0007099388472514793,"167":0.00018837426644977595,"168":0.08940485733069826,"169":-0.07380689811279756,"170":0.037792989875799314,"171":-0.0013809701877811594,"172":0.06015580208661155,"173":0.023087317478830114,"174":0.02784137206310158,"175":-0.06934935574595498,"176":-0.10200526142312619,"177":-0.045710160424114445,"178":0.015616369629620928,"179":-0.15635660197538692,"180":-0.029281852773829938,"181":-0.03567039456620965,"182":-0.010868141763386666,"183":0.014688780131769885,"184":0.05753771690140078,"185":-0.02161564402218323,"186":-0.05621848030309176,"187":-0.033682144988339796,"188":-0.04964511708156153,"189":0.03432790894898234,"190":-0.013768670222093613,"191":0.05687424232658631,"192":-0.18356342864470784,"193":-0.058569503837368656,"194":0.041465988112001674,"195":-0.09252828825951478,"196":0.0005839682142363934,"197":-0.0671191314309085,"198":0.021746195898020185,"199":0.0196130117818016}},{"sx":5,"sy":5,"depth":8,"w":{"0":-0.1564725491239672,"1":0.23070326155519114,"2":0.2682110128195642,"3":0.23075629915518592,"4":0.02122022424240499,"5":0.1462319202228479,"6":0.005660175099290522,"7":0.12093125373267267,"8":-0.036945472350752635,"9":0.32335935425318374,"10":-0.0181878482126755,"11":0.018298494374585132,"12":0.05867454807106124,"13":0.030341419133886497,"14":-0.03772040102831336,"15":-0.062058525427714874,"16":0.010009031608111217,"17":0.1362150448163251,"18":-0.022377954395306612,"19":0.07838170897686488,"20":-0.036590015789424404,"21":0.001385122676067087,"22":-0.05752050444187607,"23":-0.013102511892818818,"24":-0.08727915033577059,"25":-0.09145928073447052,"26":0.015573218272067639,"27":0.12771027969767992,"28":0.1127185540093148,"29":-0.00991122741478064,"30":-0.0883951048159984,"31":-0.11888292733529918,"32":-0.06497193790690105,"33":0.18439158186214677,"34":-0.00031076997730559666,"35":0.07516338059037736,"36":0.09865406556813226,"37":-0.017083965022224628,"38":0.017183886934626684,"39":-0.031015416445255163,"40":0.0022965113911876758,"41":0.1502354891554132,"42":0.18198091076651415,"43":0.10629801074710259,"44":-0.011729079207947064,"45":-0.14188906691048822,"46":0.06807084095985567,"47":0.015155555928566516,"48":-0.12775775350295046,"49":0.11105082885150017,"50":0.04205285550926763,"51":0.05625503256103697,"52":-0.13791392066570982,"53":0.0065037123182555496,"54":0.005416943551960211,"55":-0.0875304096937654,"56":-0.1825556285433992,"57":-0.019478258016611197,"58":0.04303750595762039,"59":0.046515570509038394,"60":-0.09488175111761178,"61":0.03247655685026078,"62":-0.008362500015527529,"63":-0.004236823395878803,"64":-0.09222137107721355,"65":0.16951128562827697,"66":0.07179615776441635,"67":-0.004540861867519484,"68":-0.22586076168186414,"69":0.13872478984929207,"70":-0.059638741055951947,"71":-0.09375754050652003,"72":-0.1478648176780608,"73":0.10268470947063685,"74":0.03539371077545594,"75":0.015263229743875048,"76":-0.17647364452415026,"77":-0.009867929298094253,"78":0.00675884252387603,"79":0.0185672800028549,"80":0.07269915143647407,"81":0.2054416812368372,"82":-0.12680861197615464,"83":-0.028157363542548722,"84":-0.10752223331087896,"85":0.17429961536617133,"86":0.04686420037814389,"87":-0.025251879154927156,"88":-0.1751834741999299,"89":0.09683356270575956,"90":0.02759483105361297,"91":0.03362027778310842,"92":-0.12404958920044044,"93":-0.03195018293212695,"94":0.07612580462341499,"95":0.003503046885583369,"96":-0.1359376424037597,"97":0.14313751531257696,"98":0.09727596349712203,"99":0.11087169878395342,"100":-0.04664908182439565,"101":0.18296790288772882,"102":0.13116597569101582,"103":-0.10064744487908954,"104":-0.0981678149005005,"105":0.12216059350412195,"106":0.12151646573414876,"107":0.14835439964293265,"108":-0.019661839840081345,"109":0.09214536159464078,"110":0.045257632543251144,"111":0.031490616975607955,"112":-0.10386323929722623,"113":0.14244474694717965,"114":0.12078908901009307,"115":-0.04381956892311533,"116":-0.10940393508584748,"117":0.01989418448230725,"118":0.004755256772227317,"119":-0.0658195389041366,"120":-0.18504140935696833,"121":0.1156702034589165,"122":0.0025451840787498203,"123":0.002945863134006906,"124":-0.05608752536561212,"125":0.15369863119534743,"126":-0.07348047852881733,"127":-0.21358199430988276,"128":-0.1374775427408066,"129":0.17098420342206153,"130":-0.08650087837585081,"131":0.05816720455402222,"132":-0.09026576939819218,"133":-0.009157406227109356,"134":0.019765447164202164,"135":-0.029405487311955976,"136":-0.007084766333285338,"137":0.04759515070960466,"138":-0.0010122235239643578,"139":0.07068438538311678,"140":-0.12226314956389966,"141":0.016310294704824646,"142":0.20357739829477398,"143":-0.09475664125289157,"144":0.026231866422080696,"145":0.2967521336534952,"146":0.03996497777036854,"147":0.0694200054199449,"148":-0.06535994698027722,"149":-0.019626826840840453,"150":0.055933757690205546,"151":-0.01425920195015508,"152":-0.10899873033293159,"153":0.02879742437954426,"154":-0.047996004771960886,"155":-0.11324541875138712,"156":0.01107844853600733,"157":0.03525892252008106,"158":0.0131634548872956,"159":-0.02226213654747633,"160":-0.15934842663359108,"161":0.07133960028591572,"162":0.07798392705843411,"163":0.16467339288936392,"164":-0.01606974225621204,"165":0.0949070263728999,"166":0.022695776149634885,"167":0.1304687430076282,"168":0.059915090485697035,"169":0.16934155668651418,"170":-0.07165112623599684,"171":-0.03960117470267829,"172":0.05572592761315146,"173":0.06430249539742368,"174":0.053423129010805995,"175":0.04434121178578355,"176":-0.05362878015396871,"177":0.06635963107151434,"178":-0.10171292971116079,"179":-0.013743202796256612,"180":-0.08134787843171193,"181":-0.02605116644623971,"182":0.05534942528972131,"183":0.07751318648754908,"184":0.04288335431604306,"185":0.03618059278874797,"186":-0.10060255499546311,"187":0.009121706845770978,"188":-0.13462175310799235,"189":0.15690571862276884,"190":0.08695595798216463,"191":0.12381582080489163,"192":0.0422986631844002,"193":0.14404221514396087,"194":-0.05423177325473547,"195":0.028844048344874664,"196":-0.056207212243643605,"197":0.12438689749865559,"198":0.018020192953607767,"199":0.015380366737921347}},{"sx":5,"sy":5,"depth":8,"w":{"0":-0.041105573871248594,"1":0.06483697830408214,"2":0.07998701644232097,"3":-0.029514546706044642,"4":-0.07697356411411152,"5":0.15925886585438204,"6":-0.14195655558594272,"7":0.04220827587861483,"8":-0.014344531875875312,"9":0.0778352731573502,"10":-0.0016205395712792924,"11":0.06971543434776706,"12":-0.1533158540078452,"13":0.056500914871133796,"14":-0.10567116509318962,"15":-0.00703707563276854,"16":-0.007645310788217687,"17":0.04910256335996088,"18":0.099524691403325,"19":0.049893095346986195,"20":0.09443658771428608,"21":0.003099583723746112,"22":0.025425664081962306,"23":-0.10444921733099367,"24":0.23294292001906805,"25":-0.0018148137272184263,"26":0.06973694977977161,"27":0.015564289256781156,"28":0.015596830682047971,"29":0.1757491373510283,"30":-0.02728496114351266,"31":0.07181525809333815,"32":-0.014058384365461344,"33":-0.1019455069715918,"34":-0.04101158443067157,"35":-0.0053449635365821774,"36":-0.00570474130230191,"37":0.05608964674304418,"38":0.17953877032596285,"39":0.054164986413769316,"40":-0.06916164785700649,"41":-0.010873243477554789,"42":0.042614386061123555,"43":-0.00825747044399075,"44":-0.08970542576823623,"45":-0.028093298695972563,"46":-0.1493794403348471,"47":-0.015596009582131871,"48":-0.06049405302123492,"49":0.054283971624390054,"50":0.08949954984959566,"51":0.00837918817705599,"52":-0.2617409138969745,"53":0.07553368840072675,"54":-0.10149157363344592,"55":0.13742587527581168,"56":-0.07580681964293493,"57":0.06178796384824278,"58":0.03577180487243536,"59":-0.08413889046401807,"60":0.14234080686323236,"61":-0.18400998704140803,"62":0.030410957427266586,"63":-0.08188683478972864,"64":0.2620565397885672,"65":0.15672376146755126,"66":-0.10168769912316006,"67":0.21916553663860158,"68":-0.12055037698985764,"69":0.22628030019709322,"70":-0.051833637139871394,"71":0.08918286076140139,"72":0.08758222182781522,"73":0.05914394517639919,"74":0.07084230252711199,"75":0.11375432813106477,"76":0.0365264327332758,"77":0.12895167492268042,"78":0.2200237998110784,"79":-0.03123994197799032,"80":-0.09868380175857805,"81":0.14323651156676223,"82":-0.12876598395939767,"83":0.001608751890359536,"84":0.02202078818988457,"85":0.011880952140243014,"86":-0.1964688969763807,"87":0.04991674333562333,"88":0.12131928385570118,"89":0.002507697304149432,"90":0.1843358344170197,"91":0.11201920436339108,"92":-0.14549849687990205,"93":0.17083156896390234,"94":-0.15264469401006228,"95":0.058132811124106565,"96":0.10353968806090319,"97":-0.07254553578019132,"98":0.01816767186251402,"99":-0.02903528814918819,"100":-0.05738464162271649,"101":-0.046034614245535586,"102":0.017529717620535967,"103":0.002046614942328745,"104":0.24389672171705531,"105":0.09693031357843551,"106":0.01603554118171551,"107":-0.020862720782223967,"108":0.04243958691647818,"109":0.1265215304130809,"110":-0.014040823210739071,"111":0.10643822453903107,"112":-0.035163834423886105,"113":0.12545470726338154,"114":-0.013670753973726626,"115":0.09415361169703497,"116":-0.0484404603371892,"117":0.09653738038633797,"118":-0.12244410635430066,"119":0.03067960074089672,"120":0.03240329618730592,"121":0.12173998892838123,"122":-0.17588170284093685,"123":0.1325259986564194,"124":-0.09463975040380058,"125":0.012073477603538564,"126":-0.05921794970152601,"127":-0.033659430143260845,"128":0.17808841840158182,"129":0.0472436352984976,"130":0.03821034102274866,"131":0.07437479295124574,"132":-0.05118336795729744,"133":0.10772686081876823,"134":-0.08326196256978513,"135":-0.0034769418808498587,"136":0.03285493613064029,"137":0.011534495814670068,"138":0.05610906012937935,"139":-0.22416735217373515,"140":0.031300742566705786,"141":-0.007661429332896774,"142":-0.07414988992166983,"143":-0.09517112374106575,"144":0.23924556073686973,"145":-0.00015990413453161113,"146":-0.006233565420153038,"147":0.13707587942295443,"148":0.015988159981900944,"149":0.1331278295612144,"150":-0.08919070031789113,"151":-0.05380609538520936,"152":0.12950962465773191,"153":0.05161445420894482,"154":0.136478615222417,"155":-0.15158816562413713,"156":-0.11572906857380483,"157":0.027123275879267935,"158":0.06983632310327909,"159":0.09339553950616111,"160":-0.09391782627907516,"161":0.06383931880064478,"162":-0.04419397267587954,"163":0.014033522235673095,"164":0.02886857091918657,"165":-0.020117968217055325,"166":0.007069364609212663,"167":0.03813587724035403,"168":0.08770922160143933,"169":0.2466974505668709,"170":0.09914601541285496,"171":0.0344430473079579,"172":-0.11491512036058811,"173":0.12967416379200505,"174":-0.19640823485703704,"175":0.16893446928947475,"176":-0.03821563145778208,"177":0.1391294355777924,"178":0.1863874249114719,"179":-0.0023346435161921463,"180":-0.0005515784390301396,"181":-0.0660650678327931,"182":0.00934821352654982,"183":-0.11665149320827353,"184":0.16714559104356738,"185":0.08217146979503621,"186":-0.03334854760199301,"187":0.19819616043132648,"188":0.010059046816442381,"189":-0.06616518445631023,"190":0.046070438307520174,"191":-0.20044407816776713,"192":0.21737344581629642,"193":0.015267865930636325,"194":0.20001240895705336,"195":0.24488783518963406,"196":-0.031096721346405152,"197":0.07230730611235264,"198":0.026803551220480174,"199":0.13365517157499418}},{"sx":5,"sy":5,"depth":8,"w":{"0":0.04539947111629088,"1":0.14442304053003915,"2":-0.05028931385353702,"3":0.010284343260329332,"4":-0.03612919278783232,"5":0.12616960008266853,"6":0.12418165533061742,"7":0.07177499974022106,"8":-0.0479331469992974,"9":-0.023411567717995022,"10":0.031194823800036003,"11":0.01656622866740658,"12":0.0756412889524469,"13":0.019730174512129207,"14":0.06996083684589662,"15":0.016710053258837388,"16":-0.03078547896833179,"17":0.0698799466443899,"18":-0.03324395391219481,"19":0.09389055729393331,"20":0.025123448483386605,"21":-0.03980716116190442,"22":-0.06948863460010733,"23":0.17338651566626698,"24":-0.024032899093471047,"25":0.09204216001443978,"26":0.028378339869376722,"27":-0.0003927579566074109,"28":-0.08951313937518164,"29":0.053345308148109456,"30":0.10784150035091514,"31":0.185589449656711,"32":0.07237072512099559,"33":0.006514846286647558,"34":0.0149593066045787,"35":0.09462449906419278,"36":0.004959883609529101,"37":-0.002139499988462295,"38":0.01120738682509371,"39":0.16209626497977042,"40":0.06777004786812277,"41":-0.01944259015734984,"42":-0.010222506670423657,"43":0.06460102365443658,"44":-0.08061472330426189,"45":0.027361058050750654,"46":-0.1425755727801427,"47":-0.08963902072802114,"48":0.0255968142959214,"49":0.1022750412302209,"50":0.01511178224978833,"51":0.09083177222720552,"52":-0.05480304668789992,"53":-0.0426176080565702,"54":0.04681473405369149,"55":-0.0871572729181017,"56":-0.1374014842540304,"57":0.17637648722677354,"58":0.04667816859252259,"59":0.018737211467044674,"60":-0.06917936546237648,"61":0.043406099680377966,"62":-0.09621195563917195,"63":0.05270512279142193,"64":0.08250942147682033,"65":0.09961090073006507,"66":0.003771467944004079,"67":0.1337340940438282,"68":-0.09738486194685468,"69":-0.03620589734743311,"70":0.021407085457223037,"71":0.058854672245934825,"72":0.05111817118080651,"73":0.0315332967549728,"74":-0.029415808372644806,"75":-0.045933204080111284,"76":0.12707207414488994,"77":0.04444989688154294,"78":0.05139818582201723,"79":-0.07988760007692988,"80":-0.0903113385284518,"81":-0.012938327140046547,"82":-0.03765604864227114,"83":0.09946799431781839,"84":-0.18660230689024113,"85":0.019793403610590975,"86":-0.11058194028919742,"87":-0.12877635087742254,"88":-0.0604330904303911,"89":0.0060439467063762645,"90":-0.004393473817857318,"91":-0.05192188813436773,"92":-0.02988980177711304,"93":-0.19874084310908885,"94":-0.1188878986864112,"95":-0.15099334463861636,"96":-0.1863491525900875,"97":0.001263937025629769,"98":-0.015462389109267559,"99":-0.09638388277308108,"100":-0.09036683011320933,"101":-0.033806901630568056,"102":-0.06444732768519221,"103":-0.2025302247376529,"104":-0.08218852482236798,"105":-0.046602161817700945,"106":0.10534213799652159,"107":0.008997593080402808,"108":0.10021082632527524,"109":0.001697640679847172,"110":-0.10372666472493715,"111":-0.06296848330257604,"112":0.04053137589308886,"113":-0.06998454353094996,"114":-0.11027648798937618,"115":0.028148333613601976,"116":-0.10959473578181282,"117":-0.030665369297989856,"118":-0.00897131693794618,"119":-0.11485921911826759,"120":-0.09551712570688828,"121":0.011612706849289606,"122":-0.0637591057350535,"123":-0.14743486904051645,"124":0.08287493548582141,"125":-0.002377283315590125,"126":-0.0823929633614904,"127":-0.05154052614039604,"128":-0.05837880560142701,"129":0.057365139357487764,"130":-0.12309137854037792,"131":0.05403799624290732,"132":-0.06832711009815763,"133":-0.008340354592715876,"134":-0.08714609359913701,"135":0.14605887664408845,"136":-0.11377123768815056,"137":-0.005457885220280829,"138":-0.07227680266774578,"139":0.10523702246771838,"140":-0.04096569716569333,"141":0.0031794084237844102,"142":-0.06432236816511348,"143":-0.025547184651159224,"144":-0.0976232715191983,"145":-0.032569264047043855,"146":-0.023906537567218236,"147":-0.06961607710050392,"148":-0.08621603097341547,"149":-0.023480660979746187,"150":-0.06374147682595231,"151":-0.00830944946482288,"152":-0.1591629176946491,"153":0.20016614143890407,"154":0.06045748802769032,"155":0.03243412966047389,"156":0.03948985391949484,"157":-0.042349834774260596,"158":-0.041716202401218705,"159":-0.08933315693823866,"160":0.08473354702964686,"161":0.05744423427658699,"162":0.06786337742668942,"163":-0.015169331332837264,"164":0.002571813713697735,"165":-0.062434122193345376,"166":0.15507009082238782,"167":0.18245584958820932,"168":-0.06514933856543652,"169":-0.04633712680269111,"170":-0.11616349779455583,"171":0.03222261425010407,"172":0.015343375447554645,"173":-0.13496240133140117,"174":0.09600058608222538,"175":0.32486910837562544,"176":0.04108387556484399,"177":-0.09762078107779466,"178":0.003471270529612846,"179":-0.02142545077645951,"180":-0.038047821324095586,"181":-0.06172202685719493,"182":0.10527012054899262,"183":0.22515260465991505,"184":0.03739310500206088,"185":-0.02465333998668412,"186":-0.009156017139855754,"187":0.10152370774447571,"188":0.03068005778679312,"189":-0.01829920811480681,"190":0.11780310548161019,"191":0.15692350196341284,"192":-0.050091184835976514,"193":-0.01886328745344247,"194":0.09753216971772997,"195":0.02320525074758104,"196":0.05481093968988262,"197":0.11694273168774193,"198":0.04832186641301319,"199":0.29833955722704064}},{"sx":5,"sy":5,"depth":8,"w":{"0":0.002757888948461239,"1":0.10568044815604151,"2":0.07266704314292724,"3":-0.10992213224887984,"4":-0.014323355946956814,"5":-0.0662229120497725,"6":0.17991894072063264,"7":0.22809391621927794,"8":-0.04406069610695219,"9":-0.06320267050388068,"10":-0.07854229467686318,"11":0.0732545667976449,"12":-0.030600705159741143,"13":0.04702001436332303,"14":0.06242049632923706,"15":0.06393995005441712,"16":-0.052988407102555896,"17":0.21623629098981922,"18":-0.010628942159899894,"19":-0.03098318936177699,"20":0.006116696607699276,"21":0.0817139395706522,"22":0.05065746451707735,"23":-0.027050270520332157,"24":-0.015194206198050814,"25":0.08397354926462135,"26":-0.05760736934896455,"27":-0.01690778855573322,"28":-0.08585032788449061,"29":-0.06541505206593913,"30":-0.04748278971238558,"31":-0.0313179834557736,"32":-0.036065830547633834,"33":0.06098442267028978,"34":-0.12114228800967435,"35":-0.0008827918570122335,"36":0.05984948384602671,"37":-0.18422226706462577,"38":-0.021196726744427467,"39":-0.13666006362851882,"40":0.02503883575026892,"41":0.07258265967375381,"42":0.07535468714822394,"43":0.146333731266738,"44":-0.04005203200102267,"45":-0.042948012254540195,"46":-0.03699732386667636,"47":-0.09200464571919333,"48":0.025548066050908765,"49":-0.024508444477976093,"50":0.10064147552720269,"51":0.20179417848422185,"52":-0.11590529645627362,"53":-0.04654958198150491,"54":-0.025555468567462727,"55":-0.0377139244744157,"56":-0.011003742221962579,"57":0.058621987665969454,"58":-0.08372720960973082,"59":0.12672597337280686,"60":0.0562703098003702,"61":0.06459991413191388,"62":0.015345367828899146,"63":0.09456513087073962,"64":-0.036673136967980614,"65":0.013568144116488294,"66":0.002956692827577141,"67":-0.021394517227212893,"68":-0.00438964292344516,"69":0.004519041587345994,"70":-0.04577954658216398,"71":-0.042225066189059274,"72":-0.10741472173856596,"73":0.05137911876163536,"74":0.12386951884206465,"75":-0.0668789329283897,"76":-0.02706008890831228,"77":0.0592826783729537,"78":0.08365460838424062,"79":0.04426911524751652,"80":-0.022319363242237503,"81":-0.039751228326233616,"82":0.10940535853236147,"83":0.037716199503216516,"84":0.020077020624563006,"85":0.1349889526931248,"86":-0.0207769283674575,"87":-0.10127252066333438,"88":0.06649645238973487,"89":0.18372368881264667,"90":-0.004348308558819173,"91":0.044577017948410375,"92":0.13494454180788776,"93":0.04926537230840708,"94":0.0513500987415039,"95":0.03791966791928828,"96":0.06454414674450751,"97":0.09754251527604813,"98":-0.028789721109771772,"99":0.12144977963555874,"100":-0.01996503963442993,"101":0.10680887263213365,"102":0.07350006430280728,"103":-0.01805476944666846,"104":-0.07852945850379757,"105":0.004392229630357727,"106":0.04665091445100527,"107":0.04840260367777255,"108":-0.2527043329195974,"109":0.08228147662624848,"110":-0.020092992958698295,"111":0.0038262329310592455,"112":-0.1859891755679463,"113":0.16315942018763355,"114":-0.022328698160242237,"115":0.0293885727182735,"116":0.020137247442884615,"117":0.17180107161270713,"118":-0.014728099818915373,"119":-0.04683378547300321,"120":-0.059344524656457405,"121":-0.006213000668684923,"122":0.07925504888537777,"123":0.0308373518281146,"124":-0.0017223149762553424,"125":-0.007939560577631514,"126":0.07494966278136245,"127":-0.07324361616486771,"128":-0.01749515355901835,"129":0.0726097045218527,"130":-0.09826095885375152,"131":0.16919321957074818,"132":0.14188600567552073,"133":-0.05195715554739746,"134":0.0713315193905615,"135":-0.0407632732534852,"136":0.14711547484738863,"137":0.053214950853103224,"138":0.15337228120749835,"139":-0.021743525478376692,"140":-0.06561897931055401,"141":0.10004125564312084,"142":-0.0762321461712972,"143":0.06827777957243099,"144":0.00037180740621169583,"145":-0.11309917178436842,"146":-0.0034474310586285048,"147":-0.15325430830240033,"148":-0.08612145265968438,"149":-0.0015978185274989978,"150":0.017132040242250304,"151":-0.030776139815480694,"152":-0.1314315042379785,"153":0.07074761030986347,"154":0.043102585974527916,"155":0.047850702700960784,"156":-0.18866960902810195,"157":0.04875537417264759,"158":0.020271804068291335,"159":-0.08946170502915649,"160":0.10662471755166093,"161":0.011136515768580687,"162":0.09444642640495192,"163":0.14524344157577554,"164":0.036120252495579167,"165":0.11826202373431079,"166":-0.027291274006769287,"167":0.11921308491136774,"168":-0.05605161889810631,"169":-0.10407891725181354,"170":-0.004859311307418859,"171":0.005045237779869862,"172":0.0404451008993014,"173":-0.13391067935827067,"174":0.02282631939565577,"175":-0.1215734733468583,"176":0.20106505722810186,"177":0.05308984884350309,"178":-0.07838326784405812,"179":-0.05961994442684747,"180":-0.07821110854532527,"181":0.1553709583862287,"182":0.014942207554066002,"183":0.1068196863364593,"184":-0.21955343180116307,"185":0.11045131621089431,"186":0.05950332076327244,"187":0.07223314985751968,"188":-0.05975557179375271,"189":-0.136847385029112,"190":-0.005502215286254764,"191":0.01964993478111888,"192":-0.01199410817205409,"193":0.06136048040311969,"194":0.03557275076276031,"195":0.10423895417322525,"196":-0.052122305716041276,"197":0.1224430042209114,"198":-0.054366593510491744,"199":-0.05565427452123755}},{"sx":5,"sy":5,"depth":8,"w":{"0":0.13566668871770668,"1":0.038485640956469044,"2":0.0977102669438599,"3":-0.01855456856154097,"4":0.016455053120287312,"5":0.23148481427563775,"6":-0.061720713899364725,"7":0.23090837754760693,"8":-0.023000688589101197,"9":0.16846570505568612,"10":0.16935782706316493,"11":-0.024218009958009015,"12":-0.16642970122682677,"13":0.15947873983079544,"14":-0.10154764349192943,"15":-0.015917762137885264,"16":-0.01163613085371656,"17":0.039221263955091706,"18":0.054111888663758254,"19":-0.009620866459295292,"20":-0.15232895680291456,"21":-0.0799731107962502,"22":0.07070256762696864,"23":-0.031064718608345535,"24":0.10236667297656486,"25":0.01570425035170791,"26":-0.03304031588145649,"27":-0.048115559216524946,"28":-0.023218899974414925,"29":0.1619195381507437,"30":-0.0671682905837835,"31":0.0766170820294598,"32":-0.08975711917743803,"33":0.07423679510082941,"34":0.0452766036736662,"35":-0.023449911658795126,"36":0.05181871819318893,"37":0.09912010315236773,"38":0.027801984413991985,"39":0.020768091466146124,"40":0.07736866241788691,"41":0.0749943150792516,"42":-0.06272087383369379,"43":-0.04179938658688064,"44":-0.14286816697446464,"45":0.04653629403239975,"46":-0.03480589964414947,"47":0.08098693885901262,"48":0.08394275060301379,"49":0.17988729257638322,"50":0.01999440769446596,"51":0.12609559121044323,"52":0.004191350419963612,"53":-0.02161627256367813,"54":-0.011521023043396134,"55":0.17161161565806804,"56":-0.08700405280907363,"57":0.006213998971077734,"58":-0.01632261924188442,"59":-0.10513210658525587,"60":0.07944841069110778,"61":0.0833284240980406,"62":0.006755624518516597,"63":0.10047270193138229,"64":0.021788574860620757,"65":-0.10176563988253468,"66":0.14909012586254175,"67":0.04192393733114143,"68":0.1390489232976949,"69":0.04544611509787478,"70":-0.17215908868662128,"71":-0.037424641471351924,"72":-0.02275336298781526,"73":0.10203022055701101,"74":0.12530812341885192,"75":0.10236217792844647,"76":-0.07021098282135464,"77":0.07759781733892852,"78":0.022660269555840513,"79":-0.16119503968010124,"80":0.15585331738115007,"81":-0.023670100316730624,"82":0.029750396975850284,"83":-0.010984795279900254,"84":0.0009295658187741503,"85":0.18052452819131512,"86":-0.12887970923441652,"87":-0.042010639974941054,"88":-0.014771302556370332,"89":-0.10129077552043471,"90":-0.014147438087778522,"91":0.07212063599447854,"92":-0.06757981872581298,"93":-0.06294162033533504,"94":-0.0866117527377,"95":-0.019595733228324166,"96":0.12764918941795522,"97":-0.032209095296577735,"98":-0.01528257723670828,"99":0.06853863478050572,"100":-0.06901197370682854,"101":-0.029882251413979193,"102":-0.002648090591218977,"103":-0.04868582363154242,"104":-0.10406457528681866,"105":0.1342109680514678,"106":0.12364831021571654,"107":0.055078473099453136,"108":-0.08168196210232447,"109":0.15406590630291517,"110":0.06635582806759685,"111":-0.038025829521114794,"112":0.019173700540102662,"113":0.01680598378713844,"114":0.06151280371715454,"115":-0.1235358096193153,"116":-0.0027670237358460295,"117":-0.049466716339527844,"118":0.1862648221010068,"119":0.048633897128098985,"120":0.021685415988195657,"121":0.016102920879468244,"122":-0.010150024994699913,"123":-0.07986253466344449,"124":-0.05166643514746371,"125":0.14823890108143228,"126":-0.10755897730790517,"127":-0.15179286639218684,"128":-0.03832784303702712,"129":-0.028871972001669636,"130":0.05679045280049095,"131":-0.18112039322712017,"132":-0.0050184664557257515,"133":0.0202666201353061,"134":-0.003447577751340286,"135":0.06867406990732594,"136":-0.07895693745004255,"137":-0.027081378066448492,"138":0.04683003552995113,"139":0.058330827861242225,"140":-0.05245658326263119,"141":0.004180217247692128,"142":0.002114125014070778,"143":-0.05630301637439855,"144":0.19659030347438453,"145":0.13477691855730506,"146":0.07387776399134409,"147":0.14115802897545635,"148":-0.06354160834413562,"149":0.06170905967267748,"150":-0.055062932636533925,"151":0.011312954959988476,"152":0.01712358044968445,"153":0.0023320929657377476,"154":0.054155348793450554,"155":0.14125239234817424,"156":0.029429111045627003,"157":-0.09372185327890085,"158":0.1841187672267916,"159":-0.01666514472025474,"160":-0.024667052139686833,"161":0.0045318327764365795,"162":-0.0068999199257469505,"163":0.01962136488560172,"164":0.010534857610954023,"165":0.06009541991603727,"166":-0.0019182419694350698,"167":0.07227910877545973,"168":-0.04863775262433039,"169":-0.02046288067164712,"170":0.026022993355287096,"171":-0.0991435305349938,"172":-0.2104521444544835,"173":0.008391889207320992,"174":-0.05429160554850073,"175":-0.010200369445216148,"176":0.017457380177656998,"177":-0.04977504504981529,"178":0.025269690688688416,"179":0.07038716317622001,"180":0.08904012914984251,"181":-0.013029448319192909,"182":-0.01425129758594951,"183":-0.09772518612036833,"184":0.12631081072370107,"185":0.14295938299374583,"186":0.0030909418640713317,"187":0.05426836033813939,"188":-0.04950796077738095,"189":0.09733878077945408,"190":-0.06045578258846697,"191":0.13348061507474876,"192":-0.06326114942251272,"193":-0.18989748997838804,"194":0.07812551662184712,"195":-0.13324546982496757,"196":0.11533902088956026,"197":-0.057682722583463006,"198":0.0011491676601642993,"199":0.011258980340177298}},{"sx":5,"sy":5,"depth":8,"w":{"0":-0.11401668243079284,"1":-0.17361143753798966,"2":-0.11722593818518019,"3":-0.018886038053015797,"4":-0.004249248148078649,"5":-0.04382785066696639,"6":0.07471443826429512,"7":0.08282181201773527,"8":-0.06558912643951671,"9":-0.08437877555318457,"10":0.08612603142197119,"11":-0.18476837269747065,"12":-0.031793126449665664,"13":0.04349648710196467,"14":0.10724243570790677,"15":0.005491554929694229,"16":-0.23667296452670974,"17":-0.02673147975276524,"18":-0.13847379225623035,"19":0.053760172818586395,"20":-0.09007786043603162,"21":-0.13420180678939073,"22":-0.010977718512763447,"23":0.04075957480620251,"24":-0.06411582199576413,"25":-0.11228207219718217,"26":-0.0953944121620386,"27":-0.12384394620271735,"28":-0.08942162401434627,"29":0.004499106785452563,"30":0.05057389247614808,"31":-0.03385889193562907,"32":0.08580272274931594,"33":0.0038281853968776484,"34":-0.01155411971781242,"35":0.020256196013952295,"36":-0.07424183979828819,"37":-0.04852493028619505,"38":0.06098740907786532,"39":0.07959231376845047,"40":-0.13638120759394973,"41":-0.0829881746050755,"42":-0.06397859068282548,"43":-0.1672788904143769,"44":0.12693122238831062,"45":-0.23138730641546498,"46":0.16867628322011669,"47":0.16732301308806183,"48":-0.019465944627281722,"49":-0.011272333206694815,"50":0.04761173727925972,"51":-0.16342453902183496,"52":0.08951026729181613,"53":0.013635392958055912,"54":0.19081539684169155,"55":0.024013816609226024,"56":0.12094604811214699,"57":-0.10453013905925786,"58":-0.01824681060854593,"59":0.029151632574674617,"60":0.09039508765459733,"61":-0.20598671169282978,"62":0.14233628231304674,"63":-0.03364220483301393,"64":0.11332661079541055,"65":-0.05583936930404484,"66":0.026478965845787978,"67":-0.11353139972110976,"68":-0.042253563263392094,"69":-0.12917006804304268,"70":0.18574974769444877,"71":0.20786996090485854,"72":-0.011269956513802807,"73":0.02288405131416013,"74":-0.14065074255701598,"75":0.0632067899146969,"76":0.10372273326226504,"77":-0.16116225308978394,"78":0.2017760361287914,"79":0.052610905237468246,"80":0.102909590920331,"81":-0.02881269141959169,"82":0.03174276301817407,"83":-0.0310991476527422,"84":0.16993373185913171,"85":-0.06451982272367844,"86":-0.000817252177182853,"87":-0.1884375028574943,"88":0.09704860410429102,"89":-0.23197549486425295,"90":0.06546296723293267,"91":-0.010313642934682572,"92":0.16734597205170318,"93":-0.050490194517951316,"94":0.07637467365963443,"95":-0.08612030267374501,"96":0.02781294436025308,"97":-0.15925524827721646,"98":-0.03285608503317586,"99":-0.014127735421206862,"100":0.14895582159114237,"101":0.037375359498860346,"102":-0.01542385407717832,"103":-0.15503726332221043,"104":0.09171917556849915,"105":-0.1116310047465584,"106":0.03999699808373547,"107":-0.05662796010759886,"108":0.2477758495516207,"109":0.07176354737469315,"110":0.07074094648140089,"111":-0.08538959026598249,"112":0.06890853467450982,"113":0.103109533164974,"114":0.0786220916986862,"115":0.08954827873912995,"116":0.12821108784659252,"117":0.016519824180564566,"118":0.1695661808587564,"119":-0.05180545332928399,"120":-0.009932769415941248,"121":0.010044534518166354,"122":-0.0666728546775283,"123":-0.007127485258056231,"124":-0.05746126667530846,"125":-0.12407882370487164,"126":0.05438088976679736,"127":-0.17028495450322836,"128":0.007730540616308054,"129":-0.10025750527689321,"130":-0.08678239776908118,"131":-0.14971605025792623,"132":0.0662477756034642,"133":-0.023180958420380048,"134":0.019427889043959527,"135":-0.14140689046702654,"136":-0.061977037017381664,"137":-0.024568757177847223,"138":-0.097013879836629,"139":0.041377197820682964,"140":0.132865633624796,"141":0.05605451859255787,"142":-0.0714146394956752,"143":-0.07780056508024506,"144":0.0052025032221705465,"145":-0.030902699073852628,"146":-0.006344798664977586,"147":-0.027497108826501384,"148":0.06787259451794994,"149":0.04212976820085244,"150":0.03146025030024946,"151":0.15220984524118916,"152":0.14128456926994654,"153":0.013604378831498136,"154":-0.10734288961136816,"155":-0.040553129394664836,"156":0.12564835397551072,"157":-0.014602766021614212,"158":0.0016392559986158578,"159":-0.09464619779847705,"160":-0.011297071601792781,"161":-0.12416261730007407,"162":0.03883004894815365,"163":-0.014141984228128101,"164":-0.07935819959552223,"165":0.15655093750957355,"166":0.0839233239449474,"167":-0.057402220963810514,"168":0.017989703531129428,"169":0.08456508642076391,"170":-0.13231672448503923,"171":0.09556655539787666,"172":-0.016812353407227473,"173":0.0714011174164786,"174":-0.0032598788356199815,"175":-0.07568642942367022,"176":0.004591371487404717,"177":0.02494249882277589,"178":-0.03548535679135489,"179":-0.04508789885357835,"180":-0.07713741857374612,"181":0.0980439861979811,"182":-0.1131700774114575,"183":-0.022267716162770842,"184":-0.23446408684453393,"185":-0.005335917647355874,"186":-0.06315763425565064,"187":0.0162864655435197,"188":0.14441606624430708,"189":-0.062147730608684254,"190":-0.059619415740788696,"191":0.04044589547934634,"192":0.011752221317551962,"193":0.010571105722829295,"194":0.10662189765310398,"195":0.005885801028336397,"196":-0.00846309652816408,"197":-0.03387306934411532,"198":0.06984026423509679,"199":0.07592746457891189}},{"sx":5,"sy":5,"depth":8,"w":{"0":-0.045393213262597015,"1":0.1634890908325345,"2":0.03732130253201683,"3":0.14095449821833939,"4":-0.05463298006465437,"5":0.042662572069701456,"6":0.027097809922167523,"7":0.19774726137656393,"8":-0.020172613340865394,"9":0.14213542150379907,"10":0.11452935826987899,"11":0.11907279591384139,"12":-0.03524065843151044,"13":-0.09577348269767362,"14":0.01101327154298058,"15":0.16980646430791807,"16":0.005886042497274947,"17":0.06135330628645997,"18":0.17847735294347647,"19":0.19583412278447151,"20":-0.1692929800098648,"21":0.23644674536915142,"22":-0.009667639981872688,"23":0.12463596675964167,"24":0.01656847698380553,"25":0.2272116957049778,"26":0.19269725601462193,"27":-0.025403845960353427,"28":-0.06953791797821153,"29":0.0895279108644931,"30":-0.0023712961087151516,"31":0.11004719626907719,"32":0.11634285433673046,"33":0.0563785331380705,"34":-0.008994601744531167,"35":0.09269353353595337,"36":-0.028712574443032133,"37":0.06097980466253111,"38":-0.08715279671472492,"39":-0.01828471232146819,"40":-0.03196253196800261,"41":-0.004376226401831105,"42":0.017192232094538903,"43":0.1708227401638087,"44":0.1625971419810453,"45":-0.024968117854092586,"46":0.0004580958089872113,"47":0.031126016793813337,"48":0.06210998660646262,"49":0.061836954139849,"50":0.034151339165253876,"51":0.27399845923412186,"52":-0.036391192087047275,"53":0.030990508270578844,"54":-0.010216230603072678,"55":-0.04033611489459145,"56":0.0049686340524163625,"57":0.02572341515660114,"58":0.08089188326852954,"59":0.09129721380830352,"60":0.07013741403959224,"61":0.026031203547608257,"62":-0.09421852805609297,"63":-0.00473206820068244,"64":-0.05567783328585512,"65":0.024918212898891155,"66":0.08651759083818256,"67":0.00480182084910291,"68":0.030988796384600042,"69":0.07684556542762541,"70":0.026859462702521132,"71":-0.2531799937607131,"72":-0.18381953272384677,"73":0.15194353485330248,"74":0.04314647103653691,"75":0.08641861688623552,"76":-0.09205449495001332,"77":-0.0687576653395896,"78":0.09845498840858827,"79":-0.07296371959002856,"80":-0.20832528537180237,"81":0.027212739698005445,"82":0.013912774779692225,"83":0.12186259680380643,"84":-0.05573858173682379,"85":0.08564621344439359,"86":-0.051946566640757266,"87":-0.0426642576940315,"88":0.021228109227975293,"89":0.037553656887038926,"90":0.09665407865961993,"91":-0.005074317155776168,"92":0.02684338000488405,"93":-0.01285565831429914,"94":0.04220173327338023,"95":0.057649783239866824,"96":-0.08733709036271226,"97":0.12990740728525904,"98":-0.04677548642276062,"99":-0.0127857111801072,"100":0.005244270468046042,"101":-0.001010342297845843,"102":-0.09300124427439822,"103":0.0202226434039138,"104":0.02021914449319687,"105":0.10612414532748138,"106":0.05922746863814542,"107":-0.04199647827366892,"108":-0.030061688830099815,"109":0.10114514213067109,"110":-0.10061691564357465,"111":0.028520796771668605,"112":0.04008491922448326,"113":-0.007202902778664638,"114":0.0991758891516182,"115":-0.010606874587616307,"116":0.05595161576660168,"117":-0.06602568889842408,"118":-0.025927824921802102,"119":0.0711654388965517,"120":-0.1849345915393773,"121":0.10235631733010397,"122":0.026994709388864786,"123":0.08061806516815574,"124":-0.10932261321609857,"125":-0.030307068846457952,"126":-0.10525101046816522,"127":-0.15504639509121843,"128":0.07753427464469663,"129":0.058045428734172955,"130":-0.006463529602714472,"131":0.10038499529371665,"132":0.028993028628946246,"133":0.08881454006902155,"134":-0.031756228781019136,"135":-0.10052329536214444,"136":-0.016680689470316767,"137":0.02870443387176629,"138":0.07541377907609827,"139":0.030961920090957617,"140":-0.0910929713772676,"141":-0.04117321111173734,"142":0.020030448812394862,"143":-0.16667457760668497,"144":-0.005013394956520051,"145":0.1502649755954967,"146":-0.015369049769873876,"147":0.09004124417379739,"148":-0.008426137936251308,"149":0.014814515393469488,"150":0.04939994228204025,"151":-0.10742595203123949,"152":0.06984916206291392,"153":0.13833143500533604,"154":0.11116605208233246,"155":-0.16236360246111928,"156":-0.12873859242864208,"157":0.04697753786443765,"158":0.11756508129113058,"159":-0.054565875581323656,"160":-0.08862119051534245,"161":0.049892288178575744,"162":0.022856546148419466,"163":0.08084340176932227,"164":-0.15481087611469269,"165":0.10123964330205142,"166":0.08015470484401886,"167":0.024539825577261365,"168":-0.1525816269949579,"169":0.17601902598577235,"170":-0.013834759758280796,"171":0.11950852255377797,"172":0.003618949032137573,"173":0.05364202774668222,"174":-0.06084349480959077,"175":-0.19033182695205708,"176":-0.07891464561842572,"177":0.07306594174656549,"178":0.11165879916106188,"179":-0.07615114926948975,"180":-0.025835765702640054,"181":0.07151582043492079,"182":-0.15632741616632895,"183":-0.06443149662948106,"184":-0.04249664959686283,"185":-0.016424849304589418,"186":-0.026012556452990915,"187":-0.010014506928336735,"188":0.02766965246880056,"189":0.017336547489562808,"190":0.008140420359348527,"191":-0.15442444839739083,"192":0.07989371559180684,"193":0.1037252853413296,"194":0.141097185615054,"195":0.05048412476098921,"196":-0.12692177788945644,"197":0.11178849023975546,"198":0.025571955883366408,"199":0.012270804572189929}},{"sx":5,"sy":5,"depth":8,"w":{"0":-0.07303973744966055,"1":0.11374303136818113,"2":-0.04075756987929937,"3":-0.07507806408282035,"4":-0.10197447209303552,"5":-0.00706113384552634,"6":-0.19917371961625946,"7":0.03909987990475903,"8":-0.17629843489737812,"9":0.006103146175985569,"10":-0.17163146506194435,"11":-0.18905911619070154,"12":-0.14072585560555725,"13":-0.19244934316456003,"14":-0.12456285421514962,"15":0.03561468472564106,"16":-0.0007266004700048075,"17":-0.012863310881330636,"18":-0.054881500085509724,"19":0.12907601150973835,"20":-0.08823390242151151,"21":-0.21218634004222478,"22":-0.06088821675163151,"23":0.004379652150536477,"24":-0.05978145653970153,"25":0.007728880154255617,"26":-0.09502412164484321,"27":0.08931651980684126,"28":-0.049196791724811645,"29":-0.009268786682992287,"30":-0.2267926073933938,"31":-0.10731963372334735,"32":-0.19659390077225627,"33":-0.04234662496059614,"34":-0.06372623160155773,"35":-0.01808603960448434,"36":0.013493936884960638,"37":0.012067755688984338,"38":-0.2647904197083424,"39":0.10604703597726396,"40":-0.13635383009419708,"41":0.1779374482860453,"42":0.013955815384845732,"43":0.0535234327146257,"44":-0.1440843538787146,"45":-0.04206876856665153,"46":0.08898055013015363,"47":0.08365328507636002,"48":0.04736488224542734,"49":-0.009079456077954703,"50":-0.014240647545278026,"51":0.11366076055522999,"52":-0.008866389764218987,"53":0.0037227476091189664,"54":0.027793866903078387,"55":0.24079493366484073,"56":-0.015235240039081594,"57":0.07882482653480687,"58":-0.03594125565415844,"59":-0.051989598828006765,"60":0.015606141210549401,"61":-0.06306463139094158,"62":0.04935655799747516,"63":0.19683684531214213,"64":-0.03444571750947048,"65":0.12145666840687112,"66":0.009001764992699784,"67":-0.13125336852527783,"68":-0.07899556701930674,"69":0.004856508893382105,"70":0.024693138563486962,"71":0.07544734614710642,"72":-0.023805136213568695,"73":-0.15063800472681727,"74":0.011021710655946178,"75":-0.1705035591005133,"76":0.06785595873773229,"77":-0.10262828228263436,"78":0.04859443780580287,"79":0.2670082187191887,"80":0.09844338053923607,"81":0.08583806702309138,"82":0.09380853993693195,"83":0.11564545010431741,"84":-0.04174156603519062,"85":0.2266525310026063,"86":-0.06468696386149364,"87":-0.04492794907253606,"88":0.08434633086587413,"89":-0.0972108063161495,"90":0.08769649577117002,"91":0.008918727286582797,"92":0.07900640447827581,"93":0.0593551662870333,"94":0.07896483692519544,"95":-0.22131396177698245,"96":-0.061838515045218846,"97":-0.1603316100710161,"98":-0.03753378973618937,"99":-0.0018127459715528362,"100":0.0888075408790338,"101":0.14235819390012133,"102":0.07551531907204899,"103":-0.1412503620681724,"104":0.07349871144645516,"105":-0.07000480707250925,"106":-0.04578263795544102,"107":0.002978200407559133,"108":0.16198573712500136,"109":-0.09280434221076399,"110":0.0905859734161455,"111":-0.14778798749250294,"112":-0.11817167422929167,"113":-0.03722144511892847,"114":0.017622755073341385,"115":0.03999186116294625,"116":0.10089395739774308,"117":0.0891318373647745,"118":0.1439795180836163,"119":-0.07591784515521417,"120":-0.12169099405277896,"121":0.11615428837683948,"122":-0.00819488528860632,"123":0.08271270293456104,"124":0.14339487012929739,"125":0.13577074839578604,"126":-0.033389470807811475,"127":-0.1343469950571861,"128":-0.07900852738792329,"129":0.07069799184726043,"130":-0.059141147685274884,"131":-0.05299895882411754,"132":0.2906183534917189,"133":0.06083487482542292,"134":0.05620649437954449,"135":-0.19228954888598987,"136":-0.057524755302506836,"137":-0.02079430770203256,"138":-0.24164906490149207,"139":0.12749871812722882,"140":0.19844341511369276,"141":-0.05778468209453075,"142":-0.09067195328669705,"143":-0.10270352936954166,"144":-0.11508430278408434,"145":0.048762877913494554,"146":-0.1801147529283948,"147":0.01234814692975477,"148":-0.024706438189098533,"149":-0.02551966151845436,"150":-0.055614761426306086,"151":-0.1225497432663274,"152":-0.08317578579258007,"153":0.1670046460767603,"154":-0.04257321127344564,"155":-0.059671416697674555,"156":0.034421385452200894,"157":-0.040520244109101225,"158":-0.11433035465203241,"159":-0.07526366647710052,"160":-0.15118971722860416,"161":0.1407356933796463,"162":-0.1266380899264305,"163":0.044227279153239735,"164":0.07782665542988092,"165":0.10715341926794468,"166":-0.11483694833929697,"167":-0.0010748332805698884,"168":-0.12893218595976066,"169":0.07911653870215472,"170":-0.10339661555966309,"171":-0.03565883296692219,"172":-0.16167058312394045,"173":0.0024356461932409615,"174":-0.03719938559859201,"175":-0.06172409360880018,"176":0.001220998325911385,"177":-0.0954916573956201,"178":-0.16982144895872872,"179":-0.05659177569199367,"180":0.07372784918369309,"181":0.09288448767221304,"182":-0.08733909579678674,"183":0.04960801783536984,"184":-0.13473919704142162,"185":0.024954073964529692,"186":-0.044617101713717626,"187":-0.010799965354517596,"188":-0.038794669389775834,"189":-0.07796775860792717,"190":-0.05445846625932228,"191":0.011352111261299381,"192":-0.14524551840858915,"193":0.07561403785114239,"194":-0.059763401135028656,"195":-0.09375035879564284,"196":-0.06734401536747461,"197":0.06989528108439702,"198":-0.08831741533416998,"199":-0.08647312451081361}},{"sx":5,"sy":5,"depth":8,"w":{"0":0.015133995720838242,"1":0.053628785815500665,"2":0.03690233155061098,"3":-0.09531351374840624,"4":0.0065108535998500165,"5":-0.06340541605992368,"6":-0.018444257342089203,"7":0.0639861092435708,"8":-0.1394152118422417,"9":0.02779671189610285,"10":-0.10332488042394951,"11":-0.00223676355924376,"12":-0.034089262938249126,"13":0.01484499695365332,"14":-0.09512661283504784,"15":-0.01891910967866013,"16":0.0735253265561602,"17":0.004621008245602595,"18":-0.027808556104877702,"19":-0.02880693190856335,"20":0.07909917264263341,"21":0.10717516684703896,"22":-0.04934323966921838,"23":0.032947651057726526,"24":-0.08373977553270821,"25":0.14130312871838024,"26":0.1898224522731777,"27":0.05941040553803129,"28":0.08102535381285819,"29":0.14529437270503268,"30":-0.0018814440664350735,"31":-0.1253395996983978,"32":0.01995009854350653,"33":0.10037920743844957,"34":0.2088157736475628,"35":0.003931747843610521,"36":0.11870400514428141,"37":0.07203958840688943,"38":0.0864726054789183,"39":0.07567163811762036,"40":-0.057013107565936236,"41":0.1096368591216828,"42":0.06861611026091649,"43":0.025988854830748327,"44":-0.10199208002092053,"45":-0.028131411976423833,"46":0.005283993791601812,"47":0.058562827135730716,"48":-0.09286076221151991,"49":0.09472127132926311,"50":0.0876161065059317,"51":-0.01726517831738871,"52":-0.11696998355515507,"53":-0.04275280447606404,"54":-0.07150672081071063,"55":-0.038237785640398175,"56":-0.11375006952714016,"57":0.011151472508214563,"58":-0.04658897866159218,"59":0.08528639812295724,"60":-0.28209136947908253,"61":-0.004132947664913292,"62":-0.06516692468944328,"63":0.014776506039855752,"64":-0.11694116424040953,"65":0.03171310551997821,"66":-0.1168157901383776,"67":0.03862629598641199,"68":-0.013848015086978452,"69":-0.03251858566860894,"70":-0.04496419830126074,"71":-0.05550350976878231,"72":0.22428180809973033,"73":-0.05544386919642965,"74":0.18979065171997575,"75":-0.07158158841913279,"76":-0.11240389651696614,"77":0.14410932112249905,"78":-0.09277018723441126,"79":0.07750626167179683,"80":-0.13369076593912277,"81":0.08534014504505628,"82":-0.034738561007906746,"83":0.06903126791646798,"84":0.025626620818373573,"85":0.011656135676405908,"86":0.062406119393109735,"87":-0.01957046378011596,"88":-0.12939720497534343,"89":0.1661011320636096,"90":0.07041369848535438,"91":0.05141449824988359,"92":-0.09444502783340826,"93":-0.05922079634546835,"94":-0.05634469792843429,"95":-0.059876256803685114,"96":-0.0645368466847093,"97":0.061037628680218455,"98":-0.08030695483335652,"99":0.11633226994481767,"100":-0.09325211591062532,"101":0.0042834414442443946,"102":0.01813013880704827,"103":-0.10824564647788061,"104":-0.15713161744354595,"105":0.13939195958092032,"106":0.04098949570860493,"107":0.08169122136140024,"108":-0.010903642963977014,"109":0.1546158957430542,"110":0.059526593085543984,"111":-0.05729834250161332,"112":-0.06643656806601198,"113":0.12612927968196405,"114":-0.021643031245303954,"115":0.026930090349500186,"116":-0.10029156024202335,"117":0.21522769483931012,"118":-0.04455293243882078,"119":0.04760841663855223,"120":-0.14797131134445757,"121":0.1197041445750452,"122":-0.05707066314065929,"123":0.075009628890217,"124":-0.011104900538906419,"125":0.014902601683853397,"126":0.24010995675781802,"127":0.03791287547990314,"128":0.03963754344267031,"129":0.1263836285312039,"130":0.11656823049997422,"131":0.12303976446023511,"132":0.01958773083681811,"133":0.14150151292737004,"134":0.0052344817259833525,"135":0.10537567869964445,"136":0.007699935430641626,"137":0.016316587729125562,"138":-0.0450197317380142,"139":0.11036710178693453,"140":-0.11736672598079588,"141":-0.0058025256337041545,"142":0.04985486786214338,"143":-0.08474687071462694,"144":-0.12656057567919576,"145":0.14318159876429154,"146":0.002052798768839692,"147":0.012627063079996803,"148":0.010322454886777924,"149":-0.011476697289348683,"150":0.0018535457210618305,"151":0.004187084491828527,"152":0.045817817936804235,"153":0.11281615577775926,"154":0.14043440314593147,"155":0.1234764562951902,"156":-0.016348337590640537,"157":0.21397201759000814,"158":0.08691770277709986,"159":0.07918583156430423,"160":-0.06781009505786963,"161":0.03175069739192189,"162":0.06537046905007134,"163":0.09112775376590286,"164":-0.12337217716911025,"165":-0.08810079201155056,"166":-0.007126300666463657,"167":0.120775705399377,"168":0.06870588686746852,"169":0.07729796650000115,"170":0.02641816232880458,"171":-0.00187742146414652,"172":-0.07237488110098779,"173":0.1794854551687169,"174":-0.05274505531794753,"175":0.17752195873710677,"176":-0.09849863725223065,"177":0.02228753495136581,"178":0.018341264165946065,"179":0.08208644419123917,"180":-0.04922591715463662,"181":0.07795327262206996,"182":0.0926525735698,"183":-0.04853700417054907,"184":-0.017155269916858076,"185":-0.0069247667921467195,"186":0.09123616252417761,"187":0.08523798354141572,"188":-0.08644546648322385,"189":0.0585289205695748,"190":-0.07726651635531834,"191":-0.00578190931403105,"192":-0.040468823081335314,"193":0.12844607758975102,"194":0.06121443271835577,"195":0.14436246642551473,"196":-0.13236994989156536,"197":-0.019750531564370316,"198":-0.1968017043642564,"199":0.11739477881119903}},{"sx":5,"sy":5,"depth":8,"w":{"0":0.022727888863432365,"1":0.05416845987732116,"2":0.009054487291265194,"3":-0.029620298586917573,"4":0.1465790459043107,"5":-0.06958749319915238,"6":-0.1258838021211043,"7":-0.06814035517754842,"8":0.07623811966604074,"9":-0.09999654338502448,"10":0.015076234101781189,"11":-0.14380351144591524,"12":0.10322866864474975,"13":-0.06734284187095466,"14":-0.1588294394628375,"15":-0.1444502375121651,"16":0.006107898507037531,"17":-0.10624981635501814,"18":0.06364604300622527,"19":0.17139603800599784,"20":0.09034753369760162,"21":0.006872934547472273,"22":0.09971047014536481,"23":-0.076912851631695,"24":-0.01339609672601921,"25":-0.06935745178160013,"26":-0.02167106556180279,"27":0.07656539597779492,"28":0.11769213355369608,"29":-0.04427684744246455,"30":0.09141377410353224,"31":-0.05937453058054178,"32":0.0162166775888783,"33":-0.08300321592051971,"34":-0.0065290969918058986,"35":0.09911128799394216,"36":0.03252474510158548,"37":-0.028778589487523598,"38":0.018572760952537178,"39":-0.0882548275160725,"40":0.02141879687800857,"41":-0.005615783814577461,"42":-0.05633325762609943,"43":0.009071883681613184,"44":-0.13632180880795,"45":-0.010560554916871056,"46":-0.29220657950054807,"47":-0.13946429112830022,"48":-0.15189268327353306,"49":-0.01317940957393513,"50":0.017266731369529116,"51":0.027205528376544698,"52":-0.12683513136844107,"53":-0.001245428972108031,"54":-0.16551773162764358,"55":-0.07032323253341971,"56":-0.11514414487740735,"57":0.007258216134646759,"58":0.1444487943082462,"59":-0.028393753668418998,"60":-0.09229981131712282,"61":0.11010766268558282,"62":-0.20044408896829274,"63":-0.08661467158512841,"64":-0.26189856750191715,"65":0.03916503181056772,"66":-0.08146922264659123,"67":-0.06264964203763046,"68":0.065894414253908,"69":0.09400686471136491,"70":0.08706832637760198,"71":-0.07018852876184015,"72":-0.11283246876578595,"73":0.06615952581282095,"74":-0.10985623200632497,"75":-0.023804936161783436,"76":0.011066619383009227,"77":-0.0872867814389237,"78":-0.1508593548168136,"79":-0.09923208874795092,"80":-0.07293877142298442,"81":0.10002346399162015,"82":0.06532739763149015,"83":0.2379397205915773,"84":0.031644347793329836,"85":-0.07857117153693101,"86":0.10982041602186816,"87":0.15190060330293173,"88":-0.07370044435462386,"89":0.04353888957171517,"90":-0.08918265969295756,"91":-0.0017074479671191506,"92":-0.0018195075027654332,"93":-0.08068027322830502,"94":0.15045022371710637,"95":0.2460773077105649,"96":-0.0073014942507660776,"97":-0.09785712134551694,"98":0.012394664518407964,"99":0.010749302036637496,"100":-0.03965308624158169,"101":-0.041978309943063535,"102":0.19867639441756588,"103":0.24762691205943166,"104":-0.06055364479934701,"105":0.03780146407314516,"106":0.1017557242951441,"107":0.1207672219151857,"108":0.05719780118481021,"109":-0.021069917790047035,"110":0.16096362713877505,"111":0.24846758621715218,"112":0.007876846966525198,"113":-0.056327083660089226,"114":0.06125722733443484,"115":-0.032259978612862394,"116":0.09211158876463985,"117":-0.024566703377612333,"118":0.07598010223370671,"119":0.14095832373339248,"120":-0.0447929935911744,"121":0.06527280740362554,"122":-0.015912458363651127,"123":0.22438715873245688,"124":-0.06472353934724896,"125":0.0021301618797955934,"126":0.23008541234835828,"127":0.018078862853406437,"128":0.07490540824045726,"129":-0.04936111313090736,"130":0.08863932301351975,"131":0.04067753246146108,"132":0.07926759335347056,"133":-0.08410389680256014,"134":0.16827499997126863,"135":-0.0041612662423134595,"136":0.05167426851507536,"137":-0.214496527357478,"138":0.0007086521905514248,"139":0.08521888892035796,"140":0.08627686307241644,"141":-0.008925260124527356,"142":0.07788324511185304,"143":-0.15954330370678443,"144":0.07532870840916339,"145":-0.0755887893487621,"146":0.08454240937122295,"147":-0.11502961912790073,"148":0.09279120068549547,"149":0.028150583965270978,"150":0.09410376598252751,"151":-0.001843764496979566,"152":0.0544600006429648,"153":-0.06565824397583096,"154":0.04696292348774413,"155":0.10654304172570586,"156":0.019153077662357038,"157":-0.04230080286403522,"158":0.06261442377500313,"159":0.06233392560748823,"160":-0.1050937891240221,"161":0.09964079205302905,"162":-0.019697371260545958,"163":0.09724149140209888,"164":-0.004305350303553225,"165":0.026525548166148896,"166":-0.2239074061604083,"167":-0.038963029423374644,"168":-0.13818382336780602,"169":0.04646688139661477,"170":-0.11349379008255601,"171":-0.07576733199730298,"172":0.15450751894339448,"173":-0.0619369534546704,"174":-0.1983995747083073,"175":-0.013993761573059555,"176":-0.13839753848706376,"177":0.09106276000920989,"178":-0.03838353602798336,"179":-0.03457170842381066,"180":0.1396548629860038,"181":-0.019259774551580747,"182":-0.1453609633742713,"183":-0.009913530128017338,"184":-0.12385190979463016,"185":0.12332359507030535,"186":-0.04708003555184828,"187":0.009912186129323923,"188":0.22051062622804116,"189":-0.07650868225218282,"190":-0.26924878309605627,"191":-0.247053241150531,"192":-0.11274976523414655,"193":0.1238208283497794,"194":-0.13607417629265064,"195":-0.08264562680737793,"196":0.17788707952381502,"197":-0.02479460885688333,"198":-0.20596786790796442,"199":-0.13959893461748196}},{"sx":5,"sy":5,"depth":8,"w":{"0":0.09344049328511139,"1":0.04502938809578073,"2":-0.08543464620142761,"3":-0.1430844081042802,"4":0.060428907561280124,"5":-0.0968725893193191,"6":0.22452447871178277,"7":-0.002597081043142879,"8":-0.02065972211005907,"9":0.04777155168631298,"10":-0.11679681027315145,"11":0.1202284761231248,"12":0.13662125257142974,"13":-0.1191474651251416,"14":0.18084240288262854,"15":-0.049000536905077656,"16":0.003020722597143949,"17":-0.02714898447862865,"18":0.11934721688541214,"19":0.01860136966410624,"20":0.034095169469397425,"21":0.034783761525981956,"22":-0.07861197193407589,"23":-0.0030564857186499263,"24":-0.006876305310512014,"25":-0.10166006972418072,"26":-0.029402374828362478,"27":-0.09601665953488209,"28":0.11553180632521301,"29":-0.09425995572402221,"30":-0.042875466848206215,"31":-0.0028792516974470257,"32":-0.10207320710766883,"33":-0.10476342889713998,"34":-0.030747512618394156,"35":-0.0813829658773242,"36":0.007534247030558301,"37":-0.15465766631019923,"38":-0.10015953212654849,"39":-0.06282956925518848,"40":-0.07980752020427677,"41":-0.07792969670929421,"42":0.08841296823612996,"43":0.08246524151013744,"44":0.044370120556244695,"45":-0.0784451161838119,"46":0.1215611373449561,"47":-0.13417013747346665,"48":0.09203177062556618,"49":-0.07518977054012517,"50":-0.03149573616597016,"51":-0.039651398578358164,"52":-0.13309037905467985,"53":0.016286195222237423,"54":0.09467515843528876,"55":-0.002952378993751645,"56":0.014366324472320894,"57":0.017780707494751132,"58":-0.11149371099444697,"59":0.06193284793764299,"60":0.033519551981231015,"61":-0.045098073954507496,"62":0.05203814838156974,"63":-0.029037516309655214,"64":0.08216994649848605,"65":-0.024300964496324715,"66":-0.13548171412108445,"67":0.0019922135997532025,"68":0.012403447801628581,"69":-0.061498652240069805,"70":-0.038355000103705315,"71":0.0680213040743147,"72":0.10599635312193095,"73":-0.11482711396065806,"74":0.04045846330596143,"75":-0.2254197321452489,"76":0.03201680863621747,"77":0.03890025214920409,"78":0.01647487674494077,"79":0.010639038007572875,"80":-0.14516839461393724,"81":-0.09000218811092274,"82":0.004744086673519484,"83":-0.17011981669402493,"84":0.0014002165339778833,"85":0.14186009936739782,"86":-0.03258867072261112,"87":0.022123501342734362,"88":0.08338290460277341,"89":-0.008001991745937546,"90":0.02632399613994517,"91":0.017661371247737728,"92":0.041493539359155514,"93":-0.07180295493068754,"94":-0.12345924138200864,"95":-0.1702588137146094,"96":0.06868130244249573,"97":-0.04032536204077054,"98":0.05447314123593974,"99":0.15994372771084941,"100":0.0008066212922981245,"101":0.04334961860708922,"102":0.07888259946390272,"103":-0.1472722736918674,"104":0.10355264248907704,"105":-0.07590822780219228,"106":-0.11948891484243392,"107":0.14064384402176003,"108":0.056043084998739515,"109":-0.009966593571321024,"110":-0.04002124434455383,"111":-0.13021199630651326,"112":0.014900526992829947,"113":-0.12094430364265722,"114":-0.006296074743246176,"115":-0.023397890512527653,"116":0.01835993236530075,"117":-0.0038811883846328744,"118":-0.13388029627021364,"119":-0.12642620030044466,"120":-0.06913870800647491,"121":0.11868414885990103,"122":0.05249685195373129,"123":-0.038580621839177695,"124":-0.10632468167306924,"125":-0.026415479459063328,"126":-0.11910929628637543,"127":-0.04876721126724433,"128":-0.09723432004605044,"129":0.020154318506361693,"130":0.09396830319047088,"131":-0.05046127465202063,"132":0.048207496123206336,"133":0.058800679563244876,"134":0.01900333065531572,"135":0.13304865585133127,"136":0.18671569716297556,"137":-0.09029692130456414,"138":-0.0682866280387506,"139":-0.022514741687020137,"140":0.004640373355637635,"141":-0.07014307290207238,"142":-0.047594421055487196,"143":0.07437696451371634,"144":-0.001838041992073471,"145":0.032027989795796845,"146":-0.06776496539629083,"147":-0.014204176717304898,"148":0.017920775087680977,"149":-0.0356838342050988,"150":-0.12295909789919635,"151":0.03434785915723709,"152":0.11489474507273657,"153":0.011570004508507344,"154":-0.018420593988955635,"155":-0.053996448508134766,"156":-0.09874360864337312,"157":-0.028346986059895992,"158":-0.10954712025735645,"159":0.027869254180055012,"160":-0.033682035667403236,"161":0.06845084427829484,"162":-0.08285248817431348,"163":0.07104435482142689,"164":-0.025548127863235574,"165":-0.17276257746451745,"166":0.16304458758967458,"167":0.14808323695464987,"168":0.10351847059739495,"169":-0.08545082193412536,"170":0.09428877943581572,"171":0.04655904749237115,"172":-0.16956638816192476,"173":0.040371549612561314,"174":0.14624932913915373,"175":0.07183132336387664,"176":0.11593588037263633,"177":0.014776433823754598,"178":-0.023468048126221917,"179":0.035573200148533324,"180":0.13112233892897068,"181":-0.16498629145180338,"182":0.0038239928788067544,"183":0.17782799312781675,"184":0.10866214296558768,"185":0.048736053408211064,"186":0.05690646168740695,"187":-0.056135024834214675,"188":-0.06405047335635795,"189":-0.1432019890160203,"190":0.1563489431024057,"191":0.08364274238772358,"192":0.10657586179411854,"193":-0.08160594743473527,"194":-0.0004054932546088449,"195":0.05082701969548092,"196":-0.0017701580626286605,"197":-0.10143851020651556,"198":0.13850462529396726,"199":0.033728388059370555}},{"sx":5,"sy":5,"depth":8,"w":{"0":-0.1629813461858354,"1":0.24189682158552048,"2":-0.0023038257381564255,"3":0.1430892579195572,"4":-0.11268453652428347,"5":0.07197749337316016,"6":-0.05979002680212608,"7":-0.03997035160600923,"8":0.056789183665889795,"9":0.12439537529745856,"10":0.010067362533526407,"11":0.1726701503868741,"12":-0.12841956583106343,"13":-0.06519894316018339,"14":0.01463968774641785,"15":0.10819107475787011,"16":-0.0483704311378105,"17":0.08988121227625515,"18":-0.034215682021381484,"19":-0.02567329128208017,"20":-0.13302737569157755,"21":-0.032699742383196284,"22":0.0726027196752012,"23":0.0936876705008753,"24":-0.1217566947184033,"25":0.23563536743084534,"26":0.07349838909340947,"27":0.1148737399782058,"28":-0.10992091184999606,"29":-0.12171655235388028,"30":-0.04720490225764307,"31":0.17033417735468043,"32":-0.07636886293636491,"33":0.037194665902042776,"34":0.11027963951463131,"35":0.10115485153431754,"36":-0.02928887297593273,"37":0.023316335426955413,"38":0.05314329461571557,"39":0.12898341280046474,"40":0.04227849767063587,"41":0.026317585863741774,"42":0.06707516906055709,"43":-0.048883560761350656,"44":-0.06064992471023917,"45":-0.01535423194740168,"46":0.16940726292134659,"47":0.03327805478747764,"48":-0.1960540895673794,"49":0.1854550400017068,"50":-0.009916756702376555,"51":0.12637647269465588,"52":0.07203624103639332,"53":-0.02127821039391803,"54":0.06221232266037158,"55":-0.1208344539178498,"56":-0.12159977862550285,"57":0.07641304448301894,"58":0.006891610966076054,"59":0.06556084380647625,"60":-0.2238079732969995,"61":-0.04224255769451303,"62":0.09464109326279752,"63":-0.05966711060388715,"64":0.050848995063836895,"65":0.005781144476507102,"66":0.18909985615667851,"67":0.11763295786385744,"68":-0.04481049806323888,"69":0.09175419728372233,"70":0.08958157677129269,"71":-0.07137824081619462,"72":0.026803740783797055,"73":0.20940941432523832,"74":-0.02971426977628791,"75":0.04514232350858957,"76":-0.06432431676168197,"77":0.010997555237283683,"78":0.044768402678615406,"79":-0.06482295294517976,"80":-0.07929162316834554,"81":0.10511564161983787,"82":0.08451101895980827,"83":0.12434688665903142,"84":0.11727522017215572,"85":0.009638511677163094,"86":-0.0010970416187523,"87":0.10002384984072646,"88":0.01086780478351286,"89":0.16092231212229735,"90":0.11083719854180317,"91":0.1261224113552491,"92":0.0074377667320288075,"93":0.016552009753354167,"94":0.06895277874683661,"95":-0.0246677786407289,"96":0.010191838657034966,"97":0.15175012316672318,"98":-0.0702885166034214,"99":-0.03939833810132198,"100":-0.08130213852886455,"101":0.0065608854801626195,"102":-0.09122436886028783,"103":-0.0751969131533038,"104":0.005963356941333858,"105":0.09975031180082802,"106":0.04814198372712311,"107":0.033311754226093414,"108":0.02596437108991382,"109":0.003172133013646127,"110":-0.0802094119440071,"111":-0.10987080084387195,"112":-0.1546541172251077,"113":0.10510833114088795,"114":-0.00730516721799139,"115":-0.028729216429391417,"116":-0.021094202817001684,"117":0.17083319264651584,"118":0.06095700108252212,"119":-0.0916850910187865,"120":-0.0018525740829543008,"121":0.10359469393339756,"122":-0.08992820439113705,"123":0.21421351322135537,"124":-0.029925500282557974,"125":-0.07623552221163535,"126":0.029639873332185734,"127":0.09558025631798044,"128":-0.10067029862518173,"129":0.24885358125935125,"130":0.0769815275970849,"131":0.14600588739356427,"132":0.02616858079529406,"133":0.13418520384361868,"134":-0.03217897005655748,"135":-0.025745953226909563,"136":-0.021061770747067807,"137":0.1139142759764756,"138":0.1456674572849078,"139":0.07593420969911077,"140":-0.09038301970967483,"141":-0.007442571555045467,"142":0.061350425335868694,"143":0.18130667379176402,"144":-0.04138197184379283,"145":0.15414570739476105,"146":0.14766941324733518,"147":0.07076296508213331,"148":-0.1452785744723353,"149":0.051119085868238504,"150":-0.0196911750868259,"151":0.06246254060982983,"152":-0.06872173533617189,"153":0.05860332931425731,"154":0.07014173259067089,"155":0.19860943919803342,"156":-0.021286054663241284,"157":0.0495961130329938,"158":-0.11414564841813918,"159":0.04871632328176244,"160":-0.17301287598683757,"161":0.07152149000951641,"162":-0.018041418467577282,"163":0.014692153460206397,"164":-0.009413320204546046,"165":-0.05424573030345261,"166":0.07042683381533274,"167":-0.06874175701141765,"168":-0.12033050298900586,"169":-0.01891649312323084,"170":0.04651307371975424,"171":0.005598810039203344,"172":-0.03689829472171458,"173":0.02089448618615676,"174":-0.1662930333165259,"175":-0.11600817884391511,"176":-0.1522586576425814,"177":-0.015929739568574387,"178":-0.12233923145090304,"179":-0.04726305702232928,"180":0.008693873675904469,"181":0.10683339752727578,"182":0.12267183017369714,"183":-0.19241304244953011,"184":0.019159297226166997,"185":-0.02023762176588636,"186":0.0771855334269475,"187":0.01352219563477254,"188":-0.06514946861606999,"189":0.013985762127187858,"190":0.04672422291175337,"191":-0.136175781636402,"192":-0.045077135644629014,"193":0.08163309918782004,"194":-0.07219077944466268,"195":0.06453725763161541,"196":-0.03543272362653883,"197":-0.06580313536861958,"198":-0.030239585119627585,"199":-0.0747658328271288}},{"sx":5,"sy":5,"depth":8,"w":{"0":0.015030293817677941,"1":-0.10331787563171446,"2":-0.12339357042558413,"3":0.005555087054579631,"4":0.0563038704902554,"5":-0.06922761549461189,"6":-0.14384570088289933,"7":0.18469169149975773,"8":-0.03447725515561591,"9":-0.10611506248500857,"10":-0.13380885116495378,"11":-0.03170780633248803,"12":-0.033030236008577775,"13":-0.09209118810516942,"14":-0.014252829670848044,"15":-0.040120803696666624,"16":0.18643936518005702,"17":-0.04452075615636336,"18":0.013349824244241968,"19":0.04571625696715138,"20":0.16882466114921799,"21":-0.09460452245263117,"22":0.015809496552825493,"23":-0.058882649977250144,"24":0.06016988927172517,"25":-0.19471934074154215,"26":0.06501706049087734,"27":-0.03202045555464629,"28":0.10448644865503502,"29":0.05253068532256764,"30":-0.08553049435242761,"31":0.11500835490339936,"32":-0.01663087083387953,"33":-0.17723494622061126,"34":0.023702011086936238,"35":0.017736225862235954,"36":0.07097745846559941,"37":0.02614886914712577,"38":0.08631265265176716,"39":0.06557306868802175,"40":0.19552267219105252,"41":-0.09323798645563523,"42":-0.11180433426958632,"43":0.01730529376286636,"44":0.08681250218663299,"45":0.008293738172140238,"46":0.14988846440495868,"47":-0.03496746869301045,"48":0.10226845710299313,"49":-0.07517455172882477,"50":-0.032333160721918816,"51":-0.07586289822697596,"52":0.00029755366203189067,"53":-0.032679120650352285,"54":0.11259539433035193,"55":-0.0576542960610235,"56":0.014675277513829568,"57":-0.0765095331375871,"58":0.09737801861196001,"59":-0.12332709567385262,"60":-0.06023603488711225,"61":0.005839469306678566,"62":0.3180131186320079,"63":-0.008857114583441543,"64":0.20768141223347952,"65":-0.21372899302510662,"66":0.11518941457456044,"67":-0.032464274171561135,"68":-0.010112507796622526,"69":0.09836357224747029,"70":0.24198582423386497,"71":-0.1035079533958831,"72":0.1569623064692738,"73":-0.1568541348570913,"74":0.04972855042780032,"75":-0.06270195304355963,"76":0.014544563794936556,"77":0.11169701616991591,"78":0.1749101389790258,"79":0.09786971369161174,"80":0.10694814186227382,"81":-0.117258592644974,"82":0.008727998300681591,"83":-0.03880391190557062,"84":0.023012462187099833,"85":-0.00843171584541856,"86":-0.04231274307337947,"87":0.09766024156034042,"88":0.03612163026199747,"89":-0.18818086842721474,"90":-0.006958610361638424,"91":-0.03580091932022223,"92":0.11380157894399903,"93":-0.179050899984545,"94":-0.14175971469848805,"95":0.0029686660020295515,"96":0.20811761478401258,"97":-0.139215016815155,"98":-0.02447493591955972,"99":-0.16360397741113455,"100":0.20838803096832315,"101":-0.0657990614176115,"102":0.06555864409091851,"103":-0.08341728236037288,"104":0.19887680955786707,"105":-0.16869262552036435,"106":0.044987358917555884,"107":0.007280703343517317,"108":0.09578084137983857,"109":0.0050164817035772405,"110":0.18850198361834652,"111":0.2929680978432683,"112":0.07063512892391931,"113":0.05568545614487159,"114":0.00318939735857895,"115":0.09816733368923401,"116":0.15046040676579636,"117":-0.029454835472299698,"118":0.16949298533252524,"119":0.19249359649747086,"120":0.21551803445228565,"121":-0.1562022431555895,"122":-0.14642514333935155,"123":0.13251395341461528,"124":0.029595160153193894,"125":-0.15844135738801352,"126":0.02476592596491651,"127":0.00042368828731407203,"128":0.09025900569503548,"129":-0.2200833756492156,"130":0.06995941639552213,"131":-0.06462505810102435,"132":0.06967434704389325,"133":-0.03353968494469358,"134":-0.006053322978775569,"135":0.08988918027300147,"136":0.04691112977043595,"137":-0.10636338857649304,"138":0.07131519925280526,"139":-0.119280925621605,"140":0.11903655256999197,"141":0.0522561242114803,"142":0.05328571861510987,"143":0.1509641127742232,"144":0.12690532729633858,"145":-0.20569993126099828,"146":0.12449452047622563,"147":0.0648031391896014,"148":0.04921618824749854,"149":0.05356476367859398,"150":0.06927487218675885,"151":0.09124771679673287,"152":0.10459751876946681,"153":-0.13535023845786595,"154":0.027517246944023674,"155":-0.14261399879156408,"156":0.12090656157132784,"157":0.06018448822675449,"158":0.2524825009634323,"159":0.034571645596582774,"160":0.06667777142881981,"161":-0.05804356752454774,"162":-0.08857950460976048,"163":-0.10974697488811734,"164":0.06182440392861481,"165":-0.07856414570899986,"166":0.07436583713779202,"167":0.10889346657543411,"168":0.02550195378555669,"169":-0.17233636896982152,"170":-0.11672351528783019,"171":-0.009049086599688989,"172":0.0588945954759552,"173":-0.0475144861142728,"174":0.04600458073971485,"175":0.11686355424468722,"176":0.039720733766264324,"177":-0.06007171597821565,"178":0.1223629819776337,"179":0.03728656321414176,"180":0.11885470387742605,"181":-0.003508289896993529,"182":0.04641773700517647,"183":0.251037090089868,"184":0.14004209660783806,"185":-0.1855441615194209,"186":0.19219632073233348,"187":-0.155645960591873,"188":0.0117591331235347,"189":0.09886585660751335,"190":-0.044811876363648674,"191":0.11761545239118085,"192":0.27679537295736784,"193":-0.05889722809416377,"194":0.030200656929183913,"195":0.04206065862807542,"196":0.15292115755727087,"197":-0.06836121484920053,"198":0.23377964121326136,"199":-0.010485768246541436}}],"biases":{"sx":1,"sy":1,"depth":16,"w":{"0":0.05693675344852809,"1":0.05402804197665263,"2":0.057484152264807985,"3":0.22116168598282063,"4":0.10180430131113757,"5":0.08346023054164728,"6":0.12814861199610994,"7":0.08018836124611312,"8":0.0852161483039205,"9":0.20677610036303418,"10":0.11685572909083225,"11":0.17791839136340237,"12":0.18080826485720597,"13":0.04747195516588829,"14":0.26611212948552393,"15":0.04390339138566184}}},{"out_depth":16,"out_sx":12,"out_sy":12,"layer_type":"relu"},{"sx":3,"sy":3,"stride":3,"in_depth":16,"out_depth":16,"out_sx":4,"out_sy":4,"layer_type":"pool","pad":0},{"out_depth":5,"out_sx":1,"out_sy":1,"layer_type":"fc","num_inputs":256,"l1_decay_mul":0,"l2_decay_mul":1,"filters":[{"sx":1,"sy":1,"depth":256,"w":{"0":-0.07988931370552964,"1":0.08887252593465386,"2":0.012334244536648584,"3":0.02271164185030758,"4":-0.10488085074964351,"5":0.04275470160162579,"6":-0.18198701798815375,"7":0.09595260711500674,"8":0.01743033689570608,"9":0.06412280771599627,"10":-0.07506960577779992,"11":-0.029190554047578095,"12":-0.03323107227137848,"13":0.05691698982062862,"14":0.04775699079282579,"15":0.05858210792841808,"16":0.02696878270111157,"17":0.12767449800322828,"18":0.04441346452119718,"19":0.0009416305439128057,"20":-0.13658087062902913,"21":0.1550907678270068,"22":0.005120394329700727,"23":0.1313119646169358,"24":-0.10678301219775586,"25":-0.02314771499330758,"26":-0.07802330519627407,"27":0.0054481618973239,"28":-0.026400414952711542,"29":0.09702111993789359,"30":0.055824258437044444,"31":0.20101173750566034,"32":-0.1393040465704371,"33":0.1324455041849389,"34":-0.06684607093004533,"35":0.10847126464890197,"36":-0.06862049816518413,"37":0.017693685961262046,"38":-0.09326236170488694,"39":-0.01080354806208982,"40":-0.026133431454024896,"41":-0.10263359934291943,"42":-0.03751946563167146,"43":-0.2921838074707442,"44":-0.043412349879563994,"45":-0.05406036355925595,"46":0.045183364504052595,"47":0.11254128862684198,"48":0.11076962360765276,"49":0.1807907518501136,"50":-0.011689023287644951,"51":0.05695216700809574,"52":-0.06575431828534048,"53":0.08669383636501751,"54":0.08732456878184722,"55":0.0006599150568822108,"56":-0.03716369910147258,"57":0.07952339237902147,"58":-0.08656032798937939,"59":-0.11067726616013178,"60":-0.015929163503226117,"61":-0.07789046973942394,"62":0.10536418687464483,"63":0.08108927136938122,"64":-0.11558987998687262,"65":-0.04612305190868964,"66":-0.004918486475097427,"67":0.2081234067671335,"68":-0.054017727262475945,"69":-0.1274265725678389,"70":0.010696538562006325,"71":-0.03614948061509278,"72":0.057198969379409416,"73":0.03331714411107174,"74":-0.03430571196275322,"75":0.09697022088818825,"76":-0.04969398396113128,"77":0.019115823465325345,"78":-0.06457302477090257,"79":-0.08343471529656933,"80":-0.1621828626762042,"81":0.015333211893312675,"82":-0.2192020259314996,"83":-0.008087041994158101,"84":-0.08878459133043552,"85":-0.11633772912860543,"86":-0.012947701768394817,"87":-0.08935748108840229,"88":0.05358366099397222,"89":-0.03711636672969316,"90":-0.13189299221955778,"91":-0.029385638362370313,"92":-0.05759212984366369,"93":-0.013962279619279396,"94":-0.12777637335196648,"95":0.10564833123185235,"96":0.12381320084099494,"97":0.12574644468716856,"98":-0.09010571881380637,"99":0.0206103004004777,"100":-0.10513726757216053,"101":-0.04490508068722205,"102":-0.03437546627115058,"103":-0.04831345924488731,"104":0.03281355583816545,"105":0.010023515412242556,"106":-0.2680233485745826,"107":0.1846664767797497,"108":-0.04923380060652597,"109":0.010486197123925447,"110":0.028198104879640393,"111":0.043807503527501485,"112":0.06964788341149108,"113":0.04955533794442626,"114":0.0697388277356024,"115":0.030796621595797987,"116":-0.1401800180056997,"117":-0.13938466761268034,"118":-0.13603485624455774,"119":0.0006502529868602123,"120":0.11586400027985828,"121":-0.03020967892509172,"122":-0.028647117299918614,"123":0.059273022086727266,"124":-0.1679942830827979,"125":-0.1282910704278483,"126":-0.056420460917002604,"127":0.03493041722951576,"128":-0.045331850690600306,"129":0.04342558503327677,"130":0.07271332105967858,"131":-0.045837389244505006,"132":0.1485775233352104,"133":0.09907259900263496,"134":-0.10312602474029547,"135":0.11866045783104447,"136":-0.006753164482560364,"137":-0.022141172128122853,"138":-0.1935478782513522,"139":-0.13432842072138318,"140":0.012393756562132572,"141":0.12964543780266602,"142":-0.08735121734417783,"143":0.028772942853896526,"144":-0.11960739068481303,"145":0.060949279266740645,"146":-0.022618699651402945,"147":-0.03275533080450714,"148":-0.11846828140100955,"149":0.0902857808018067,"150":0.028264046949849516,"151":-0.14380941237742476,"152":0.11489312031070624,"153":-0.09438630944648213,"154":-0.10227990448200155,"155":-0.05046994484842615,"156":0.056260303607413346,"157":0.05927269803972724,"158":-0.165315390401171,"159":0.04000121584945914,"160":-0.002815944534465598,"161":-0.14115083111722174,"162":-0.11452660140224724,"163":0.00030296779735476133,"164":-0.21181996449700027,"165":-0.000434791217448145,"166":0.025390253720073024,"167":-0.17895658786724336,"168":0.0009112373558926645,"169":-0.04884758363660751,"170":-0.1076812914282968,"171":0.03347381348099055,"172":0.04372415270294108,"173":0.13599149875005132,"174":-0.18306036770765088,"175":0.013510715317620443,"176":0.010492438043397095,"177":0.11552167279662921,"178":-0.11676874283230047,"179":-0.05474638731150646,"180":-0.016921264526234058,"181":0.012844330697669838,"182":-0.03272057146449281,"183":-0.034956554926366325,"184":0.02581785747326839,"185":-0.05780819974652862,"186":-0.06404268567026776,"187":0.12011874991983326,"188":-0.013385854570761238,"189":0.12291208930208365,"190":-0.0627607356261115,"191":0.09980740139654501,"192":-0.0038009085179525576,"193":0.0013622047682620994,"194":0.15133706449617804,"195":-0.039142409837847156,"196":0.025483947969065907,"197":-0.025836642752257763,"198":0.11939449733411373,"199":-0.1115877655802215,"200":0.14769761023462938,"201":0.016756033248189733,"202":-0.25755014806816684,"203":-0.05151015674801624,"204":-0.03364217661329919,"205":0.18284356706402288,"206":-0.1150478263373413,"207":0.1207519103068566,"208":0.026606411543171525,"209":0.21812362336973487,"210":-0.018674931345982602,"211":-0.18345293166924928,"212":-0.15150200568686462,"213":-0.04363202440759113,"214":-0.126516841265944,"215":0.030937266835786348,"216":0.0653381279971736,"217":-0.12104741838093835,"218":-0.2172141445696595,"219":-0.045911357151886316,"220":-0.2512438142345054,"221":-0.10905604253287123,"222":-0.04250875636738421,"223":-0.03584096010700151,"224":-0.11524682055391419,"225":0.05156121439921487,"226":-0.08248165984149179,"227":-0.10926731219747828,"228":-0.04055436811997709,"229":-0.07272792536318384,"230":-0.07210063368975175,"231":-0.15604221259348208,"232":-0.015080905775903639,"233":-0.025567019147907245,"234":-0.24257776178941232,"235":-0.18667380187049207,"236":-0.22164770491989771,"237":-0.09630129677217089,"238":-0.08128531067254526,"239":-0.09252392951383646,"240":0.18162917590040056,"241":0.13467672192504226,"242":-0.10225731241288454,"243":-0.015043148970881944,"244":0.0496669757333897,"245":0.06012235594890732,"246":0.09981801809257262,"247":0.06041728388961643,"248":0.11106555796548982,"249":0.11460819320124274,"250":0.14935889206615327,"251":-0.14370325886985577,"252":-0.2795616434962396,"253":-0.08697396276497087,"254":-0.07060568312642547,"255":0.09406742777505617}},{"sx":1,"sy":1,"depth":256,"w":{"0":0.05407955454732449,"1":-0.23819621671470975,"2":0.016644188236152754,"3":-0.009390356587696092,"4":0.014189179046321861,"5":-0.05773386110140582,"6":0.05885025778838188,"7":0.006834031206340879,"8":-0.04347145038473224,"9":-0.02870296118738554,"10":-0.22854617088360793,"11":0.13801747164421446,"12":-0.18794968217834507,"13":-0.12845455957079235,"14":0.09414698754194177,"15":-0.012382536883853108,"16":-0.0915025418961732,"17":0.01937976581154281,"18":-0.04601967219346617,"19":0.14962438257932162,"20":0.19738170302212596,"21":-0.008263747478644843,"22":0.12552581342846464,"23":0.11992149437773034,"24":0.029940906458450472,"25":0.08533592364882146,"26":-0.08071692050687487,"27":0.1403727011773192,"28":-0.21894392302665136,"29":-0.15494188826894392,"30":-0.05886309803661662,"31":-0.06738192754353303,"32":0.15951478647204093,"33":0.0441000402312283,"34":-0.08665261805535883,"35":0.17198398320679154,"36":0.13514505124966145,"37":-0.08455100016664466,"38":0.08041772981626835,"39":0.050733216391059606,"40":-0.09808810196036881,"41":0.15148912476417942,"42":-0.046980553597540026,"43":0.035819095495768206,"44":-0.09081592156155367,"45":-0.03707633038229692,"46":0.0744265557098873,"47":-0.12861141010916494,"48":-0.04778124681116472,"49":-0.14810875692771625,"50":-0.1207836097364527,"51":0.08298248690059312,"52":0.03405687367376875,"53":-0.022844146416067385,"54":0.00678169345267711,"55":0.03996246180796949,"56":-0.193129017772402,"57":0.007501412741274139,"58":0.04828782996660201,"59":0.127722273877608,"60":-0.13461273371958066,"61":-0.14003677866169248,"62":0.05175663340813913,"63":-0.331482380133625,"64":0.04588920068394412,"65":0.05432600597718617,"66":-0.07988697394859968,"67":-0.004659712611417494,"68":0.014449081246272259,"69":-0.006253581176563751,"70":0.1517287758400816,"71":0.11615516258203487,"72":0.05448878017834318,"73":0.01390689643358014,"74":-0.2184888292249839,"75":-0.020920510432389197,"76":-0.03612772964525035,"77":-0.053857218029427056,"78":0.0625321648073287,"79":0.04498675345076245,"80":0.02439834855962448,"81":0.02359415055865477,"82":0.05339010491098421,"83":0.0960374434042769,"84":0.3038050693487468,"85":0.025937322803224454,"86":0.10248600710853477,"87":0.11156502927251542,"88":-0.13889171609225906,"89":0.04967654760592323,"90":-0.13953925545124263,"91":0.20072743661827194,"92":-0.08147740257259661,